tree
version=v4
num_class=3
num_tree_per_iteration=3
label_index=0
max_feature_idx=9
objective=multiclass num_class:3
feature_names=orbital_period stellar_radius rate_of_ascension declination transit_duration transit_depth planet_radius planet_temperature insolation_flux stellar_temperature
feature_infos=[-1.8475740069981239:5.2144707781146895] [-3.8825310562215214:9.1802482863304196] [-3.0814846301882741:0.74956521272555798] [-5.0334553772203083:1.8219868774490464] [-4.1965188390169565:4.3318177813662944] [-2.0433526177249779:2.252394834352629] [-2.0437578532722722:5.3185329251594027] [-4.3931667072231804:3.0413854305696626] [-3.6040747380565059:3.1433614566914807] [-4.9104296899544497:13.670828444284954]
tree_sizes=11665 11675 11664 11866 11782 11836 11844 11805 11837 11865 11859 11874 11888 11858 11902 11870 11865 11892 11907 11860 11875 11901 11896 11864 11879 11883 11904 11900 11875 11899 11912 11885 11915 11905 11876 11826 11865 11881 11897 11916 11888 11909 11931 11879 11918 11890 11838 11891 11911 11876 11878 11919 11817 11907 11886 11900 11900 11879 11903 11892 11861 11859 11890 11922 11883 11869 11889 11902 11881 11862 11910 11885 11886 11834 11904 11883 11881 11893 11848 11888 11850 11859 11851 11872 11855 11849 11922 11894 11852 11905 11895 11898 11862 11876 11925 11924 11908 11925 11873 11904 11905 11857 11917 11946 11873 11967 11933 11921 11937 11906 11990 11941 11845 11895 11967 11869 11876 11968 11904 11912 11953 11946 11989 11948 11881 11878 11920 12060 11910

Tree=0
num_leaves=112
num_cat=0
split_feature=6 0 8 6 6 2 4 0 4 2 6 0 9 8 0 9 4 6 4 4 9 9 3 0 3 3 2 6 2 0 6 9 6 6 2 0 4 2 2 9 9 4 0 4 6 6 4 9 4 8 4 0 4 3 3 4 4 3 3 8 2 8 9 2 9 2 6 9 6 3 8 2 6 6 0 4 4 4 2 0 4 6 2 4 6 4 0 4 8 9 2 3 8 3 3 8 9 6 6 2 3 3 3 6 3 8 2 2 3 6 2
split_gain=797.608 327.685 397.578 159.704 105.524 143.693 69.48 54.8884 65.5603 49.6827 48.2329 42.7325 40.6671 39.803 33.0171 26.8076 26.5977 25.1475 24.0936 22.0211 20.8766 20.7933 19.4644 18.9979 20.1711 19.1392 22.7296 20.3422 19.8216 18.9948 22.9001 17.1765 20.8615 15.7529 14.1287 13.3328 12.5077 12.3783 12.2824 12.0881 12.0296 14.6458 11.565 11.7742 11.4305 11.2854 10.2608 10.2591 13.1227 9.77957 9.5217 40.3457 11.0798 9.519 9.45625 9.27787 9.24298 9.58803 11.7969 9.20647 9.11632 9.1063 8.95066 8.89928 8.69289 8.57374 8.5335 8.2385 8.22434 8.17277 8.04032 7.90909 8.67584 7.81978 13.3314 16.0162 14.4315 9.44523 7.65135 8.68644 7.51818 7.05816 7.05551 6.98646 7.45206 6.79277 6.74999 6.95114 6.51197 7.18191 7.63565 6.3429 6.29512 6.08845 5.84689 7.92562 6.04469 5.75737 5.7704 5.80052 9.48005 5.96389 5.73911 7.32972 12.7152 5.72031 5.58892 5.55652 10.6321 5.54616 5.53155
threshold=-0.012512037995616298 1.8086820712549567 0.37116290927675849 0.75008623863685886 -0.6900642186316791 -0.097375869392235345 1.6158798195272823 1.2951383565390813 0.18176168461918513 0.11904195104080385 -0.46323118215670728 0.57571062464124767 0.77078635572520782 0.73215542794555022 -0.79663095613067469 -3.0356432001084852 0.74410113385521848 -0.72043800034663452 0.46059252354276953 -1.1518800418891117 -1.0958480806196393 0.51521061036814697 0.50196866291386544 -0.052424866013431042 -3.0158241701875368 -1.4298285915181237 0.11504604197649552 0.44964497698528133 -1.9426512175613981 0.85688496550520565 0.53029529025162547 -2.1427361055016436 -0.92289909765525635 0.53490372184699375 -0.014649068933343798 1.7083304196935882 1.4361714364821114 -0.054467631738752895 -0.96921329972063652 0.46955785176904158 0.5705652771183527 0.55841587711542873 -0.22611343376541351 -0.30370536018486721 -0.14155820163120161 0.60861401941011317 -1.5410644165962519 -0.2579264041164539 -0.83240587879602679 -0.1889089714184676 -0.2731339050301213 0.76844783220175994 1.2458407470232347 1.1171777383611137 -1.3551603808788995 0.021156580128965104 -0.57076834243276175 0.069466613625084161 0.33057062400754583 -0.27660990979906169 -0.32051073416032766 -0.42083715453311271 0.091065441643218767 0.089592884147242854 -0.47772025619138314 -2.8109341931876859 -0.33565304860977513 0.4949611039089718 0.60259743962352375 0.0058150062898735004 0.020833381058167254 0.020919218775515305 -0.34001583165895344 -0.57901777944160726 0.052631770340314958 -0.040482429379275445 -0.059390262885214047 -0.89442551951298555 -0.072752060018332385 -0.3971747421329665 0.37211849166510952 0.15004046487364997 -0.047848291512053838 0.049376749100873703 -0.51643440569673704 0.008039360594469502 -0.090068560268274075 -0.47359182061588029 -0.68548175158847136 0.11324062722243862 -0.0040176589410032991 -3.305671340592975 0.19700139553456972 0.10297762269370896 0.10020009996455721 -0.16470568024827767 -0.81886361298650867 0.68733616626181149 0.66641833112183158 0.089592884147242854 -3.2165614054378642 -0.9935140521192094 -0.084367310487891492 0.52597183221994126 -0.12625148862705912 0.22556160105409778 0.038646486116855304 -1.7471493528900679 -1.4298285915181237 0.46586719081633532 -1.1114353122630227
decision_type=2 2 2 2 2 2 2 2 2 2 2 2 2 2 2 2 2 2 2 2 2 2 2 2 2 2 2 2 2 2 2 2 2 2 2 2 2 2 2 2 2 2 2 2 2 2 2 2 2 2 2 2 2 2 2 2 2 2 2 2 2 2 2 2 2 2 2 2 2 2 2 2 2 2 2 2 2 2 2 2 2 2 2 2 2 2 2 2 2 2 2 2 2 2 2 2 2 2 2 2 2 2 2 2 2 2 2 2 2 2 2
left_child=1 2 4 12 16 15 7 9 -9 10 11 21 14 17 -2 -6 31 -4 23 66 -13 46 40 24 37 27 28 -26 -27 49 35 32 -1 55 80 -31 -37 65 -19 69 50 -42 43 -33 53 -14 -7 48 -15 -20 51 -21 70 60 -11 81 64 102 78 93 91 -46 94 67 110 -16 -12 -40 92 -10 -52 72 -8 74 75 -48 -76 -75 -59 -80 -22 88 -34 -36 -85 105 87 -47 -25 90 -90 -17 109 -56 95 96 -44 98 99 100 -51 -101 103 104 -58 -64 -54 108 -102 -29 -30
right_child=3 -3 13 -5 5 6 71 8 39 54 19 20 45 47 18 44 -18 38 29 22 34 -23 -24 33 25 26 -28 68 56 30 -32 42 82 -35 83 36 -38 -39 63 -41 41 -43 62 -45 61 86 73 -49 -50 97 52 -53 106 -55 59 -57 57 58 -60 -61 -62 -63 85 -65 -66 -67 -68 -69 -70 -71 -72 -73 -74 77 76 -77 -78 -79 79 -81 -82 -83 -84 84 -86 -87 -88 -89 89 -91 -92 -93 -94 -95 -96 -97 -98 -99 -100 101 107 -103 -104 -105 -106 -107 -108 -109 -110 -111 -112
leaf_value=-1.1529726433583067 -1.2379887834065044 -1.2342449327674192 -1.1898337669369718 -1.2556087749609708 -0.92037234236918275 -1.1282157061862261 -1.2165328087315554 -1.2338252562671221 -1.0125674010029708 -0.97114285642054565 -0.95588748158103687 -0.85133283284595218 -1.2305580948903154 -1.0247893719709427 -1.0101811356331334 -1.0904385122317097 -1.2218290961442497 -1.180815295714865 -1.2056154026233159 -0.85146223628816031 -1.0848301644607561 -1.1329430320019074 -1.1137811689950212 -1.2180092187881977 -1.1449261912093263 -1.1711770570204982 -1.2117427027799694 -0.91874671753809767 -0.92896395215026417 -0.9330004602705344 -1.2431878619657466 -1.0760174064785808 -0.98707650582814721 -1.2411157723578441 -1.2286216282404518 -1.1945049174033824 -0.97654213406227486 -1.0506330745670813 -1.0035910819473834 -1.1278442392115728 -1.0998718216300063 -0.84160538336627777 -1.0372245560928877 -1.2399543134698483 -1.0349807500984782 -1.2642600541686055 -0.8332930763029196 -1.2357118732351429 -1.2642600541686055 -1.167831829621063 -0.81316997570988669 -1.2149590311871301 -0.8859935240306499 -1.1818790621004462 -1.1802347283262355 -1.1170444736904799 -1.1732710222968052 -1.0492862541973651 -1.0905309364824831 -1.2142762408676475 -1.1890268628472016 -1.213461476866649 -1.2454743108894744 -1.1559046642992581 -1.1920327790718885 -1.2085142004165452 -1.2642600541686055 -1.1342823762234631 -1.1174512303109725 -0.87837355988864652 -0.88902487768994676 -1.239552654994253 -0.90730494122045957 -1.0182624443040023 -1.0796775643124406 -1.0674059110404615 -0.91311596100375514 -0.84449315960795746 -1.0638922775271176 -0.80544170426255823 -0.87428311393668345 -1.1998748379864135 -0.81951583972397513 -1.1348339744132503 -0.9730482868430792 -1.0564553350810013 -1.2484954496088665 -1.0935061742992405 -1.1098895193089338 -1.2201393328498849 -0.86869023140775625 -1.0189984169287103 -0.93961411356531443 -0.97081627851529695 -0.96939278565789699 -0.97432104588555057 -1.1935804481417751 -1.2340636134820586 -0.89942606769357702 -1.0128506491473865 -0.95537718379408287 -1.2310484118866938 -1.1720140281834808 -0.95731092886335145 -0.86398868807286011 -1.0074422285915763 -1.1236723087989466 -1.0026506685842325 -1.2071100085931348 -1.0877992429386434 -1.1002906279230613
leaf_weight=10.329283595085142 78.76035487651825 191.49001789093018 71.047322660684586 504.91643571853638 33.427167862653732 5.0697551667690268 4.8170357048511505 30.215918779373169 17.355186998844147 21.961548894643784 5.2187744975090027 13.36238446831703 177.36357492208481 15.36080113053322 6.333964765071868 48.937790930271149 27.091521859169006 22.0412977039814 27.442006647586823 82.427201986312866 7.6878109574317959 10.50452598929405 7.6390732526779166 9.9416083395481127 40.457759708166122 74.096403986215591 65.665110468864441 7.3193767964839962 6.8567407727241543 47.888017803430557 10.910295575857161 32.975544601678848 10.782566308975222 69.534536898136139 12.902020186185835 13.183479011058809 15.981197506189345 18.295279830694199 78.495887190103531 8.4265832901000959 11.188335895538332 13.05484753847122 14.176874816417696 18.917658030986786 11.029963254928587 7.7574492096900931 56.546809524297714 144.95736965537071 10.620095729827879 21.457769423723221 293.05612647533417 9.3265344798564893 6.0778267979621869 16.744433850049973 5.4722512066364351 114.00274792313576 17.687042981386185 8.5556042790412921 17.203506410121918 13.798697829246519 12.223532795906065 27.154757976531982 12.238208621740339 16.974058836698532 25.464490532875061 107.2277053296566 4.6619366109371168 15.919153511524199 14.094075232744215 44.087794750928879 44.113872855901718 18.610121101140976 5.1525547504425067 9.3457755744457227 22.419619649648666 9.3431143164634687 39.283675819635391 105.15726438164711 4.5896371006965664 16.034500479698181 11.790637940168379 110.69341114163399 19.126594573259354 26.644998341798779 11.052622854709627 28.7649866938591 14.583546608686445 41.738549143075943 7.4464937746524837 5.2107907235622397 6.9743594825267783 112.4858406484127 43.198244035243988 12.53549003601074 42.882723331451416 19.823466211557388 13.011042833328245 7.6136074364185324 4.4111211597919455 4.5723000168800381 7.4430752694606808 13.844774276018141 14.953739821910856 14.230935037136076 4.5949596166610744 3.5808082222938529 4.9059150516986847 38.667455196380615 12.068433701992033 19.54290959239006 21.031711578369141
leaf_count=32 261 635 224 1644 86 16 16 101 49 60 14 32 598 43 18 150 88 71 90 196 23 33 24 33 129 243 221 19 18 124 36 98 30 235 43 43 43 54 214 26 33 31 41 62 32 27 132 469 35 70 669 31 15 56 18 355 58 25 52 47 41 92 42 52 84 362 16 49 44 108 109 61 13 26 67 27 100 248 13 36 29 370 44 83 30 85 50 127 23 17 17 323 114 34 116 54 43 25 11 13 20 47 47 38 11 10 15 107 41 60 64
internal_value=-1.09861 -1.02773 -1.00688 -1.17562 -0.969194 -0.949671 -0.921193 -0.913743 -1.02996 -0.900474 -0.890392 -0.938051 -1.14711 -1.15954 -1.13439 -1.05893 -1.06671 -1.11022 -1.12695 -0.856641 -1.04108 -0.904688 -0.851516 -1.13944 -1.12063 -1.10272 -1.12598 -1.0484 -1.10099 -1.07869 -1.01858 -1.04816 -0.950016 -1.17125 -1.07726 -0.986774 -1.07507 -1.17708 -1.06784 -0.941794 -0.847199 -0.960796 -1.06935 -1.13578 -1.07919 -1.20903 -0.894987 -1.21853 -1.12268 -1.11714 -0.840939 -0.888411 -0.828428 -1.0626 -1.05474 -1.15214 -1.0666 -1.03635 -0.981733 -1.11247 -1.0511 -1.16191 -1.04372 -1.04548 -1.12206 -1.19745 -1.10138 -1.02563 -1.002 -0.916278 -0.823095 -1.17577 -1.05672 -0.890103 -0.918305 -0.86649 -0.973635 -0.858676 -0.917589 -0.862957 -0.957382 -1.18067 -0.879923 -1.12341 -1.0874 -1.1044 -1.14945 -1.12027 -1.10878 -1.05346 -0.993238 -1.04066 -0.978769 -1.03446 -1.01363 -1.05397 -1.11205 -1.09509 -1.08476 -1.0931 -1.07372 -1.17688 -1.08558 -1.05018 -1.10949 -1.19159 -0.992153 -1.03902 -1.11108 -1.04174 -1.05817
internal_weight=0 2087.83 1896.34 1921.84 1520.92 1267.22 1005.21 976.635 100.085 876.549 822.781 341.111 1416.92 375.416 1175.48 262.003 253.701 204.478 1096.72 481.67 83.4405 257.671 471.79 871.238 547.434 415.577 290.964 124.612 225.299 225.484 87.963 226.61 40.2384 323.804 70.0781 77.0527 29.1647 131.857 133.43 69.8696 464.151 24.2432 186.371 51.8932 228.576 241.443 247.166 170.938 25.9809 137.521 439.907 91.7537 348.154 190.392 53.768 254.269 151.203 97.8499 46.3832 31.8064 173.647 38.1847 134.478 111.389 53.3529 113.562 9.88071 94.415 84.1546 61.443 337.17 28.5797 9.96959 242.096 127.593 65.8899 61.7033 114.503 29.1797 20.6241 19.4784 140.267 29.9092 50.5996 37.6976 44.584 64.0795 49.496 29.5733 19.6316 14.4209 161.424 70.0605 18.0077 89.8941 47.0114 27.1879 110.079 102.465 98.0538 79.6367 18.4171 51.4667 36.5129 22.282 15.819 10.9837 58.179 19.5115 26.8623 27.8885
internal_count=12029 5892 5257 6137 4100 3355 2575 2485 284 2201 2042 889 4493 1157 3691 780 745 610 3430 1153 240 649 1123 2760 1710 1276 910 366 689 670 246 657 106 1050 208 210 86 434 386 183 1099 64 551 160 694 802 616 547 78 424 1035 227 808 570 159 815 446 280 126 99 514 124 391 315 166 380 30 263 237 157 778 90 29 600 326 159 167 274 74 49 52 460 74 156 113 137 204 154 90 57 40 473 193 52 254 138 84 334 309 298 238 60 154 107 69 52 30 168 61 79 82
is_linear=0
shrinkage=1


Tree=1
num_leaves=112
num_cat=0
split_feature=2 2 6 3 0 1 7 3 6 0 7 3 6 0 6 1 3 4 3 4 6 1 6 6 4 2 7 1 1 4 0 6 0 0 0 0 2 6 3 6 1 1 7 4 1 0 2 6 1 0 0 1 6 4 4 3 2 1 3 2 1 0 4 7 2 0 4 6 6 7 3 3 6 1 6 3 2 2 2 6 3 0 1 6 2 1 0 0 2 3 1 3 0 2 4 6 1 4 1 4 2 3 2 6 4 0 0 4 1 6 3
split_gain=983.948 357.926 100.806 77.766 65.8189 55.2696 41.9742 41.5962 48.6344 56.5078 37.4965 34.9022 21.6863 21.6551 23.5 21.079 16.6151 16.4381 18.2422 13.3553 12.9515 12.6721 11.9219 10.8602 13.4848 14.8395 11.1489 10.499 9.6798 9.4621 9.53565 10.4203 9.41592 9.1722 8.95952 8.53653 8.51184 8.21621 7.92213 7.86548 7.66887 10.2802 7.54131 7.45124 7.37641 7.19867 7.18696 7.02477 7.36904 9.28004 6.91344 6.75187 6.37332 6.33772 6.29235 6.17774 5.96774 5.93915 5.88817 8.05271 5.87032 5.89893 5.74601 5.69556 5.83417 5.68629 10.502 9.41499 6.17524 5.66996 5.6258 7.76275 5.57456 7.00651 5.56633 5.4146 11.2856 8.83102 6.77799 5.96349 5.38636 5.34489 8.10423 5.3185 5.02689 4.92727 4.89814 4.76753 4.75629 4.72395 4.71467 4.67809 7.96408 6.67648 4.64676 4.64455 5.23381 4.60861 4.42571 4.41008 4.40287 6.44461 4.6571 4.37289 9.49409 5.70415 6.13353 5.98895 6.30935 4.34721 4.3144
threshold=-0.097375869392235345 0.12938541204151302 0.7950296926647652 -0.37601831190051416 1.1914418193921754 -1.3944934024309366 0.67325730847142706 0.38511776646076423 -0.56135175933112536 -0.19897911469913587 1.2761328012021613 -1.4298285915181237 0.83394093082197462 -0.64197609985719484 0.29272494369572183 -0.71567488029842308 -3.113948442023176 0.52230019905750769 0.22926498983163843 -0.79180033024368313 0.060796793537979961 0.67044861860716443 -0.7946400843578415 0.54485629048492112 -0.62791124434970891 -1.7471493528900679 0.14642111933100338 -0.59992853112809319 0.23682422701923622 -0.49109492893289836 -0.62943231918594988 -0.97807616569578948 0.14576232754775434 0.46086938199540645 0.34779458820146469 -0.38989023896672476 -2.1306749199659367 0.65205077853533389 1.1171777383611137 -0.14155820163120161 -0.52286003126428915 1.0000000180025095e-35 1.1244843166049707 0.80570341343728813 1.0428865544481709 0.50361110494587746 0.024582577228802752 -0.36432219616680095 1.3876635360660872 1.7624176087591381 1.0106940068392161 -0.87886600191603215 -0.42234925794988021 0.92884294218393648 -1.2049923036373915 1.2519073056691525 -2.2101730081858428 -1.2507513020852092 -3.4475263724811769 -2.0099378092989766 1.2779728802736172 0.0056962630471244008 0.30515952157233006 -0.85155161491610121 -0.017446493786268894 0.40867705226885337 -0.23556606899544294 -0.044208571198204698 -0.43507390016657399 0.48560128330540775 -2.3271349062531361 -2.7491116709148495 -0.13449426364438952 -0.38120118514170781 0.25789233113078897 -1.5069470222592465 -1.9233319774171347 -1.4119343127747463 -1.8559245849693966 0.41362257458594404 -3.3443560155717718 0.87803667097712135 -0.4987065835527178 0.36710531466846869 -2.2352863122149347 1.6428865405732929 -0.44044484555028662 -0.45515574687567445 0.074781569437673709 0.90790733008727187 0.46211238242468594 0.12581791342828227 2.0116224256642532 0.069865437249651816 0.41363795428875549 -0.64977982071076801 0.48659246864776534 -0.89442551951298555 -0.22177449169568278 0.049376749100873703 -2.2352863122149347 -0.27466040528742114 -2.7453947137920105 -0.24375843061100277 -0.92954329499679045 -0.28743293728315905 0.081905443248312865 0.22885000972728398 0.0107744669913076 0.22183398340952182 -0.07977706870953663
decision_type=2 2 2 2 2 2 2 2 2 2 2 2 2 2 2 2 2 2 2 2 2 2 2 2 2 2 2 2 2 2 2 2 2 2 2 2 2 2 2 2 2 2 2 2 2 2 2 2 2 2 2 2 2 2 2 2 2 2 2 2 2 2 2 2 2 2 2 2 2 2 2 2 2 2 2 2 2 2 2 2 2 2 2 2 2 2 2 2 2 2 2 2 2 2 2 2 2 2 2 2 2 2 2 2 2 2 2 2 2 2 2
left_child=5 2 3 27 7 -1 11 8 9 29 12 34 13 14 97 74 20 18 91 45 80 65 43 38 -25 28 -27 -2 -26 30 -5 -32 -23 51 103 -9 56 -30 39 50 -35 -42 -8 -11 52 -10 94 63 49 -49 86 -24 -34 -51 -41 69 83 -56 -16 -60 75 99 -48 64 -19 -21 67 -67 81 -17 71 -29 73 -20 -13 76 79 -78 89 -59 -15 -68 -83 -22 -40 -50 -18 -31 -37 -77 -80 -6 93 -93 -46 96 110 -7 -69 -62 101 -39 -103 -3 -105 -106 107 108 -107 -72 -53
right_child=1 6 -4 4 17 10 42 35 19 22 -12 15 -14 16 58 55 23 47 72 21 36 32 33 24 25 26 -28 70 37 87 31 -33 44 40 -36 88 -38 100 84 54 41 -43 -44 -45 46 -47 62 48 85 53 -52 95 -54 -55 57 -57 -58 60 59 -61 61 -63 -64 -65 -66 66 68 98 -70 -71 109 -73 -74 -75 -76 78 77 -79 90 -81 -82 82 -84 -85 -86 -87 -88 -89 -90 -91 -92 92 -94 -95 -96 -97 -98 -99 -100 -101 -102 102 -104 104 105 106 -108 -109 -110 -111 -112
leaf_value=-1.1329559921429779 -1.1491523800570269 -1.1527547901435968 -1.2445588571209829 -1.1977810088447962 -1.1073748969137087 -1.0581653578831816 -1.0683798080725999 -1.1471802300367089 -1.1637169913971639 -1.0210234481630667 -1.1552800651485899 -1.1439707857476222 -1.1830885336037151 -0.95720063668504651 -0.84780790669342965 -0.84226475689732472 -0.91087746190479724 -1.1680970494819618 -1.0074214653392832 -1.2344126463944394 -0.81861233816894341 -1.2101403688370154 -1.2531405179130697 -0.86184479417686477 -1.1172155186119999 -0.96009258130235475 -1.1431289298027969 -0.94416697572130126 -0.91294136055878083 -1.2450747018602533 -0.91287784569003927 -1.1379195639493394 -1.015126214178282 -1.1560609814554261 -0.89105661304013128 -0.99334449602259345 -0.88363079865421923 -1.2048640603315599 -1.0090067859629064 -0.83030248463661738 -0.96206028234028207 -1.1137835753527645 -1.2084677222174689 -1.171122524499312 -1.0948157166219252 -1.0249102771393401 -0.95614009049223259 -1.2016352509292467 -0.9176429135447689 -0.98775056209110845 -0.84970741737829791 -0.98652643159792364 -1.2073963634236653 -1.1364020061346545 -1.1770775500397406 -1.0141124591465682 -1.1321814200214499 -0.96720410305696936 -0.87033201811824379 -1.0281340329327839 -1.0387215605029618 -1.1261241458644828 -1.174106871960179 -0.94416697572130126 -1.0818567042368321 -1.1716127919022252 -1.2024741056609234 -0.89470678581314622 -1.2278409234860386 -0.92917728866907501 -1.0078523394024639 -1.178472996239547 -1.0470385357334833 -0.79528023343407495 -0.94411073486025354 -0.88938270024801758 -0.87782267624524479 -0.99326283347153077 -0.93533286846158614 -1.0836227657722577 -1.0772711015651859 -1.2442044748927759 -1.0227456223063442 -0.9760693146605619 -0.86075838727685561 -1.1072400897984978 -1.0173813881559883 -1.183908449273549 -0.80361200964475676 -1.0589944673324956 -1.0174599879121047 -1.0280102110730702 -0.90091626248421786 -1.23979058871814 -0.91149245583848559 -1.1570400856360654 -0.94419725107812913 -1.1489782038459988 -1.1216374472971746 -0.83103461398962941 -0.96101732432098752 -1.1038896349908478 -0.85033403053407286 -0.88121549589531234 -1.1468480324257782 -1.0349948138422917 -1.1433193731595881 -1.1396165012000259 -0.85495538736652232 -0.83868122905109299 -1.1236379879844374
leaf_weight=56.978557616472244 7.2217564284801474 9.9400938451290113 436.0089547932148 100.03509733080864 73.297991454601288 42.351574033498764 36.072426736354828 9.4668127894401533 89.56887611746788 70.629895567893982 27.96866849064827 10.366006731987001 11.947863817214964 75.802349060773849 13.307322442531584 92.912601172924042 13.32998204231262 28.814948976039886 7.012597113847737 380.63031569123268 7.4613145589828482 71.680123120546341 12.459772020578383 16.181516200304031 12.248708695173262 12.29834860563278 35.456985145807266 19.477447092533115 44.168491125106812 101.1008033156395 6.3086439073085776 53.734025686979294 5.5611305534839621 17.926700711250305 11.137081891298292 26.08146840333939 187.45665398240089 6.9977763295173636 7.5989316105842581 12.131992191076277 27.507614105939865 22.097261935472488 14.899534642696379 10.412840425968168 6.5412200689315787 11.576913356781004 4.0468627512455013 73.006833374500275 5.5959496796131161 9.0189975500106794 8.3551859855651838 6.9838577508926383 31.674099177122116 61.765027761459351 3.1783121824264517 7.7540307044982901 5.2448526024818412 21.454350918531418 13.364801168441767 26.403681159019474 6.7572163939476031 10.029730439186094 18.441492944955826 6.492482364177703 85.070902794599533 28.412987411022186 42.604927569627762 5.9984457194805145 232.05788740515709 26.4620620906353 5.4033702015876797 4.8450178205966941 7.6537490785121909 10.930583834648132 6.0585857033729544 97.199121654033661 40.154543489217758 33.231070280075073 66.550775349140167 27.611558794975281 11.854953676462172 6.908139735460284 13.194124042987822 27.883274793624878 36.052863270044327 11.470551967620848 106.62667143344879 53.451887428760529 4.2107028663158408 4.7247378528118125 26.94584321975708 14.661023676395422 9.151437044143675 5.6620244681835166 9.0330610871314985 69.777267187833786 5.6273503005504599 24.036150902509689 3.8856838941574079 4.7970373630523682 14.620269745588301 4.3195805549621573 3.6818470954895046 9.4041565060615522 15.340045541524878 10.877525418996823 9.1645983755588514 5.5577120482921591 10.493268668651579 18.230719536542892 64.040649682283401
leaf_count=153 19 25 1419 299 235 132 115 28 260 212 93 29 39 241 46 321 44 88 22 973 26 213 28 56 36 41 96 63 144 324 21 144 17 48 37 81 638 19 24 43 89 63 48 33 20 38 14 185 19 30 29 22 80 187 8 24 15 67 46 83 23 28 51 21 277 75 104 21 554 89 18 12 25 39 20 325 137 99 212 76 35 16 39 86 122 37 310 153 15 14 80 49 32 18 29 181 18 77 12 17 47 13 13 32 40 31 25 14 35 63 178
internal_value=-1.09861 -1.15252 -1.17211 -1.15699 -1.16225 -0.973703 -0.973575 -1.17722 -1.18142 -1.14533 -0.965825 -0.942884 -0.96111 -0.958724 -1.02535 -0.893653 -0.950704 -1.10292 -1.0538 -1.20477 -0.919324 -1.21146 -1.09483 -0.965343 -1.00467 -1.02194 -1.09599 -0.962953 -0.980844 -1.19469 -1.16646 -1.11427 -1.16717 -1.11434 -1.02916 -1.00988 -0.898522 -0.958206 -0.954146 -0.960253 -1.0632 -1.02965 -1.10933 -1.04031 -1.12626 -1.14783 -1.07498 -1.12534 -1.14798 -1.1602 -0.995399 -1.13608 -1.17868 -1.11746 -0.947541 -0.870837 -0.967297 -0.951692 -0.943187 -0.975102 -0.949582 -1.03318 -1.13488 -1.09507 -1.10368 -1.22058 -1.20478 -1.12317 -1.21538 -0.861531 -0.934914 -0.990841 -0.928677 -0.87819 -1.07025 -0.943906 -0.971217 -0.930097 -0.926792 -1.03272 -0.973439 -1.16925 -1.09885 -0.94283 -0.886566 -1.04507 -1.00555 -1.22392 -0.966971 -0.897245 -0.959002 -1.08496 -1.02923 -1.08701 -0.988488 -1.12612 -1.09797 -1.09104 -0.983919 -0.952495 -1.0257 -1.08876 -0.987216 -1.05089 -1.03425 -1.06223 -1.02627 -0.986431 -0.946594 -0.877358 -1.11016
internal_weight=0 2800.9 2524.46 2088.45 2033.27 1208.77 276.44 1623.67 1583.91 622.094 1151.79 225.468 1123.82 1111.87 119.464 143.553 992.407 409.605 128.369 961.816 315.703 860.671 307.463 676.703 149.974 133.792 47.7553 55.1783 86.0367 314.63 160.078 60.0427 146.978 226.42 81.9145 39.759 228.046 73.788 526.73 483.078 67.5316 49.6049 50.972 81.0427 75.2979 101.146 38.0626 281.236 160.857 143.791 128.312 158.889 37.2352 70.784 354.766 127.129 40.5894 342.634 53.0758 39.7685 339.456 21.584 22.4884 120.378 113.886 713.693 333.062 38.2971 294.765 119.375 47.9566 24.3225 25.5969 17.9432 16.4246 317.872 122.452 73.3856 195.42 49.0659 87.6573 62.7072 20.1023 35.3446 43.6518 17.0665 119.957 154.553 30.2922 101.924 93.4966 102.772 29.4745 20.323 15.5743 146.429 76.6519 66.3877 9.88413 11.5543 29.6195 14.9992 8.00143 70.7774 60.8373 51.4332 36.0931 26.9285 21.3708 23.6341 71.0245
internal_count=12029 8196 7311 5892 5717 3833 885 4453 4329 1813 3680 722 3587 3548 384 483 3164 1264 420 2516 1041 2218 872 2123 465 409 137 175 272 941 464 165 424 627 239 124 765 236 1658 1512 200 152 163 245 211 298 114 844 458 402 383 427 97 217 1129 434 127 1086 175 129 1078 68 65 386 365 1794 821 108 713 410 156 75 86 61 49 1010 379 236 631 143 276 159 55 112 146 56 354 477 96 339 292 334 99 67 49 399 218 209 33 40 92 45 26 202 177 145 105 80 66 81 200
is_linear=0
shrinkage=1


Tree=2
num_leaves=112
num_cat=0
split_feature=6 0 0 4 4 8 8 5 5 6 3 2 2 2 5 0 0 3 6 6 4 0 6 5 8 5 0 4 5 4 2 6 5 5 5 6 2 5 6 5 4 3 2 0 2 2 8 5 5 6 3 0 3 4 2 4 3 0 6 4 4 5 4 3 2 3 3 5 2 0 8 5 8 8 4 8 5 5 0 3 5 4 6 6 8 2 4 2 0 3 0 2 6 5 8 3 0 8 5 0 4 6 2 3 0 5 6 4 5 0 8
split_gain=1747.02 587.721 249.694 148.691 112.373 92.0279 76.3974 53.151 52.9955 42.7432 41.9329 37.1584 32.6801 29.7451 26.2998 23.5227 23.3551 23.0646 18.5117 18.1414 26.5444 19.0529 18.8784 67.4992 22.0352 16.7347 17.2789 30.2224 15.2588 14.7216 14.5217 12.9577 12.6063 12.0714 11.8082 12.7077 11.5361 10.8167 10.6844 10.5422 10.5381 10.1736 10.093 9.32366 8.97069 8.4474 8.21926 8.19469 7.30359 11.0922 7.17136 7.16065 7.119 7.10518 6.90732 6.90613 6.89761 6.28273 6.21012 6.09869 6.02741 5.98611 5.94251 5.84972 5.83573 5.83386 8.00709 5.70312 5.4963 5.3769 5.7685 5.21336 5.03327 4.93579 4.92022 4.91049 4.89453 4.86433 4.77457 4.67505 7.26987 4.59884 4.55587 4.65217 4.54461 4.44917 6.16374 4.42279 4.40865 4.40568 4.85267 4.37767 4.32858 4.6401 4.22169 4.15863 4.11708 4.56498 8.27437 4.54699 8.52344 4.09618 4.7593 4.01073 5.95795 4.00075 3.97329 5.82047 7.31793 4.72216 4.08252
threshold=0.75008623863685886 -0.56632808671395496 1.8086820712549567 -0.36197700600194777 1.6158798195272823 0.7199582762416511 0.6992502075999244 0.19037517393639489 0.34863439863369677 0.64482185998669461 -0.19064972988510834 -0.12098884712526979 -0.035992319812997595 -0.02801965392528805 -0.71942332628662065 0.71829069968745685 0.15578489119278557 0.23237950948873348 0.52597183221994126 -0.80467535304013715 0.59126139441286718 -0.21641070491779471 -0.044208571198204698 0.18005952739974521 0.37116290927675849 -0.24349228923665672 0.94197977534208122 -0.48221208986968422 0.071237849732926961 0.78955832441759366 0.12938541204151302 0.50216595464300584 0.69916588347368036 0.29331925457677416 0.39947820077476853 -0.40129023715556461 -0.08452302302164294 1.0253497976801051 0.11914365370768897 -0.45150620892220444 0.12158085956406083 -0.48897062133537422 0.04461891921807281 0.43894103843049365 0.10060882940449611 -1.7200768991749074 0.91227451612017096 -0.017521883530095695 0.81800603035539365 0.53917884758394219 -3.4475263724811769 0.15578489119278557 0.1691169603556659 1.1301128370337323 0.084264856350155473 0.26883981835524079 0.0137856603171172 -0.68345829978687889 0.20766555072514173 -0.38498883617117213 1.2081466702651718 -0.69989352220435841 -0.81881253618465999 -2.3271349062531361 -0.26897342189553836 -0.32432225368188083 0.58717302347558431 -0.95092070828073727 -1.7200768991749074 -0.19319592386808018 0.78067014419555625 0.99587078355636438 0.75500760608205086 1.0393639963782826 0.15923980753253902 -0.98287657286108476 -0.35699011729274582 -0.85024981428447843 -0.3811449082497203 0.13238686755894044 -0.471398776442367 -0.63931136689699175 1.0000000180025095e-35 0.35997437624374323 1.0908275159782366 0.05916839436948796 0.77595473891532707 0.088118832298411456 1.5687837281257491 -0.43020148615357262 -0.3811449082497203 0.063624127552348517 -0.63383249068407155 -0.72924889759351619 -1.5175035042510767 0.21959735326778468 1.5214871789374393 -0.28496938827892854 0.52467959459919966 -0.33260831933681434 -0.040482429379275445 -0.33158881399259815 0.072897713928268673 0.12581791342828227 0.65956031983090169 0.30238588195511157 -0.13449426364438952 0.081537297909377318 0.27155556161031091 0.40277394094973956 0.46924540302739243
decision_type=2 2 2 2 2 2 2 2 2 2 2 2 2 2 2 2 2 2 2 2 2 2 2 2 2 2 2 2 2 2 2 2 2 2 2 2 2 2 2 2 2 2 2 2 2 2 2 2 2 2 2 2 2 2 2 2 2 2 2 2 2 2 2 2 2 2 2 2 2 2 2 2 2 2 2 2 2 2 2 2 2 2 2 2 2 2 2 2 2 2 2 2 2 2 2 2 2 2 2 2 2 2 2 2 2 2 2 2 2 2 2
left_child=1 3 4 5 6 14 9 54 50 12 45 -4 71 46 62 82 33 28 64 20 21 40 24 29 25 26 60 -28 44 38 48 78 43 -11 35 36 -16 -35 -24 -19 -14 -15 75 81 79 -2 72 53 -25 -50 -5 -22 -44 103 59 88 -40 77 -36 -8 101 -57 -1 -18 -10 68 -67 -26 -37 70 -47 96 -7 89 -51 -17 -38 -43 -9 85 -81 95 -6 -84 -79 94 -87 92 -29 -61 -91 -31 93 -69 -13 -12 97 -3 99 100 -99 102 -21 104 -45 -102 110 108 -108 -109 -101
right_child=10 2 11 8 15 13 7 31 18 16 32 17 19 41 34 42 63 39 -20 22 51 -23 23 30 67 -27 27 55 -30 91 -32 -33 -34 37 58 65 76 -39 56 -41 -42 57 52 47 -46 69 -48 -49 49 74 -52 -53 -54 -55 -56 61 -58 -59 -60 73 -62 -63 -64 -65 -66 66 -68 87 -70 -71 -72 -73 -74 -75 -76 -77 -78 84 -80 80 -82 -83 83 -85 -86 86 -88 -89 -90 90 -92 -93 -94 -95 -96 -97 -98 98 -100 106 105 -103 -104 -105 -106 -107 107 109 -110 -111 -112
leaf_value=-1.0094043291199619 -0.91130420763494913 -1.2369862307392867 -1.2257395335859584 -0.98117539663827102 -0.78375459979414475 -0.95001146536964054 -0.82954207385923429 -0.88263691236904529 -1.0347848345155213 -0.88263691236904529 -0.82680324242962144 -0.87586009418818478 -1.0911633847522242 -1.110575136082518 -1.2378025138186473 -1.0123842447272067 -1.0966111881494212 -0.93514422232266192 -1.2165996292983061 -1.2077931086847495 -0.81437555758941826 -1.2087510820593907 -1.0561742479672716 -1.1740038608924146 -1.2642600250327407 -1.2354062882314296 -0.90239547899381378 -1.1226244149661078 -1.0939533665748986 -1.2038683915806374 -1.2336691077422666 -1.2007212788825534 -0.77463063071742821 -1.1758998482135159 -1.0390255041119667 -1.0122907367513001 -1.0706287382962059 -0.89956314757362366 -1.0153174567789207 -1.1567488136699862 -0.83951426218010139 -0.79762183998164393 -0.85221259067842936 -1.0873996191111519 -1.1425279271345761 -1.240510483830537 -0.96646517938293153 -0.82718690539073292 -1.1612991605569245 -1.0434906389040481 -0.80266087874604497 -1.0456270285448996 -1.1340332738478329 -0.83254527572726134 -0.84146686632870593 -1.0357199620630779 -0.85863978580592237 -1.0708995439320941 -1.1994079418236099 -1.1664264311187116 -1.0615733590928147 -1.209969170646471 -0.83454321540971144 -0.90270069251824947 -0.76731678335424858 -0.91677569093699296 -1.1287862404288009 -1.102053310448881 -1.1450110959875659 -0.91003711196837123 -1.0079268488784843 -1.1467445852938298 -1.1080896519284551 -0.90781166196838814 -0.79971186625140556 -1.206045827907759 -1.1751495909723699 -0.91422916596612203 -1.0916814905245606 -0.89002659376781057 -1.0341840944777696 -0.78768100782054729 -1.0533807899212375 -0.82090640604177323 -0.81019516315732121 -0.88255292854593592 -1.0570148270784421 -0.97349373979438847 -0.94239098639381835 -0.86834819849795564 -1.0699469837145912 -1.0389337338331852 -1.1363718643917888 -0.88246126766139199 -0.94779665003158486 -0.97526848629206564 -1.1321952416360785 -1.1834808819431917 -1.2373728994049216 -1.233252807265095 -0.91614936006132375 -1.2455110687585815 -1.1633062401665166 -1.1046457147075959 -0.86129138372229819 -1.140698641490024 -1.1061918559011588 -1.2350845263744508 -1.202399558616295 -1.1436276704051334 -1.0808980059949014
leaf_weight=11.993327975273134 17.319833397865295 397.84762555360794 19.837285190820694 6.4784188270568839 16.857052415609363 6.8086153566837302 6.6795943677425376 4.8056334257125854 4.6619366109371185 4.8056334257125846 20.961393892765049 52.3331119120121 22.072698324918751 4.9721347987651816 23.105478525161743 5.4608489274978629 5.4695899486541775 7.4297689795494071 12.826447129249571 297.71630582213402 8.8323528766632062 52.311198890209198 27.90906298160553 108.36951705813408 5.0183562040328971 323.09609097242355 14.359421551227568 17.264403641223911 22.434295475482941 12.653108745813372 129.89274010062218 48.105573982000351 271.2416373193264 53.617821872234344 7.4638308584690085 16.376467019319534 43.410142421722412 4.1905595660209647 12.278205305337904 28.430224895477295 5.7569835782051078 25.873243749141693 8.1598002910613996 5.1847126185894075 6.2772432863712302 6.4350036382675153 35.924019694328308 37.763628840446472 14.843347638845446 4.8457750678062421 131.77169671654701 6.2911618649959555 3.5206682384014121 10.620095729827879 15.543347865343092 6.018444061279296 20.722737967967987 3.9519036412239066 58.91421839594841 6.2485039234161404 8.2941437959671003 53.484869688749313 9.6025258302688581 19.443852543830872 4.3055170178413409 17.592551201581959 6.7686186730861655 6.5952802896499634 17.942278742790222 3.8830226361751548 5.3658898174762726 26.00992614030838 29.358013242483139 9.8613250553607923 4.2767776548862457 10.501107484102251 17.150447994470596 40.168494522571564 7.970027029514311 14.29320180416107 29.227088242769241 104.22034505009651 4.3483199179172498 5.1706490814685822 16.15576046705246 9.2087708115577716 14.011130690574644 8.9352957606315595 4.7481546998023978 5.0182112455368033 9.4380734264850634 6.7825372517108908 28.680382698774341 4.403137385845179 39.117007702589035 6.874835103750228 13.886674970388411 52.974008649587631 261.4673507809639 138.00639501214027 5.2682694494724256 57.059085458517075 84.775324404239655 6.7023989260196677 8.343638747930525 3.7105864584445953 38.674047648906708 83.811905443668365 49.4106824696064 19.003408789634705 5.000874161720275
leaf_count=37 58 1150 68 22 55 21 22 16 16 16 69 174 70 16 64 18 19 25 39 771 29 156 83 301 18 784 48 55 68 33 423 154 882 170 23 52 123 14 40 92 19 84 27 16 22 21 119 123 41 16 427 19 11 35 50 20 68 13 185 22 24 149 31 65 14 57 23 17 55 13 17 82 91 33 14 30 44 128 27 47 97 339 13 17 53 30 45 27 16 16 28 20 76 14 128 22 40 168 821 382 17 138 235 22 27 13 128 266 160 62 16
internal_value=-1.09861 -1.14011 -1.16949 -0.983492 -1.18391 -1.03824 -1.18873 -1.05586 -0.848872 -1.19467 -0.810542 -1.0085 -1.19873 -0.943082 -1.10567 -0.947391 -1.08092 -0.989149 -1.08895 -1.18156 -1.11186 -1.14984 -1.18682 -1.15362 -1.19917 -1.20555 -1.18781 -1.12399 -0.965802 -1.02079 -1.19432 -1.16134 -0.797918 -1.1349 -1.12368 -1.09677 -1.13822 -1.15587 -0.980733 -1.11083 -1.03911 -0.880183 -1.05417 -0.829394 -0.948321 -0.991052 -1.02259 -0.878929 -1.1557 -1.07295 -0.811026 -0.910573 -0.937158 -0.942264 -0.934221 -1.16302 -0.916933 -0.866886 -1.18137 -0.972929 -1.20147 -1.19234 -0.931653 -0.945273 -0.906366 -1.03767 -0.975682 -1.09614 -1.08168 -1.07912 -1.13475 -1.22002 -1.07833 -1.00426 -0.929204 -1.13979 -1.10023 -0.857077 -1.01305 -0.940615 -0.986839 -0.803657 -0.835488 -0.927102 -0.884389 -0.923072 -0.987825 -1.07878 -1.08375 -1.0502 -0.999966 -1.14631 -1.10249 -1.01414 -0.90663 -0.86347 -1.2218 -1.22298 -1.21451 -1.1994 -1.15819 -1.20411 -1.19793 -0.999861 -0.947947 -1.00895 -1.20705 -1.19141 -1.16016 -1.21818 -1.22793
internal_weight=0 3504.75 2951.17 553.576 2708.57 393.532 2654.56 113.67 160.044 2540.89 504.916 242.599 2453.36 163.212 230.32 54.0184 87.5275 222.762 21.7939 1358.29 95.2644 80.1409 1263.02 342.574 920.449 866.816 543.72 95.8753 186.902 80.3457 262.228 60.8812 471.913 62.614 208.724 142.346 83.6661 57.8084 60.91 35.86 27.8297 91.1215 27.6424 200.671 164.468 33.0037 72.0906 68.6145 132.335 23.9659 138.25 15.1235 11.6805 30.8508 52.7891 81.5159 33.0009 86.1494 66.378 37.2457 447.845 59.5033 21.5959 24.9134 8.96745 58.6799 24.3612 53.6325 34.3187 15.6839 11.8009 1095.07 36.1666 30.5661 9.12255 15.962 60.5606 82.1975 12.7757 158.19 43.5203 132.057 26.376 9.51897 56.3243 114.67 23.2199 48.6141 22.0126 20.7048 14.4563 19.4356 39.6788 10.9984 91.4501 27.8362 1069.06 1055.18 657.328 395.86 61.9529 439.551 382.492 20.2308 13.5284 8.97886 333.907 190.9 88.0847 102.815 143.007
internal_count=12029 10385 8648 1737 7852 1219 7681 368 518 7313 1644 796 7029 525 694 171 284 728 69 3724 293 245 3431 1039 2392 2240 1456 288 611 244 795 197 1535 200 626 418 231 184 191 117 89 294 86 653 543 109 231 223 372 71 449 48 38 100 171 240 108 278 208 121 1168 169 68 84 30 187 80 152 107 51 38 3305 112 99 30 48 167 265 43 521 144 430 85 30 181 377 75 134 71 66 44 53 107 31 302 91 3223 3183 2033 1212 198 1144 1006 65 43 30 1014 616 288 328 398
is_linear=0
shrinkage=1


Tree=3
num_leaves=112
num_cat=0
split_feature=8 5 0 8 5 5 2 0 1 2 0 5 1 9 1 5 3 1 1 5 0 8 3 8 5 1 3 0 1 9 1 3 3 9 0 1 1 0 1 9 5 8 8 0 8 9 3 9 8 2 2 5 1 3 5 9 2 3 3 3 3 5 0 3 2 2 0 8 2 3 3 9 5 5 3 2 5 8 0 9 0 3 8 9 2 2 9 2 8 9 2 0 1 9 1 5 0 1 2 0 3 5 8 1 0 1 5 8 1 1 5
split_gain=262.064 245.535 259.877 115.194 72.7545 65.4171 67.2395 41.9908 41.2647 34.079 27.567 26.8555 26.1862 29.2611 23.8258 18.8119 18.6184 17.4995 28.3212 22.7354 15.5651 14.9264 14.3553 14.5747 18.8748 17.035 16.7964 15.8652 13.9003 13.4518 13.3569 13.2313 12.0276 11.5249 11.1495 11.1216 11.0142 10.9968 10.8239 10.1134 10.0787 10.0251 9.94432 9.75924 9.63325 9.89094 9.2722 9.26583 17.5535 9.19896 9.15592 8.24768 7.68454 7.66052 10.4404 7.24001 7.20717 7.08854 13.1327 9.36046 7.08135 7.06972 6.77898 6.65176 6.60592 6.36769 6.36381 8.99823 6.29396 6.28382 6.27054 6.2538 8.04052 7.21471 13.4337 11.6588 6.18865 6.04788 7.43379 5.9846 5.89471 5.89348 9.8018 5.79809 5.74659 6.40732 5.73192 8.20045 5.69043 5.5815 5.57313 6.4634 6.18443 5.53153 5.64639 6.46886 5.43609 7.17034 5.4234 5.32144 5.57156 5.63172 11.9586 5.30778 5.28138 5.26575 5.6878 5.13713 5.13407 5.12041 5.08348
threshold=0.71109242775113624 0.14658933936416968 1.8086820712549567 0.19700139553456972 0.97241192418067135 -0.46426845405639178 -0.097375869392235345 1.2601008160028579 -0.98816224027769473 0.09725580325940876 1.0106940068392161 -0.25103487661907015 1.0000000180025095e-35 0.40817115027477929 0.89621032305875759 -0.27635409587188453 -0.54932132888398832 1.0000000180025095e-35 0.74043272775953295 -0.71942332628662065 0.94197977534208122 -0.46898053070380963 -3.5527693324848157 -0.10622093910735868 0.63468832034974343 -0.28257857949653525 0.38511776646076423 -0.31802139945240721 1.1354897153648544 0.5875774974334439 0.30808514424388062 0.039932609828796102 -0.055788300891052099 -0.11016496990632259 -0.43097372714865817 -1.3944934024309366 0.81858430083855727 -0.19319592386808018 0.98694064960322714 0.26573402062928331 -1.0008396427552642 0.44642948295596796 0.96631462016857694 -0.3270649037712276 -1.4247544991300245 0.71181139289299711 -0.13453600763703552 0.39994112528905645 0.46222900382089377 0.094900471531577615 -2.1306749199659367 -0.62364261002752219 0.41288376088839551 0.25011959983539273 -0.83550610472238462 -0.3143674218533879 0.042986560630889757 0.069466613625084161 -1.2625020821150263 -2.9576452163530829 -1.6855242379305422 0.71345825255429862 -0.24851487274241257 -0.029814735386959997 0.065609519747498665 0.075884553272703173 -0.22611343376541351 -0.63857353023066243 0.047093853975628458 -0.13453600763703552 1.2519073056691525 -0.28627354587233106 -0.077573173911131096 0.43164269823282525 -0.16713471582251732 0.037719694381335857 -0.40657905602234923 0.24031231749404272 -0.23254128970070051 0.5705652771183527 1.7083304196935882 -0.045720529666642896 0.43112974884055372 0.67294602220886046 -1.3332210086519694 0.11904195104080385 -0.39648028772295746 -0.067243475241928183 -1.2068161540227318 -0.43001302577010586 -0.035992319812997595 -0.3811449082497203 0.49859547624384709 0.44098473832001711 0.16809575207558577 -0.133517518766928 0.38020321914448946 1.2147744129762419 -0.32051073416032766 -0.69673838495854434 0.50196866291386544 -0.2829539742222798 -0.59417334080896389 0.26734723962540169 0.59581738090478742 0.93188213668954101 -0.68115370674437326 0.31362266696523061 -0.32951661380889008 -0.21188467596566712 -0.22179973110743562
decision_type=2 2 2 2 2 2 2 2 2 2 2 2 2 2 2 2 2 2 2 2 2 2 2 2 2 2 2 2 2 2 2 2 2 2 2 2 2 2 2 2 2 2 2 2 2 2 2 2 2 2 2 2 2 2 2 2 2 2 2 2 2 2 2 2 2 2 2 2 2 2 2 2 2 2 2 2 2 2 2 2 2 2 2 2 2 2 2 2 2 2 2 2 2 2 2 2 2 2 2 2 2 2 2 2 2 2 2 2 2 2 2
left_child=1 2 3 5 8 10 35 9 21 28 12 17 31 38 20 88 37 19 29 -5 22 61 50 25 27 66 47 -25 32 49 63 65 93 -11 55 -7 84 60 40 43 -14 -16 71 -33 80 -46 -42 57 -49 53 107 104 70 54 -19 108 -57 58 59 -26 -6 -3 -43 109 -45 -1 -24 -68 -48 -20 76 72 -2 -73 75 -75 -37 -28 -79 -13 -22 82 -56 -50 -29 -86 87 -69 -9 -61 91 -60 -92 94 95 -8 97 105 -78 -34 101 102 -101 -70 -15 106 -71 -10 -21 -17 -4
right_child=42 4 110 11 16 6 7 15 14 33 -12 79 13 51 41 30 -18 18 69 34 44 -23 23 24 26 -27 77 36 -30 -31 -32 39 99 -35 -36 52 -38 -39 -40 -41 46 62 -44 64 45 -47 68 48 83 -51 -52 -53 -54 -55 81 56 -58 -59 90 89 -62 -63 -64 -65 -66 -67 67 86 103 96 -72 73 -74 74 -76 -77 98 78 -80 -81 -82 -83 -84 -85 85 -87 -88 -89 -90 -91 92 -93 -94 -95 -96 -97 -98 -99 -100 100 -102 -103 -104 -105 -106 -107 -108 -109 -110 -111 -112
leaf_value=-0.015041292374505974 0.030675120633555621 0.16838498940343632 -0.14456469522018348 -0.11293643382208644 -0.014721251483507751 0.15798551448407289 0.082413655634926669 -0.16660204174118848 -0.04013591697562862 0.092603515192480931 -0.072499503163554996 -0.058068123385975091 -0.049853624141092609 -0.015192572322599636 -0.13221554643861425 -0.092655934367970774 -0.14428896657920692 0.015191859026611094 -0.16126402598511339 0.015144397697783158 0.093226778575911079 -0.067384858405971332 -0.10156382059205656 -0.10309803309413017 -0.0032051252047089604 -0.094817514215424253 -0.14653223239369728 -0.060158850181836442 -0.028498904072744788 -0.029171914888226194 -0.041030473412825459 -0.070871639837813152 0.021661645572363324 -0.045639812175025843 0.12561582257756085 0.21760277842408982 0.10944846634193003 -0.12252052481476064 -0.0045367825919470119 -0.065873479751998365 -0.066925208405096095 -0.12426493477830142 -0.13843468247086241 0.11432126150699859 0.095435903934341454 -0.16098166790724752 0.21121840511793843 -0.10368210319609199 0.15906067694433665 -0.04383641523298188 -0.10554442549284217 0.10216894655176471 -0.060895151947830253 0.25326332271269858 0.1698909925578316 0.0041867964008844433 -0.14992162730200068 0.13684239880929705 -0.084355300908801847 0.039563132346943385 0.17053402402591855 0.024637782629006209 -0.0060919647210132813 0.15361973227352224 0.015995601875264272 -0.14567152505178221 -0.063322605752932262 0.018289352460459461 0.035150957899052482 -0.11604302428063175 -0.082119869283543895 -0.12505836925703145 -0.12464846825290909 -0.03207296488880447 -0.13476860337849947 0.21951647902119106 0.045762568965047122 -0.0971692524574988 0.11854846417037869 -0.15675839847344264 -0.083320308664467643 0.21133938589360418 -0.085484857849726592 0.015258440011332705 0.036698003568396649 -0.062872949925430993 -0.042068354980082649 0.16338996947169737 -0.015410560378423067 0.15963073262666636 -0.11894523775443556 0.088589798439670131 0.13297973110060957 0.0034098252951468059 0.21914631092219786 0.16986650410544116 -0.13594511262310363 0.098450742457349222 -0.068221013624691879 0.078796731696338301 0.045990964230549644 0.1951677962712467 0.1811636268017417 0.17533129347438847 -0.16595795618109571 -0.14232207580862108 0.1345257412767582 0.12730055510175761 0.18015876798836636 0.11553068245925259 -0.092120752521494279
leaf_weight=78.92617079615593 23.561921507120132 44.967382580041885 125.46422792971134 49.892253398895264 18.566774010658268 17.664439857006073 61.319585993885994 8.8272469490766508 17.062091588974003 45.944667041301727 54.185183107852936 85.595097348093987 5.8977497518062583 17.982872217893604 78.431346386671066 5.9486865699291229 193.60264712572098 17.748205423355103 9.7988967001438123 46.1968994140625 6.9600534737110165 11.658552080392836 14.989918947219847 68.200823768973351 20.270360916852951 121.8921130001545 17.233517944812775 65.775295078754425 10.22250024974346 16.804663807153702 16.643843710422516 11.9604075551033 5.9376360177993766 25.860699892044067 22.631114661693573 5.3565950691699973 19.280955880880356 19.224970862269402 12.06103080511093 17.428453534841537 4.2475154101848593 19.385485306382179 237.35006769001484 69.687280535697937 62.05207771062851 4.4218955338001242 68.20610722899437 28.163339555263519 13.369572311639788 7.4503926932811728 90.303722023963928 10.74902820587158 27.238300323486328 15.501064628362654 13.850933611392973 18.556118130683899 15.105228036642073 32.560561835765839 8.7992614805698413 14.356575369834898 8.1455696225166303 11.865178376436232 42.569531515240669 49.589526832103729 25.649404793977737 11.765548706054686 26.853737533092499 24.237079799175259 12.026676982641222 4.273741215467453 11.893995493650435 134.59365312755108 14.945702388882635 32.377990946173668 34.948245674371719 5.9889240562915793 140.35373285412788 10.793567135930063 7.3808212876319876 20.995569363236427 20.39748677611351 28.859025567770008 5.8724574744701377 18.121570199728012 56.588895112276077 25.825939834117889 13.291978195309637 19.117014616727833 30.199261471629143 40.856689363718033 17.965261161327366 18.180742681026459 3.1413228511810294 10.199781328439711 16.896598309278488 37.342295944690704 8.1763930916786176 15.443088322877882 12.471830099821089 40.226515382528305 8.4449610114097577 312.38605970144272 141.32545948028564 19.3139868080616 9.8773471266031247 9.354006350040434 5.941689074039461 7.1286693513393393 5.8260062634944907 7.1236508488655073 85.125233754515648
leaf_count=238 69 107 455 169 59 42 155 31 57 121 177 277 19 55 282 19 695 53 35 133 19 37 52 236 65 425 63 222 32 52 52 38 17 81 56 13 55 69 35 55 13 70 846 178 166 16 151 98 35 23 323 28 90 34 33 54 50 84 30 42 21 35 136 119 73 40 88 76 34 14 42 476 53 108 125 15 408 38 21 77 68 65 19 57 167 88 43 48 93 103 64 53 9 29 36 85 28 42 43 106 24 684 317 45 34 31 15 20 14 18 296
internal_value=0 0.0158866 0.0512421 0.0705619 -0.0389056 0.0923756 0.114672 0.135954 -0.0212481 0.15106 0.0379568 -0.00557128 0.053884 0.104565 -0.0293297 0.0445426 -0.121793 0.0185956 0.0573918 -0.0204131 -0.0195865 0.10335 -0.0268849 -0.0180758 -0.00207711 -0.0534198 0.0295145 -0.0357494 0.163123 0.106789 0.0908742 0.0161558 0.166213 0.0428152 0.022205 0.0320637 -0.00832232 -0.0269864 0.144411 0.0511626 0.160788 -0.0928731 -0.114236 0.070173 0.0443294 0.0783788 0.172757 0.0468657 -0.00866581 0.132379 -0.0812998 -0.0210886 0.0207907 0.148423 0.123922 -0.00510805 -0.064968 0.0680832 0.0499653 0.0930666 0.0417699 0.138374 -0.0430678 0.12591 0.0878677 -0.0319881 -0.00218545 0.015655 0.182984 -0.0415053 0.033873 -0.0909273 -0.0296096 -0.102284 -0.0604748 0.00719915 0.0425947 -0.0762283 -0.00956389 -0.0775075 -0.0384048 0.163643 0.0938552 0.0763097 -0.0236454 0.00549593 0.0530952 0.0822716 -0.0496079 0.128411 -0.0176928 0.0321855 -0.0814509 0.120345 0.130666 0.115513 -0.0143339 0.0140657 0.0364606 0.17756 0.179403 0.181684 0.158482 0.121538 -0.0686438 -0.0525263 0.0296975 0.0092052 0.0336242 0.0207935 -0.123366
internal_weight=0 3477.84 2113.84 1903.26 1363.99 1479.38 1049.42 834.439 1124.45 716.107 429.965 423.873 375.78 160.362 1055.96 118.332 239.54 317.282 159.075 158.208 915.573 68.4911 821.741 707.247 486.865 220.382 251.193 235.672 644.301 106.087 79.3057 215.417 634.079 71.8054 108.315 214.979 167.471 45.9373 121.753 124.726 109.692 140.386 483.767 107.297 93.8315 66.474 103.794 215.785 59.6545 89.2821 114.494 38.6092 197.314 81.8317 66.3306 85.6843 33.6613 156.131 123.57 75.4836 26.7123 56.8326 61.955 62.6619 95.3367 90.6917 98.4897 83.4998 99.5468 52.9878 170.076 246.416 38.5076 207.909 73.3152 38.3669 158.182 35.4079 18.1744 106.591 27.3575 48.5824 19.7234 31.4911 148.19 82.4148 56.6461 43.3541 39.0265 55.2133 48.0866 26.98 21.1066 125.758 115.558 98.6619 43.1889 35.0125 152.826 508.321 502.383 493.938 181.552 31.3407 27.8602 19.5694 10.2154 24.1908 52.0229 13.0723 210.589
internal_count=12029 10337 5895 5144 4442 3870 2657 2019 3598 1687 1213 1274 1036 414 3419 332 844 920 444 476 2931 179 2662 2262 1530 732 762 768 1485 279 208 622 1453 202 307 638 532 149 297 344 262 488 1692 289 269 182 243 640 190 227 400 117 596 204 170 251 104 450 366 210 80 142 206 156 251 278 307 255 230 165 506 846 122 724 248 123 464 122 59 354 87 117 52 92 477 255 167 124 124 145 156 83 73 305 276 240 130 102 451 1148 1131 1107 423 79 89 60 29 77 147 37 751
is_linear=0
shrinkage=0.165648


Tree=4
num_leaves=112
num_cat=0
split_feature=2 2 3 0 1 3 7 7 3 4 0 0 4 1 0 3 3 4 4 2 1 3 4 0 0 3 9 7 0 9 9 1 3 3 0 7 9 0 1 4 1 1 9 9 7 7 1 9 7 0 3 9 1 9 3 4 3 3 3 2 2 2 3 3 9 9 4 2 9 3 0 2 0 7 9 0 7 9 3 1 7 1 7 3 9 1 4 0 9 2 7 9 0 2 1 3 4 3 3 7 4 7 4 9 2 3 0 3 9 7 1
split_gain=661.097 252.379 66.2647 61.0456 36.0225 34.4425 26.1582 24.1615 20.7898 20.3836 24.0546 16.94 14.6846 13.4036 12.704 12.28 8.70356 8.6963 8.379 7.31151 7.11468 6.84996 7.4849 6.72263 6.5758 5.86686 5.70851 5.52696 5.31969 6.3658 5.31944 7.21236 7.38828 5.05554 5.00676 4.91893 9.16413 4.71852 4.68434 4.88385 4.63432 5.31618 4.61526 4.51984 7.54727 4.37109 5.05211 7.05577 4.33337 7.26194 4.29883 4.35339 7.60006 6.77958 5.26878 4.1875 4.0091 3.88041 3.83748 4.2034 3.81658 5.39101 9.1601 8.48771 4.1922 3.88948 4.09733 3.7877 3.78486 3.7842 7.46019 7.48631 4.61096 3.64725 4.25832 3.62601 6.04423 3.6239 3.58714 3.5162 4.42013 4.83268 3.77548 3.49587 3.48257 5.42402 5.44849 5.21 4.34278 3.48219 4.75416 4.48455 3.47888 3.41272 3.39455 3.58025 7.55934 3.31101 4.26957 3.31 7.89319 5.19029 5.0468 3.7765 3.56021 3.29497 3.28054 3.26045 3.21679 10.1365 7.64501
threshold=-0.097375869392235345 0.12938541204151302 -0.37601831190051416 1.1618177852923781 -1.3944934024309366 0.41309321465564031 0.67325730847142706 1.2761328012021613 -1.4298285915181237 -0.87702095509337663 -0.46368658798193813 -0.33769538957648332 0.52230019905750769 -0.71567488029842308 -0.64197609985719484 0.25011959983539273 -3.113948442023176 0.26160428043122336 -1.8481274509512031 -2.0801854396829134 -0.59992853112809319 -1.0666105190687563 -0.62791124434970891 0.53787329984908905 0.79914182801912259 0.36956914477244052 0.057632825011885609 1.1244843166049707 1.8086820712549567 0.46955785176904158 -2.7348059084874303 -0.38120118514170781 -2.9078902450820947 -2.4813991613335689 -0.38989023896672476 0.087837293648462919 0.14455772423863009 1.9619671725142978 -1.0843551594508505 0.37211849166510952 0.37970688315050521 1.1172487382994929 0.20817491015922007 0.72484287655305357 0.59946298515622787 0.11030339292017032 -0.35882544894730622 -1.0958480806196393 -0.17006338676646968 0.67219398836057132 -0.9935140521192094 -0.13279923859276438 -0.087717509314484784 -0.44205317269914363 0.38511776646076423 0.47041960371902136 -1.2625020821150263 -2.0019232916669725 -0.10577466840068574 0.11071278093337866 -1.1629853997857826 -2.2681189913503732 -1.7935032751283033 -2.0019232916669725 0.17213745830031807 0.12934061183271431 -0.41868358087963337 -1.3726036104561103 -1.5817110383746711 0.12885121212256753 2.0116224256642532 0.069865437249651816 1.846025744115275 0.27663871235248 -0.55045196135469954 -0.027543702135921295 -1.3201701355221351 0.31391765724168524 -0.057558499393664649 -0.98816224027769473 -0.43818561955726815 -0.29291398305522653 0.24596131423663789 -3.8609998916733868 -0.10231934502415264 0.047230236913971761 -0.18797514869171292 0.53787329984908905 -2.3961816207223032 0.024582577228802752 -1.7790846245898793 -0.30199740676498227 -0.56632808671395496 -1.5640671362375977 0.5579919735082145 -2.6222019872625331 -0.28829251861465005 0.26166391863636768 0.29281239783190899 0.34262477021387866 -0.040482429379275445 0.41169768728759087 -0.094659242556556042 0.71181139289299711 -0.47116007869857018 1.1714209596885448 2.0435077822243533 -3.5020924620131697 -0.40676116185316635 -0.17672425215973611 0.062842170878841072
decision_type=2 2 2 2 2 2 2 2 2 2 2 2 2 2 2 2 2 2 2 2 2 2 2 2 2 2 2 2 2 2 2 2 2 2 2 2 2 2 2 2 2 2 2 2 2 2 2 2 2 2 2 2 2 2 2 2 2 2 2 2 2 2 2 2 2 2 2 2 2 2 2 2 2 2 2 2 2 2 2 2 2 2 2 2 2 2 2 2 2 2 2 2 2 2 2 2 2 2 2 2 2 2 2 2 2 2 2 2 2 2 2
left_child=4 2 20 5 75 9 8 14 23 11 -11 97 15 -10 30 69 19 24 -13 68 -2 22 -18 73 26 28 58 42 29 -14 -6 56 93 -34 -7 -22 57 38 -24 60 84 55 -8 44 -35 46 47 -15 49 -41 -23 53 54 -52 -53 -42 -32 -37 -12 -60 61 63 -63 64 -40 66 -64 -58 -16 78 71 72 -71 74 -3 -1 -77 -65 106 -20 81 -81 -82 -75 88 -86 107 -88 -21 90 91 -30 -44 -33 95 -76 -97 -4 -99 102 101 -101 -54 -104 -103 -47 -5 -87 109 -70 -110
right_child=1 6 3 12 7 34 27 -9 13 10 17 18 25 45 16 -17 21 -19 79 40 35 50 37 -25 -26 -27 -28 -29 89 -31 31 32 33 43 -36 36 -38 -39 39 48 41 -43 92 -45 -46 105 -48 -49 -50 -51 51 52 99 -55 -56 -57 67 -59 59 -61 -62 62 65 77 -66 -67 -68 -69 108 70 -72 -73 -74 83 94 76 -78 -79 -80 80 82 -83 -84 -85 85 86 87 -89 -90 -91 -92 -93 -94 -95 -96 96 -98 98 -100 100 -102 104 103 -105 -106 -107 -108 -109 110 -111 -112
leaf_value=-0.060318384214858016 -0.044919411468950121 0.017708630668538481 -0.078575338740239656 0.064545941703329238 0.20901689033979343 -0.028370171119477254 -0.065179088131504775 -0.049464041653161726 0.019258558042106837 -0.12985162372609976 -0.032139513283303028 0.24663268497932925 -0.076258181927794516 0.26702132422906322 0.185694262390036 0.13189453811264801 0.14315480027918051 -0.095252075120637103 -0.07533955999506653 0.029708696108830319 0.20954916604199997 0.21661886800000818 -0.10518891438260679 0.22310301613799288 -0.01445762295886405 0.13412582525386399 -0.050225483126208136 -0.097009094255009365 -0.025345101286237012 0.016107705351766161 -0.088491614462060164 0.072867066067602751 -0.085582774155200853 0.11852832432000543 0.11948050244693427 -0.066488936636621768 0.17053815430601807 0.22204065792571537 0.016780885449751998 0.28467117653503382 0.2054579482015696 0.11554913250934595 0.13776266765987136 0.15203208686687122 -0.032881058008243279 0.15972189455120112 0.23519783077742137 0.016198743803131476 0.0077169466108742328 -0.0066437043749659891 0.11540780460722538 -0.081655869793072794 0.17269691716077057 0.19049175726743728 0.094468991274690953 0.12177142625445894 0.15928284320203873 0.10622105492716176 -0.09008836548610491 0.040152667713406399 0.033500514622419868 0.14474937090956683 0.13446726365742714 0.147378278949097 -0.14785124659434021 0.10829801127000217 -0.038007979315370637 -0.037956669327223733 -0.053397397864396574 0.1000791976772625 0.16118010930135493 -0.1275254352350591 -0.099798410240969221 0.11670808424078892 0.18568552383260128 -0.062829157705711708 0.12595869911139571 -0.0035506177227162738 -0.036911597682309928 0.20416356109969377 -0.0092930285197688547 -0.023996917177756125 0.14464700422457966 -0.050822351606295495 0.026030721780556106 0.11848461111716203 0.2427321809167089 0.027306051271234887 0.16596030118949059 0.0063301766616506144 -0.063241355453908715 0.12781375652382321 0.013559440845992624 0.17433532910620358 -0.021296764792461963 0.20685200830762032 -0.071836786905322095 0.14879738657347416 -0.047381036172487574 -0.080856316912983769 0.12935633632781177 0.083667710363664993 0.084467454209175244 0.1970002682390139 -0.076983490769137644 0.025942400276069318 -0.096304680496863956 -0.060653916198257593 0.22231472309129718 0.17717378011104598 0.071331816717644686
leaf_weight=37.599597662687302 7.0638766884803763 27.169249057769775 116.90087625384331 21.137851059436802 6.1031923890113822 8.3050725162029249 10.799040913581846 27.195121198892593 16.751779317855835 338.37624974548817 36.908870011568069 4.6917160749435416 121.46089300513268 5.1680634617805481 11.023738741874693 25.985305696725845 51.587395966053009 585.4534488171339 9.5624241828918439 7.2248808443546286 15.721774488687513 11.803099215030668 4.0858513414859763 6.1804047226905814 57.785227298736572 5.5710666477680197 210.3393697142601 13.921392738819121 16.978078365325931 24.62475574016571 13.791821241378786 16.379511654376984 8.3027216792106611 15.088116258382795 25.833485543727875 9.2434281110763532 20.419821858406067 5.7848383486270896 13.921030610799791 4.463598281145094 84.412972450256348 36.185935437679291 10.404223918914793 10.236145615577696 22.511383652687073 72.857937902212143 46.791477590799332 7.6071746051311475 44.383041024208069 4.9539419412612915 125.65366843342781 10.163520216941835 43.399586498737335 44.748619139194489 8.6077294051647169 20.364493399858475 4.643688976764679 5.8152220249176017 404.26301929354668 6.9158014059066764 32.195744395256042 83.022041857242584 4.8718201220035544 18.68857112526894 6.1054438650608054 15.996014088392256 16.854045867919925 6.2904007732868177 14.541602104902269 15.444695740938192 11.460737377405165 8.4694320857524854 3.9837567806243888 4.3171993196010616 14.574503153562548 9.5607928633689898 9.065697103738783 5.6955111324787131 56.817690312862396 7.4108637571334839 36.883086025714874 3.8814310729503614 4.9594183266162863 16.404339790344238 20.095056414604187 7.3106983006000519 13.935830414295198 3.954569846391677 57.53402242064476 84.453827857971191 66.808406919240952 7.591185897588729 15.269435852766039 20.451394885778427 4.6826413869857779 5.0531964302062988 5.6642154455184954 4.0372321903705624 12.374055445194243 8.7093292176723462 52.37717804312706 29.042096495628353 58.095510095357895 9.524310886859892 4.352366745471957 5.4281480908393851 4.1645943224430075 4.5062769651412982 11.717271476984022 8.1717926263809186 42.872217863798141
leaf_count=100 19 74 369 70 20 25 32 93 49 1163 107 16 348 17 34 83 158 1732 25 22 51 38 10 20 177 18 622 48 55 77 38 54 24 48 80 24 65 19 37 15 271 114 35 34 71 230 151 20 124 13 373 25 139 140 25 62 16 18 1084 21 89 256 15 58 15 48 43 16 37 51 38 28 13 13 46 25 28 15 181 25 106 13 17 43 56 23 46 11 179 280 217 26 48 66 13 16 14 14 39 23 160 90 171 31 12 16 14 13 38 25 127
internal_value=0 -0.0460297 -0.0635849 -0.0679118 0.0989092 -0.0813497 0.100227 0.104913 0.123126 -0.0844072 -0.0905051 -0.0345783 -0.0148654 0.159173 0.108451 0.0285403 0.1143 -0.0802767 0.0331092 0.135976 0.11092 0.103934 0.0854989 0.056815 -0.0680354 -0.0344104 -0.0727375 -0.00821554 -0.0373271 -0.0606886 0.0582306 0.0504115 0.0715586 0.0337349 0.0835121 0.13242 0.0982419 0.0741039 0.070751 0.0736133 0.150177 0.170288 0.0256764 0.0544446 0.0278773 0.176176 0.209991 0.117666 0.0293723 0.13143 0.118113 0.115167 0.100002 0.135125 -0.000892193 0.189193 -0.0291016 0.000206746 -0.083305 -0.0878978 0.085674 0.0958449 0.113995 0.0464974 -0.0334103 0.0463086 0.000667964 0.0458106 0.0948917 0.00643204 0.0486627 0.00243933 0.0590948 0.0436162 0.0652047 -0.0307107 0.0290558 0.112125 -0.0138083 0.017131 0.0337725 0.125739 0.00895284 -0.0159185 0.125432 0.0924981 0.137459 0.195113 0.150759 -0.0179177 -0.0403283 0.0219765 0.0638927 0.12921 0.108256 0.132241 0.0595633 -0.0687941 0.000879518 0.109218 0.0864295 0.0330284 0.128612 0.100318 0.0627297 0.150446 0.0380711 0.0501721 0.0819429 0.0295572 0.103739
internal_weight=0 2697.14 2408.1 2349.83 1270.16 1874.88 289.044 1213.93 238.65 1840.74 1640.04 200.701 474.952 154.605 1186.74 147.464 1062.94 1301.67 67.3889 343.851 58.2641 719.086 312.609 84.0457 716.212 327.488 658.427 50.3941 321.917 146.086 123.798 117.695 92.9693 56.1384 34.1386 51.2002 35.4785 261.021 255.237 251.151 255.525 140.963 36.4727 47.8356 37.5995 137.853 59.5667 12.7752 53.8006 9.41754 406.477 394.674 224.272 170.402 18.7712 104.777 24.7259 15.0587 448.088 411.179 197.35 165.154 120.744 44.4106 20.0265 37.7219 21.7259 10.9341 88.3266 121.479 39.3586 27.8979 19.4285 77.8653 57.1438 56.2261 18.6265 24.3841 82.1201 62.6972 53.1348 11.2923 41.8425 20.7215 114.561 49.8024 29.7074 17.8904 64.7589 175.831 91.3777 24.5693 25.6737 36.8309 29.9746 25.2919 10.7174 133.312 16.4113 205.5 94.481 42.1038 111.019 67.6198 33.3945 78.2861 25.3024 11.817 77.3029 22.7134 54.5895
internal_count=12029 8196 7311 7134 3833 5635 885 3680 722 5530 4906 624 1499 483 3587 478 3200 3743 202 1058 177 2142 915 239 2011 1021 1834 163 1003 425 387 367 297 177 105 158 107 757 738 728 797 447 115 153 119 434 188 37 152 28 1227 1189 676 513 50 333 70 42 1212 1105 576 487 362 125 52 106 58 32 261 395 130 92 64 219 163 153 53 73 265 186 161 38 123 56 350 149 93 57 201 578 298 81 83 120 89 76 30 422 53 626 285 125 341 202 102 246 84 36 227 62 165
is_linear=0
shrinkage=0.165648


Tree=5
num_leaves=112
num_cat=0
split_feature=6 0 0 2 8 3 6 2 6 7 2 3 0 6 9 0 9 8 6 2 0 2 3 3 2 6 6 6 7 9 6 9 6 2 6 6 2 0 7 3 3 8 9 7 9 0 6 3 6 0 3 6 7 2 6 3 7 2 8 9 6 7 3 2 6 2 9 8 9 8 9 9 2 0 9 3 6 3 3 9 0 3 7 3 2 9 2 2 7 0 0 8 6 8 3 8 9 7 0 3 8 9 6 6 3 3 9 7 6 3 9
split_gain=1101.26 415.172 183.37 88.5759 61.9981 47.8211 40.8041 32.6587 29.0871 27.9899 25.4731 22.6464 20.9099 18.9646 19.2371 18.8101 15.7962 14.9585 14.1729 29.5314 13.7259 12.1802 11.8728 10.7666 10.4826 10.0491 12.3476 9.555 9.45768 9.13739 8.30971 8.09714 9.72483 7.82307 10.1529 13.6342 8.72751 7.71876 7.65416 7.6416 10.7395 7.27151 7.23441 7.20865 7.15972 7.12164 7.03565 6.93962 8.10354 11.1444 6.93242 9.51656 11.118 6.67493 6.58686 6.5723 6.32824 6.20394 6.06746 6.75643 5.96202 7.7325 5.71284 5.61779 5.61486 5.38299 5.89929 5.22292 5.10598 5.44444 5.07906 5.28154 6.10744 5.07111 5.15502 5.03261 4.92058 6.64907 4.91684 4.86699 4.68075 4.61784 4.96824 4.53625 4.52931 4.49409 4.3877 9.88405 4.19786 4.11766 4.09489 4.05499 5.3984 4.25187 4.00411 5.85951 4.64604 3.88631 3.72204 4.74035 3.57206 3.54125 3.45826 6.08481 3.40529 3.45953 3.38287 3.366 3.62204 3.34705 3.26108
threshold=0.75008623863685886 -0.56632808671395496 1.5214871789374393 -0.017446493786268894 0.6992502075999244 -0.62446014503096137 0.64482185998669461 -0.035992319812997595 0.4698988153488618 0.77026050073914043 -0.12098884712526979 -0.19064972988510834 1.8791234642859858 -0.65800664221372795 0.74242162409609425 0.15578489119278557 -0.13279923859276438 1.0640181874287944 -0.068784665300901882 0.12938541204151302 -0.21641070491779471 0.084264856350155473 0.23237950948873348 -0.0090134344386825979 0.1778736428404307 -0.86582744738909889 -0.40812368397491788 0.49113441203545266 0.29916786190710282 1.9435660246477384 -0.24375843061100277 -0.58005168746135971 -0.60639530276938014 -0.088666198872206531 0.43089697280468636 -0.44223102761499417 -1.7200768991749074 0.081905443248312865 -0.85155161491610121 -0.48897062133537422 0.17970810863752013 0.46924540302739243 2.0780709183760311 1.1244843166049707 0.12934061183271431 -0.65772689610289425 -0.71042890114152424 0.11707375018915887 -0.40129023715556461 0.59581738090478742 -0.6694455587557836 0.51916688775582231 0.11784723669134077 -1.8559245849693966 -0.52757317848958718 -0.43020148615357262 -1.7790846245898793 -0.067243475241928183 -1.4856235738438732 -0.51173830091711681 0.42552480839320911 -0.20320366907376616 0.18182758991449494 0.038646486116855304 0.7950296926647652 0.090994968709507212 -0.068971767875278686 1.0908275159782366 0.82010902773244154 0.83477114994997714 -2.1427361055016436 -0.98820907323819507 0.052228554858453256 1.4413118258331408 0.42357368614592406 0.10020009996455721 1.0000000180025095e-35 -0.069087556869791331 0.21959735326778468 0.20817491015922007 -0.80688969918695197 -0.090629847930208091 0.035875204493359604 0.21672490317841173 0.092409562378534468 0.28004310856944425 0.082233111260669262 0.090994968709507212 -1.1556000260618984 -0.26580482164224628 -0.71187094872166989 -1.1203768933384832 -0.47386221936391903 -0.88463488682539881 -0.060546110096579543 -0.1889089714184676 -0.51173830091711681 0.59351733714921018 -0.74408719231046028 -0.053070863629542699 -1.233694043757221 -0.26822203649765292 -0.40129023715556461 -0.69823935912222823 0.043017413094865606 -0.060546110096579543 0.43156824165621682 0.94025191354646631 -0.53726495739588553 -2.7491116709148495 -0.039111262326067396
decision_type=2 2 2 2 2 2 2 2 2 2 2 2 2 2 2 2 2 2 2 2 2 2 2 2 2 2 2 2 2 2 2 2 2 2 2 2 2 2 2 2 2 2 2 2 2 2 2 2 2 2 2 2 2 2 2 2 2 2 2 2 2 2 2 2 2 2 2 2 2 2 2 2 2 2 2 2 2 2 2 2 2 2 2 2 2 2 2 2 2 2 2 2 2 2 2 2 2 2 2 2 2 2 2 2 2 2 2 2 2 2 2
left_child=1 3 4 9 6 109 7 29 55 33 -4 42 58 20 18 39 25 -10 28 50 44 94 30 -23 98 -7 31 67 47 110 56 70 -33 34 35 -1 -37 -25 -32 -8 41 -41 53 -26 46 57 -9 48 49 86 -20 83 -53 -2 -24 -6 75 -35 -12 -60 61 -16 -39 -58 -13 66 104 68 69 -11 -27 72 -72 74 -51 -14 78 -78 -63 -71 -29 82 -17 -52 106 -56 -15 -88 -67 -42 -28 92 -68 -93 95 96 -22 -31 -18 -100 -94 -34 103 -59 105 -61 -30 108 -57 -5 -3
right_child=11 2 10 5 8 16 15 13 17 27 12 64 22 14 60 81 24 -19 19 -21 21 23 54 37 43 26 90 80 84 97 38 32 101 45 -36 36 -38 62 -40 40 89 -43 -44 -45 -46 -47 -48 -49 -50 73 51 52 -54 -55 85 107 63 102 59 65 -62 76 -64 -65 -66 88 91 -69 -70 79 71 -73 -74 -75 -76 -77 77 -79 -80 -81 -82 -83 -84 -85 -86 -87 87 -89 -90 -91 -92 93 100 -95 -96 -97 -98 -99 99 -101 -102 -103 -104 -105 -106 -107 -108 -109 -110 -111 -112
leaf_value=-0.12856116936234732 0.15912589833657376 -0.11980784444035766 -0.1216446680726524 -0.013229737930431336 0.035339224297275977 0.19925966793368613 -0.078346306285465808 0.036729295262409742 -0.075214140006821043 0.1941358676779491 -0.084584302250219234 0.15497095748931247 0.13667075952315791 -0.10566325978739159 -0.062315838172531675 -0.044080135267679503 0.22541975634365449 0.13491945396504529 -0.10921965535234919 -0.11881853429332383 -0.030443951141714734 0.21465093398753743 0.14803154731760226 -0.13869760549308746 0.012701211704051793 -0.13649720829941381 0.20833393476444231 0.065167817863545585 -0.070674083577150479 0.085006697511675333 0.042010771274404994 0.19888692513259415 0.085068735936201095 0.2439214245818267 -0.12434262203000257 0.079123540255839883 -0.058015367846156581 -0.024015393896678547 0.24223808016004447 0.23039153483403288 0.059636914904379015 -0.0063106582701622001 0.25843162976960277 0.22026535646527995 0.11781571270568462 -0.13910598146619299 -0.10833797704047024 -0.12357610864677297 -0.11243793868239445 -0.037820274947794594 -0.0033329003246403382 0.15342981265450736 -0.043922644949641501 -0.0071828776384368961 -0.08412784607155202 0.0065429541138165518 0.19963839112596085 0.064235512873957776 0.15093738466784823 -0.097966199268488582 -0.075347285673575709 0.09927660993698692 0.23858316488111062 0.10924568143872168 0.22837262345491738 0.24074353360805761 0.19005960563139454 0.17136069662113623 -0.023513517104079021 0.0011548837326934968 0.22863001951823581 -0.031410448956546475 -0.0039018452161041391 0.14857630768282348 0.12735655124819525 0.017156328541316965 0.0029009769221185148 0.25036591378135437 -0.10030506713018718 0.14322581343122598 -0.10102622131712928 0.19494351234383309 0.17574724943598929 -0.073493681779259273 0.092929899290522922 0.073146065335684143 0.17583612311634461 -0.096668245724765886 0.017690088411756691 -0.12974018450256036 0.078697951937470409 -0.089471528992471711 0.088726874685088636 0.068654708667704858 -0.085843255754991826 -0.093555649027528193 0.17690240670751151 -0.1157202521938146 0.24761369684532206 0.12417871490012689 -0.082337872550239111 -0.1113698511011561 0.14516274038996402 -0.13982075076290845 -0.12358545922288454 0.10960000525319648 0.058690129796697188 0.21950182191097936 0.16000364304642933 -0.13765645368846738 -0.10075039934126402
leaf_weight=21.460985586047173 10.288629829883577 559.44065327942371 21.236150741577148 11.296775966882707 15.073167532682417 33.612539112567902 33.472714155912399 36.934373110532761 51.066460028290749 13.228459328413008 17.46998119354248 30.359475880861282 21.579033404588699 104.6222217977047 12.099736943840979 6.089876741170885 121.3608310520649 11.363879710435866 18.299899980425835 118.70863024890423 6.0426218956708908 7.7688221037387875 6.5847378671169308 8.0630035102367419 13.227489650249483 6.2602928578853598 25.207871586084366 9.0125003159046191 31.744679227471352 9.3454466462135297 53.350458174943924 16.328934609889988 5.3210408985614777 4.7352623045444515 35.343649625778198 33.778769701719284 20.437356233596802 5.6322307884693128 5.8090970218181601 8.9410252273082751 4.7576014995574942 5.9184345901012412 5.5600053071975699 7.0318168103694907 20.214710474014282 5.2556394636631003 12.204905062913893 263.62610217928886 190.81934127211571 51.177461385726929 95.584743663668633 20.382982194423676 12.721254453063009 18.581226408481598 17.280974805355076 5.6086483299732235 48.584715247154236 13.183763593435293 9.9406553506851179 4.4122531712055206 14.43787634372711 9.8325073122978228 3.8115858435630798 30.841329574584961 492.15526103973389 4.4033385813236237 7.5132205784320822 26.407375007867813 10.316052883863447 14.895541399717333 6.0849775671958941 17.323182374238968 6.3166018724441528 5.2822726666927329 5.7688646167516699 17.514390677213669 4.4522494673728934 9.0048482418060285 5.1668271124362937 11.903978288173674 9.6065618097782117 16.556130588054657 5.2556488811969757 34.381130635738373 7.4641896188259116 7.0067800283431998 5.1840512156486538 12.360099315643309 4.8819736540317518 9.3258163630962354 9.0993721187114698 11.874031186103823 7.8000180423259708 7.6864051818847683 112.69863668084145 11.797390207648276 5.822448670864107 3.6923245787620536 12.921316176652907 25.159973859786987 5.8700997531414041 4.7803328335285169 6.1468345224857321 5.7623350620269767 15.296032786369322 4.4009951353073138 6.7209366858005515 17.017376631498337 17.047021776437759 12.491484224796293 440.27794751524925
leaf_count=64 32 1781 77 34 52 99 111 112 169 41 49 89 67 276 39 21 358 36 59 414 20 24 21 24 44 16 76 30 84 32 165 49 15 15 116 107 65 18 18 28 16 18 17 21 60 14 34 699 508 153 267 63 35 60 56 16 150 38 32 13 50 32 13 98 1446 14 24 81 35 44 19 45 18 17 20 56 14 28 16 38 32 51 17 96 22 24 15 35 16 31 27 37 25 24 338 37 20 14 38 72 17 13 19 14 42 13 19 52 51 40 1453
internal_value=0 -0.035762 -0.0619041 0.0924915 -0.0773027 0.147772 -0.0831086 -0.0874275 0.0403203 0.0160694 0.0538665 0.215534 0.0658858 -0.0697434 -0.0792807 0.0260931 0.165139 -0.0369646 -0.0846048 -0.0545866 -0.0268096 -0.0532596 0.095901 0.0523581 0.196981 0.121235 0.0941203 0.0858726 -0.0977593 -0.109618 0.112376 0.0502409 0.119858 -0.029495 -0.0510423 -0.0168087 0.0274275 -0.0196609 0.0616718 -0.0244503 0.0378809 0.136114 0.0854085 0.0847448 0.0348348 0.0386903 0.000698398 -0.102979 -0.0885077 -0.0637438 -0.012546 -0.00169721 0.0775915 0.0520862 0.00108369 0.128453 0.137685 0.0700175 0.00424345 0.0227001 0.0160643 0.0486066 0.0819711 0.164539 0.224108 0.00550575 -0.0113834 0.111697 0.080401 0.107182 -0.000891462 0.0276683 0.110193 -0.00668539 -0.0210873 0.0831267 0.095771 0.168493 0.0305266 0.0642608 -0.0205805 0.139158 0.0577517 -0.0218932 -0.0251564 -0.0387559 -0.092808 -0.016147 0.123468 -0.0657656 0.17395 0.0270476 0.0772635 -0.0273348 -0.0728367 -0.0108893 0.0713054 0.0281604 0.211243 0.166061 0.0152698 -0.00789306 0.0372002 0.0021731 -0.0763303 0.00568433 -0.0480708 0.16383 0.122013 -0.0785676 -0.111415
internal_weight=0 3397.72 2822.42 575.3 2491.08 333.825 2373.91 2283.59 117.177 241.475 331.337 556.945 310.101 1270.83 1039.84 90.3172 310.037 62.4303 984.849 300.079 230.991 161.637 208.552 25.2756 179.701 130.335 96.7226 95.3705 684.77 1012.76 177.679 62.4154 26.4303 146.105 111.021 75.6771 54.2161 17.5068 59.1596 62.4156 28.9429 14.8595 34.4299 20.2593 69.354 35.0838 49.1393 638.84 375.214 184.395 181.37 163.07 33.1042 28.8699 30.8725 54.7462 118.519 29.8282 101.549 84.079 54.994 40.5562 9.44382 79.426 522.515 74.1384 64.8531 76.7514 50.344 40.028 35.9851 29.7248 12.4016 62.2286 56.9463 39.0934 28.4564 13.4571 14.9993 26.7995 18.6191 27.9017 11.3455 129.966 45.9298 24.2878 122.166 17.5442 9.28531 14.0834 34.3072 40.7438 21.1833 19.5604 136.361 23.6625 11.8651 13.0378 159.442 38.0813 13.6701 10.1014 25.0929 18.9461 24.1093 8.81325 38.4656 39.673 22.6557 23.7883 999.719
internal_count=12029 10385 8648 1737 7610 984 7234 6941 376 753 1038 1644 961 3661 2961 293 910 205 2782 934 700 494 655 79 533 377 278 301 1848 3280 554 175 77 452 352 236 172 55 183 204 93 46 109 65 206 100 146 1723 1024 516 520 461 98 92 101 171 371 86 306 257 179 129 31 248 1535 225 195 239 158 123 98 82 37 190 173 123 90 42 48 82 62 89 38 363 125 80 326 50 30 47 103 127 66 61 415 77 40 46 468 110 42 28 71 52 68 26 103 119 67 74 3234
is_linear=0
shrinkage=0.165648


Tree=6
num_leaves=112
num_cat=0
split_feature=6 0 7 6 5 5 4 7 6 0 0 6 6 4 0 1 4 4 0 0 6 4 0 6 6 6 4 1 6 0 8 1 7 6 0 4 5 4 6 4 4 5 0 4 4 5 7 8 4 0 5 7 8 1 1 4 8 4 1 4 5 1 7 4 4 1 5 6 0 8 0 1 6 4 5 4 0 4 7 8 7 7 8 6 0 4 8 1 6 0 6 5 0 6 6 5 1 8 1 4 4 7 8 0 4 0 7 8 1 7 4
split_gain=407.265 168.723 182.012 112.103 71.2446 49.6456 42.9219 25.1522 22.4358 27.2988 18.7401 24.5754 16.851 16.4786 14.7995 14.4498 13.3065 14.6622 41.5676 23.1073 14.5497 13.1545 12.8197 11.3636 10.9186 10.304 9.95834 9.74688 9.34767 9.20036 9.15643 17.2172 14.2654 10.7621 10.4168 9.06579 12.497 8.15263 7.98418 7.80297 7.73857 9.23757 7.53172 6.95729 6.5135 6.26268 6.22411 8.28178 6.04944 7.00267 5.97227 5.79039 7.84573 11.4436 5.75836 12.3953 5.74844 5.71357 6.75306 5.59074 5.54476 5.8346 5.41362 5.39434 7.86331 5.59643 5.28436 5.27391 5.21729 10.4009 5.20651 5.06959 5.52103 5.05794 5.0009 6.16893 5.76707 4.9833 4.95855 10.6057 9.01038 4.86671 4.86037 4.78106 5.52484 5.85657 5.07709 5.08292 4.56463 4.56268 4.54145 4.50934 9.31258 6.30899 4.50361 4.51863 4.50792 4.49121 5.59564 6.67111 4.9181 4.3651 5.68475 4.74377 4.35446 4.31638 4.28407 10.1801 5.10703 4.67256 4.26778
threshold=-0.012512037995616298 1.8086820712549567 0.34262477021387866 0.77934913096581282 -0.46426845405639178 0.50990337062195923 0.53311977065973504 0.81669094805263531 -0.83400193305452197 0.81770811238530361 -0.068509815513191893 0.55888027001694118 -0.68025588442167773 1.5123507423365876 -0.21095462934911016 0.025148818460009655 2.118713484631765 0.18176168461918513 1.0755332802612119 -0.23254128970070051 -0.18695619080334056 0.30515952157233006 -0.36044099063130475 0.59593201588593736 -0.40129023715556461 0.16752611474598023 -0.59148434853285436 1.2555681624819701 -0.37983331596599129 0.81770811238530361 0.24031231749404272 0.092176812069945421 0.32784452693237276 0.47491576334481261 -0.69673838495854434 0.37211849166510952 0.63468832034974343 0.33828905891901234 0.11914365370768897 1.1819563236495296 0.18176168461918513 -0.69104379649984049 0.98280831059420992 0.098900642736741512 0.43289842958815655 0.11200306461816771 0.19491351205022114 0.096770687766389321 0.83960669474408134 2.0968280777391537 0.16670520101602518 0.094726055918782415 -0.037375841171210442 -0.34922919221353982 -0.050160582443923192 -0.51977114162448357 -0.77190202888030035 -0.25176425390349116 0.0107744669913076 -0.51977114162448357 -0.62364261002752219 0.74043272775953295 0.25197112337975841 -0.81881253618465999 -1.3987037705303556 -0.066101251519372781 -0.57078101448274132 -0.27026928759176211 0.57571062464124767 -0.34781121210719318 0.34779458820146469 0.19767370355859898 -0.50150598129379664 0.33828905891901234 0.10239386580621561 0.58077007912997403 1.1331041484228501 -0.10174338121034195 0.38820916897560692 0.43829485023691289 0.42813538282350883 0.10195630965958827 0.44642948295596796 -0.63383249068407155 0.071614987386679568 0.028912002782263854 -0.022596952300048195 -0.31750916746169527 0.56749165105019739 -1.1352481248583246 -0.42234925794988021 -0.22179973110743562 1.9152157210601508 -0.068784665300901882 0.27974625715155221 0.33728052607348091 2.0695002809177807 -0.21125209176174434 -0.39699420376110223 -0.087009429898481136 -0.55924230665090946 0.66389231830426687 0.56006815169674951 -0.14668350292820351 0.10712136509644062 -0.56632808671395496 0.7826588622262266 0.7199582762416511 0.8592791897667228 0.56158119199666323 0.055955220355039706
decision_type=2 2 2 2 2 2 2 2 2 2 2 2 2 2 2 2 2 2 2 2 2 2 2 2 2 2 2 2 2 2 2 2 2 2 2 2 2 2 2 2 2 2 2 2 2 2 2 2 2 2 2 2 2 2 2 2 2 2 2 2 2 2 2 2 2 2 2 2 2 2 2 2 2 2 2 2 2 2 2 2 2 2 2 2 2 2 2 2 2 2 2 2 2 2 2 2 2 2 2 2 2 2 2 2 2 2 2 2 2 2 2
left_child=1 2 4 5 8 6 22 12 37 13 30 21 63 15 -8 44 17 18 20 -19 43 -12 -2 48 54 42 -17 60 39 73 31 34 88 -34 -7 36 101 97 -36 -21 -11 -42 59 81 83 -30 47 51 74 94 -27 52 53 -40 55 89 -43 58 -22 -24 61 68 -61 64 -4 -65 71 -45 -28 -70 -63 -56 -73 -23 -16 -76 -77 -20 -38 -80 -81 -6 -37 84 86 -86 -10 105 -32 -14 -41 -3 -93 -94 -50 96 -96 -1 -99 100 -100 102 103 -35 -59 -88 107 109 -108 -82 -67
right_child=3 91 7 -5 16 10 14 -9 9 40 11 -13 24 -15 23 26 -18 19 77 28 57 29 25 -25 -26 50 27 -29 45 -31 32 -33 33 35 38 82 78 -39 46 90 41 56 -44 67 -46 -47 -48 -49 49 -51 -52 -53 -54 -55 66 -57 -58 104 -60 62 -62 70 -64 65 -66 110 -68 -69 69 -71 -72 72 -74 -75 75 76 -78 -79 79 80 106 -83 -84 -85 85 -87 87 -89 -90 -91 -92 92 93 -95 95 -97 -98 98 99 -101 -102 -103 -104 -105 -106 -107 108 -109 -110 -111 -112
leaf_value=0.042211021086232398 -0.13453130937510233 -0.13526716704393768 -0.15894741788793185 -0.13807605708964324 0.1238022372534061 -0.12462908435553983 -0.13244050702037574 -0.11416380094235982 0.13567457316956991 -0.13272684953982017 -0.047806232472478831 -0.13153611153683686 0.15703057422132002 -0.1536602851893705 -0.10177916054549604 -0.069205517037595338 -0.10527154258110785 -0.1759930158846286 -0.13132190265312024 0.11331545627623987 0.024152746495348612 0.11698827700275068 -0.094333033822527945 -0.11456691882184798 -0.034898344514283225 -0.13715954432354335 0.14161222346194477 -0.061989649981750154 0.1636631492135103 0.11008152057704018 0.15963076199300749 -0.1014036063451703 -0.080813383829390711 -0.082895870741254221 0.24724541508244119 -0.046019667481235059 0.11862573613411219 -0.12207749288277482 0.029951870486362848 -0.16891518888126641 -0.11937537224359381 -0.057803393176723304 -0.14002077898728496 0.0032132202264571453 -0.032431969798750321 0.067048977100569992 -0.091056662884294981 0.11699970244890094 0.13153292230049332 -0.063753592642527279 -0.077419888929438074 -0.12881458964583389 0.10461540511567742 -0.14064520889000853 -0.063534294484371867 -0.16601282836057063 0.080264034214647131 0.11174517851133196 -0.1605348142816457 0.05807946861475595 0.17182951566645679 -0.10700645319357707 -0.066641422308118967 -0.13470569564318471 0.042998724912510826 0.010203713003325961 0.20993098689508261 0.18673990926989012 0.20637945823955192 -0.094470096065041212 0.091571006350817274 0.13601159591346196 -0.025533035356595471 -0.035266022916133746 0.15377072463689584 -0.039679425792658644 0.14349841585048398 0.012686636361821366 -0.075194833073840894 0.24067889638284098 0.085940698968437396 0.072550241065637094 0.15720401409808699 0.10425555049864764 -0.073165858353209157 0.060704819217348861 0.089623419004263655 0.090846954932395849 0.005818103928975602 0.018201499482646762 0.069162373874584362 0.078001957794904292 -0.11914985490521367 0.11147495754018476 -0.039672793216773188 0.13245184524945239 0.15125790096146921 -0.10753242093010294 -0.069439171964061325 -0.099449336396681937 0.12893540184785063 -0.11642786820722988 0.099468359007539503 0.10570783380316839 -0.039894674932411452 -0.065289082142911584 -0.094919149105788414 0.24122322392229306 0.1204622430166969 -0.0018393403494580101 -0.13145327831130657
leaf_weight=28.326769798994064 162.04170374572277 99.641877517104149 7.162366762757304 386.92997865378857 489.46081255376339 13.737780153751372 19.662419945001602 104.46523648500443 20.027705788612366 18.880062252283096 118.85235221683979 65.231226339936256 9.025220304727549 8.7497866004705411 11.543609559535978 7.9836958646774283 7.8617689460515967 6.4105637371540061 22.388380303978924 103.98642291128635 33.987660139799118 7.2357104718685141 13.641757145524023 15.169575080275534 63.917389780282974 64.384187430143356 68.315075784921646 7.6522899568080893 265.74464526772499 30.950418502092361 28.055604368448257 48.406814724206924 27.434228092432022 23.499398708343506 4.3646140098571768 3.8388502150774029 20.639462694525719 23.257274255156517 46.028681501746171 4.3714707046747208 14.896098658442495 12.332835495471949 12.755033060908316 24.202472358942035 26.671554744243622 19.78012403845787 12.612595215439795 24.477997168898582 32.184164419770241 9.6060449630022031 160.09995838999748 7.7202306091785422 22.508866399526603 14.092493921518324 6.6366409957408896 8.6715552210807783 25.144705742597584 29.791852682828903 6.4659530967473975 36.503301158547401 54.575645953416824 6.1020334959030142 12.93278945982456 41.53480376303196 20.244732245802879 17.509126424789432 8.8785041570663434 5.2237137556076041 5.3010081648826599 7.782012611627577 8.9173360764980298 23.399177581071854 7.7203871756792095 34.690325394272804 7.8458474129438391 28.329899787902832 5.6579472720623007 9.3457874804735166 21.307864964008331 6.6014753580093375 29.543424844741821 56.729847773909569 20.332621574401855 41.343722403049469 20.40117172896862 15.998944282531737 7.0705392658710471 23.238747686147693 6.525460183620452 23.17714232206345 4.4228697717189771 8.9328325688838941 51.074825167655945 3.4762850701808921 16.724349319934852 10.434144854545591 4.2567123919725409 20.03833219408989 4.8092452883720425 9.9069445431232435 11.950578391551973 18.056324630975723 8.7615339756011945 4.3341711908578899 6.2938430458307257 16.343063771724701 11.555533722043036 7.393515169620513 4.0900008827447882 38.094784826040268 8.7531748414039594
leaf_count=78 631 400 26 1550 1159 50 71 405 48 69 415 250 22 32 40 24 26 21 78 242 99 20 47 53 205 237 159 23 586 79 71 179 100 83 10 13 57 80 142 15 51 39 46 66 78 52 44 66 83 33 579 29 62 54 21 29 66 75 24 107 117 19 46 153 62 55 21 11 12 24 22 59 23 116 21 96 14 27 75 15 84 147 53 101 63 42 19 59 20 67 11 29 195 11 55 27 11 67 16 33 30 68 26 13 19 49 43 19 12 122 31
internal_value=0 0.0485921 0.06204 -0.0594397 0.0855729 -0.0369803 -0.0713072 -0.0460402 0.0348178 0.0515723 -0.00768765 -0.043711 -0.017185 0.0707757 0.00223376 0.0765904 0.109459 0.11101 0.0962212 0.136 0.10523 -0.0138305 -0.0969812 0.0209144 0.0171473 -0.0767204 0.11131 0.120395 0.141021 0.0415796 0.0118404 -0.015825 0.0309992 0.0169676 0.0126379 0.0292701 0.017344 -0.0363885 0.0269449 0.100644 -0.0418053 -0.00902919 -0.023929 0.114252 0.0427769 0.15697 0.0194 0.0315325 0.0371504 0.068072 -0.0945538 0.00837739 0.0211954 -0.0100363 0.0551621 0.00977408 0.0348298 0.037378 -0.00536702 -0.000453971 0.129638 0.105756 0.0254517 -0.0717919 -0.00977637 -0.0968618 0.0949433 0.0357927 0.12326 0.0274288 0.0108934 0.0679035 0.0959343 -0.00898956 -0.00525776 0.0213764 -0.00918586 -0.088911 0.0436931 0.0306514 0.0538359 0.118479 0.124929 0.0566661 0.0375788 -0.0143257 0.065913 0.0359646 0.130606 0.0571105 -0.0491807 -0.113284 -0.0787799 -0.104453 0.0879829 0.0433669 -0.000936095 -0.00982789 -0.0413896 0.00831235 0.0720117 -0.0497812 -0.0168971 -0.053527 0.0852971 -0.0185079 0.0402334 0.0566747 -0.0386149 0.0365018 -0.0370103
internal_weight=0 2126.71 1963.58 1741.68 1612.49 1354.75 623.773 351.095 516.017 417.728 730.974 256.96 246.63 346.474 161.415 337.725 1096.47 1088.61 683.89 404.716 652.156 191.729 462.359 141.752 151.426 300.317 166.629 158.645 398.306 72.8765 474.014 193.95 280.064 245.483 145.543 218.049 193.877 98.2891 131.805 112.781 71.2537 52.3736 75.8329 575.617 171.095 285.525 127.441 114.828 126.583 73.2054 224.484 90.3503 82.63 60.1212 87.5086 40.8739 37.4775 76.5393 40.4536 63.0778 150.993 96.4175 49.4361 95.2042 27.4071 67.7971 46.6347 29.4262 81.3981 13.083 15.0194 37.7562 31.1196 41.926 53.3773 41.8337 33.9878 31.7342 139.226 118.587 97.2787 546.191 24.1715 144.424 103.08 36.4001 66.6801 46.6524 34.5811 32.2024 8.79434 163.126 63.4839 54.5511 63.5994 31.4152 20.9811 75.0319 46.7051 26.6668 16.7598 54.6514 36.5951 27.8336 36.0857 23.4136 90.6773 75.0317 15.6455 67.6382 26.2623
internal_count=12029 5892 5257 6137 4078 4587 2197 1179 1420 1116 2390 880 774 891 504 859 2658 2632 1705 927 1600 630 1693 433 447 1062 400 376 906 215 1510 636 874 783 457 683 617 304 407 268 225 156 246 1383 459 638 397 353 380 209 816 287 258 196 242 118 105 217 123 200 353 236 153 327 88 239 124 77 195 36 41 103 82 136 171 131 110 105 427 370 295 1306 66 381 280 105 175 127 91 89 26 635 235 206 176 93 66 224 146 79 46 190 122 96 94 68 280 225 55 206 86
is_linear=0
shrinkage=0.165648


Tree=7
num_leaves=112
num_cat=0
split_feature=3 3 6 0 5 6 0 1 4 6 7 7 0 4 4 5 5 4 3 3 6 5 4 7 1 1 7 6 5 0 0 5 4 3 1 5 4 0 1 3 7 0 0 5 6 4 0 4 1 6 7 6 3 0 7 5 5 3 4 6 0 4 6 0 1 6 4 7 4 3 0 3 1 1 4 1 4 3 3 4 1 3 1 4 0 0 5 6 0 6 1 3 1 4 4 3 6 3 3 5 7 5 7 5 4 3 0 3 5 0 4
split_gain=382.491 202.462 78.5507 28.3735 30.8742 32.7091 42.41 26.442 22.337 18.9514 16.6741 14.7581 13.6156 11.9569 11.3573 11.0581 10.9937 10.0566 9.93283 11.7151 11.0318 9.54334 9.37206 8.84405 8.53257 7.92991 9.13497 8.44703 7.34914 13.9307 7.30966 7.16852 7.86243 6.84092 6.72367 12.4938 7.02709 8.80794 6.65262 6.25083 6.22527 6.06379 5.96788 5.92051 5.82571 5.65754 6.08008 5.62411 5.42203 7.16289 6.54934 5.37004 5.32198 7.39553 6.15629 5.9107 6.16918 6.69642 7.63681 5.72057 5.20566 5.17322 5.1619 5.68129 4.7613 4.68033 4.63025 4.56861 4.5605 5.69322 4.58964 4.79641 4.479 4.28822 4.98461 4.24875 7.26594 4.21112 4.20608 4.18996 5.2854 4.08938 4.05807 4.87489 4.84441 3.99371 3.95825 3.9427 3.92591 7.25645 7.47619 4.3268 4.2148 3.91183 3.85409 3.85007 3.80383 3.77825 3.75123 3.69747 3.68778 3.68398 3.67846 3.67348 4.29748 5.67802 3.66119 3.66041 3.66031 3.65879 3.84583
threshold=-0.19064972988510834 0.41309321465564031 0.7950296926647652 -0.4848347113470286 -0.62364261002752219 0.20766555072514173 1.0755332802612119 -1.1228052217246869 0.52230019905750769 -0.56135175933112536 0.97645459426561787 0.69585995707916026 0.21947752440436408 -1.2953660933149795 -0.77647027865525164 -0.95092070828073727 0.19037517393639489 -0.76154134006345819 -3.0158241701875368 -1.125481857135455 0.46169695235516323 0.38788868541970462 0.098900642736741512 0.32784452693237276 1.2555681624819701 0.49859547624384709 0.2602444326802163 0.65205077853533389 -0.21402326128981772 1.8086820712549567 0.3576146407728914 -0.32389459267712378 -0.040482429379275445 0.25011959983539273 0.11925465777338616 0.24961733563614752 0.074115195295238315 0.25956922463255744 0.60686750379269372 0.039932609828796102 0.69585995707916026 -0.07589865394508459 0.027572439273840402 0.34863439863369677 0.75008623863685886 1.1579568415866672 0.68710499708892947 -0.07283835389603853 0.30808514424388062 0.42156263086500401 1.233102477289421 0.56749165105019739 0.75052354502800156 1.4787559079984676 0.53839063022524625 -0.41317838451772243 0.41725373210477607 1.1171777383611137 0.074115195295238315 0.47953714019496579 1.4787559079984676 -0.20983648378140932 0.457878584653934 -0.3971747421329665 1.8124353428821893 -0.36432219616680095 -0.84534196482081014 -1.6883800855376061 0.92884294218393648 0.12581791342828227 2.3071507699700304 0.25011959983539273 -0.38120118514170781 -0.56788005701217792 -0.24384219806819843 -1.2110216451152478 -2.2873387778868395 0.12307803530042326 -0.11140813211308513 0.008039360594469502 -0.3043030870317584 -3.3978481877503071 0.41288376088839551 0.45189849690197625 -0.38989023896672476 0.92081434199010392 0.23611772409264262 0.81253827369091425 -0.13394723037679782 0.53490372184699375 -0.42306523008538749 -0.27466040528742114 -0.57706787766678025 -0.73372280984330029 0.062805025947579918 0.22597985048240085 0.73869707588851263 0.22926498983163843 0.21020478528726888 1.0253497976801051 0.12739926716920383 -0.62364261002752219 -0.90200137625023469 -0.10259586861729748 2.8614962465914431 0.10297762269370896 1.0106940068392161 -0.9935140521192094 0.63468832034974343 -0.76258242974967028 -0.89442551951298555
decision_type=2 2 2 2 2 2 2 2 2 2 2 2 2 2 2 2 2 2 2 2 2 2 2 2 2 2 2 2 2 2 2 2 2 2 2 2 2 2 2 2 2 2 2 2 2 2 2 2 2 2 2 2 2 2 2 2 2 2 2 2 2 2 2 2 2 2 2 2 2 2 2 2 2 2 2 2 2 2 2 2 2 2 2 2 2 2 2 2 2 2 2 2 2 2 2 2 2 2 2 2 2 2 2 2 2 2 2 2 2 2 2
left_child=7 2 3 14 15 6 9 62 17 12 16 44 39 -11 75 45 60 86 82 20 43 30 33 -17 -10 26 79 47 78 -30 -4 32 -14 38 36 64 37 -19 67 41 51 -6 -25 -20 52 97 -47 -27 -13 -50 -51 -37 54 55 73 -54 57 -57 -59 -56 101 -53 63 -1 -36 81 -41 -8 69 -31 71 -70 -43 74 -3 -2 -77 106 -24 80 -22 -65 83 84 -18 -58 -7 -12 89 90 92 108 -21 -69 -29 -63 -84 -5 -34 -86 -16 -9 -80 104 105 -32 -26 -67 -91 110 -103
right_child=1 11 21 4 5 8 22 10 24 13 87 48 31 -15 100 23 18 34 19 88 25 -23 28 42 77 27 -28 94 29 68 103 -33 98 -35 35 40 -38 -39 -40 66 -42 72 -44 -45 -46 46 -48 -49 49 50 -52 61 53 -55 59 56 85 58 -60 -61 -62 95 -64 65 -66 107 -68 93 70 -71 -72 -73 -74 -75 -76 76 -78 -79 102 -81 -82 -83 96 -85 99 -87 -88 -89 -90 91 -92 -93 -94 -95 -96 -97 -98 -99 -100 -101 -102 109 -104 -105 -106 -107 -108 -109 -110 -111 -112
leaf_value=-0.083303093659345753 -0.14408355673446696 0.032091032441719569 -0.11419879999292885 0.11946878193253932 -0.073317462320849791 0.052145913996385615 0.13464397013971147 0.18281697418971291 -0.089300706440237576 0.078210615845241874 0.012314169646842446 -0.14385551636130919 0.13366989934589021 -0.095476536532719994 -0.014986031091410371 0.01243741427025463 0.062996596826738235 -0.027370804437391066 0.031971642655483912 0.11210073150439728 -0.02974074607982689 -0.14061488471224196 0.10239071922543039 -0.10934906350660832 -0.11522170985381767 0.19281529027736793 -0.063034846199219341 0.07000671012060275 -0.098995756063514836 -0.0034729920264975579 -0.023920391122929218 -0.1001665604962628 0.036818640048894014 0.16080507710228115 -0.10702273915477763 0.11966546966003033 -0.089443531058165243 0.11491550698689362 0.13082032734217633 0.0065651150130268407 0.25329246432138713 -0.0078476575394101598 0.087492443013968135 0.12248557099703758 -0.065624265689394029 -0.1522450442493731 0.11986675887996903 0.073913077967453431 -0.047663704132796317 0.16322338689458049 -0.085785003607561611 0.17317710458799737 0.23776056400538059 0.25919357862937792 -0.10312307486099725 0.0085538796590502973 0.12422784308160484 0.055066952908273965 0.21000494774345771 0.12071589755931379 0.17301424534357926 -0.080832595643791735 0.13763235452671968 0.18735893924045804 0.02911977444484691 -0.07580496535898372 -0.12182135940166577 0.10932212218154895 -0.067645734075910763 0.1715009541349059 0.10443568006577082 0.11851457650023672 0.17106196507950244 0.17253454775409666 0.23793200036896964 0.20348881074447459 -0.043580202138149518 0.13880425833710941 0.011421052848533255 -0.053048150007764062 0.10642923456203819 0.022358241887418261 0.14976206961016347 0.0099408011479413024 0.13795562691427343 -0.025843789277149427 0.24303450115880423 -0.15872355841025756 0.1455448714985039 0.14504886578986154 0.16091001180999687 -0.11034790772505293 -0.080061651391295563 -0.048436792522077526 -0.083410482326612301 0.093077187611655912 0.051549833294258544 0.0025649232786316869 -0.078287914636667164 -0.0032128756027639265 -0.11264777894088895 0.040603918804565257 -0.05829771142400697 -0.071937464391911288 -0.14578523491418513 0.17801018789644504 0.069157672740366785 0.087595169398624592 0.027459227517615217 0.062093634339687627 -0.090228262405463722
leaf_weight=29.36772021651268 11.072005748748778 13.595814257860185 75.417586252093315 44.148418769240379 21.668959707021713 4.4065258204936972 5.4747954607009879 6.4132997691631308 62.90270958840847 11.103640079498289 58.805665999650955 6.4474604129791251 20.070773214101791 529.67307004332542 11.242647483944891 237.92591442167759 38.915882706642151 31.221173793077469 25.651351422071457 6.3638336062431335 10.684380650520323 244.96106255054474 11.504188001155851 27.760566368699074 5.8969979584217089 15.428090453147886 36.277470737695694 7.5684469342231777 69.352393269538879 11.843191832304003 8.9394321143627185 10.361566990613936 29.742546856403351 12.334204494953154 12.430930957198145 39.918505668640137 19.771222040057182 19.327806651592255 12.472509548068045 9.1092907786369306 6.6126399040222159 10.049410775303842 4.9852311313152304 87.358407288789749 5.5895653367042533 5.4896464049816114 3.8216584324836731 37.319486498832703 18.786598339676857 12.07270774245262 3.8138771951198569 4.5065471231937435 6.4314110875129691 6.7039781212806693 5.2431752085685712 52.295876801013947 65.6992447078228 33.346718847751617 11.824254930019377 7.7836512923240662 11.340821057558058 11.332784041762354 5.6197860836982718 5.7299897074699429 16.279853314161301 17.639077126979828 50.103572010993958 4.9765696823596874 32.087831526994705 8.9649177193641645 6.6092544496059409 4.307420313358306 6.2136399447917929 65.899005591869354 4.2331011295318595 3.3532575666904441 125.62098382413387 7.0677087306976309 107.93874233961105 9.3904828727245313 29.189212813973427 14.682353913784025 139.85030448436737 13.707281947135924 104.03469136357307 5.2549496293067923 9.2116435170173627 3.9462878406047812 76.504320383071899 10.128258198499678 48.992658257484436 4.575427532196044 6.1669601500034315 32.337181687355049 11.057439416646956 5.0491761267185202 11.728316575288771 9.1597367227077466 10.51516070961952 5.3529040813446036 188.33433772623539 19.757964432239536 25.711721360683441 23.541124030947685 3.2953607439994803 6.6730868816375724 5.9233768284320831 4.7815420031547573 25.680987328290939 259.32871174812317 8.9610555768012983
leaf_count=79 31 38 300 142 59 15 19 20 195 34 193 20 65 1450 43 720 112 94 72 19 28 966 38 85 16 50 91 23 183 39 34 28 89 39 42 120 63 65 43 25 22 30 16 260 19 20 13 107 64 39 13 14 21 22 16 142 196 95 38 23 35 32 18 18 54 45 133 17 101 29 21 14 21 204 14 12 416 23 353 25 85 40 427 38 313 14 30 13 232 31 152 12 15 104 29 15 37 26 29 16 690 59 73 90 13 25 20 14 71 747 27
internal_value=0 -0.0341652 -0.0510987 -0.0381708 -0.0291946 -0.0405972 -0.0536089 0.0781123 0.0118018 -0.0768187 0.0845415 0.0883797 -0.0281926 -0.0919103 -0.0817714 0.0158418 0.0894186 0.0444077 0.100067 0.0842494 0.06248 -0.12198 -0.00606332 0.00132914 -0.0599828 0.0340607 4.59612e-05 0.0748276 -0.0195004 -0.0476034 -0.0832506 0.0271162 0.0489773 0.049263 0.0332105 0.061685 -0.00571517 0.0270335 0.024367 -0.0684395 0.100655 -0.0159406 -0.0793818 0.10194 0.101813 0.0785725 -0.0405616 0.108691 -0.00436683 0.021571 0.103444 0.0840561 0.105176 0.0884541 0.136554 0.0819079 0.0759564 0.0489067 0.0956246 0.0306228 0.062887 0.0160057 -0.015284 -0.0271864 -0.029826 0.0112891 -0.10207 -0.00666328 0.00825056 0.0719124 -0.0225528 -0.0456134 0.0605085 0.153036 0.0809636 -0.0456102 -0.0371565 0.037654 0.00628131 0.0464979 0.0699416 0.0686759 0.122682 0.104455 0.11319 0.113113 0.181267 0.0015581 0.117185 0.0958947 0.131707 0.0413371 0.0175291 -0.0273963 -0.0210709 -0.0272309 0.142163 0.0993816 0.00675324 0.131048 -0.107146 0.0586456 -0.00199147 -0.0282659 0.026107 0.0623886 -0.0228263 -0.0409574 0.0607182 0.0558809 -0.000219008
internal_weight=0 2677.15 2352.13 1989.3 1649.68 1316.39 1054.53 1208.3 261.86 708.612 1130.48 325.021 167.835 540.777 339.623 333.291 1067.73 180.069 761.927 448.337 269.925 362.828 345.915 270.672 81.7908 156.915 85.5415 71.3735 278.32 133.165 117.867 70.69 60.3285 67.5953 166.451 96.1304 70.3202 50.549 55.2611 97.1449 67.4197 37.932 32.7458 113.01 283.901 62.6195 9.3113 52.7476 41.1206 34.6732 15.8866 60.807 278.311 181.556 96.7547 174.852 168.421 97.4669 45.171 13.0268 305.802 20.8885 77.8205 72.2007 28.7108 42.833 59.2129 42.7885 63.8126 20.8081 43.0045 36.3953 16.2631 83.7279 17.8289 140.046 128.974 18.8881 145.155 49.2641 39.8736 20.4123 313.589 162.011 148.303 70.9542 13.6182 62.752 178.412 101.908 61.5235 40.3847 12.5308 37.3138 18.6259 16.382 151.579 53.3082 40.2577 109.388 199.577 294.461 133.65 42.449 18.9079 15.6125 11.8204 22.4206 35.8092 288.048 28.719
internal_count=12029 8476 7498 6070 4878 3856 3036 3553 820 1963 3339 978 479 1484 1192 1022 3133 566 2245 1302 770 1428 1073 821 254 438 229 209 851 387 462 211 183 222 521 299 222 159 183 268 203 110 101 332 842 201 33 157 136 116 52 181 823 528 295 506 485 275 133 39 888 61 214 196 96 117 158 140 204 68 136 115 51 256 52 459 428 59 464 138 113 58 943 479 441 210 45 206 532 300 186 114 34 121 52 47 464 168 118 329 733 853 426 162 72 59 36 59 102 833 86
is_linear=0
shrinkage=0.165648


Tree=8
num_leaves=112
num_cat=0
split_feature=6 8 4 5 6 6 1 1 7 9 4 8 6 8 7 1 1 5 6 8 1 8 4 1 4 9 4 4 5 6 1 4 1 4 4 1 8 5 5 6 1 4 6 4 5 6 6 5 6 1 4 9 1 7 8 1 9 9 1 5 9 1 9 7 5 1 4 8 6 5 5 4 5 4 8 1 8 7 7 4 6 9 1 1 4 4 6 6 7 5 5 5 5 6 8 7 1 4 9 8 9 6 7 7 4 4 5 1 8 4 4
split_gain=787.656 275.624 115.839 85.8108 36.0822 29.5529 26.7665 26.6353 26.3875 26.4648 25.5303 22.531 46.2038 20.9294 20.4647 16.2216 14.8889 13.9686 13.0878 12.4687 12.1235 11.4832 10.8067 10.4721 16.5929 14.1151 10.4305 9.73582 9.4104 8.19466 22.6944 7.99796 7.90377 20.4162 7.72335 7.34001 7.32401 7.06147 6.87235 6.23976 6.09382 8.39251 8.42814 6.05407 5.99057 11.7752 11.3282 21.736 18.9751 8.83515 16.2872 10.0981 9.95274 9.75591 8.59763 8.39772 8.08202 7.49593 5.90623 5.99497 5.90297 5.89888 8.29579 5.89785 5.84338 5.81973 11.1829 6.67534 5.81519 7.65864 6.06742 5.62192 5.27937 5.20173 5.18575 4.98951 4.9693 4.96014 4.81792 4.81705 4.70422 4.57671 6.29797 4.54078 4.47161 4.36448 4.23598 4.15879 4.1556 4.00768 3.99531 3.96161 3.89773 3.88559 6.09048 4.15392 3.88225 3.84138 4.77363 3.77036 3.70158 3.54759 3.38213 3.38105 3.73435 3.34353 3.2653 3.12924 3.09601 3.05177 4.88661
threshold=0.75008623863685886 0.64370263442524311 1.2458407470232347 0.34863439863369677 -0.80467535304013715 0.64482185998669461 0.95044332091718242 0.082976458068189665 -1.2161228300913931 0.0030146829777476006 0.19853697414605773 0.40759588611388803 0.35997437624374323 0.31362266696523061 -0.74567907607077888 -0.044355952096437792 -0.0077356181539781493 -0.77708327698227453 0.83394093082197462 1.0123974204393911 -0.049225902856662347 -0.32154039736480117 -0.48221208986968422 0.18295374141756277 -0.60551371643581253 -0.29457879589609243 -0.53879509528776681 1.407243163080709 0.25910038992406953 0.55888027001694118 -0.27882423490274499 0.36299241421759648 1.0000000180025095e-35 -0.51977114162448357 0.59126139441286718 0.49859547624384709 -1.4247544991300245 0.081044958264880271 0.014543555632780753 0.457878584653934 -0.65529173133014107 -0.22882437058075158 -0.50150598129379664 0.028912002782263854 -0.31305774245999435 -0.068784665300901882 -0.14912212425979382 0.15637182328384877 0.11914365370768897 -0.099859216420771432 -0.28829251861465005 -0.52644480579353858 -0.6276064660368752 -0.36007630927571804 0.10345020641149076 -0.25331066849642098 0.78242628818287507 0.59856110849075261 -2.1016888505139337 0.50137690730387585 -1.1544858102723221 -0.18704061885819911 -0.020593031702800645 -0.24225011942845232 0.52467959459919966 -0.39699420376110223 -0.028405335785940598 0.049413535242197257 -0.31576123351365754 0.19037517393639489 -0.68115370674437326 0.51289013280288642 0.071237849732926961 0.5011904063027155 1.0393639963782826 1.4805033637782283 0.4917453806539091 -0.17006338676646968 -0.017154617499564546 0.48015264629693505 0.13399194235772943 0.80173046678233673 0.98694064960322714 0.39958853706075831 0.78955832441759366 1.9573241979725957 -0.40129023715556461 -0.47750090953640872 0.24596131423663789 -0.75495056818835604 -0.69989352220435841 0.87526146554923667 0.30238588195511157 -0.19411827706220747 0.44642948295596796 0.58599209584814649 -0.61375690705383135 -0.25176425390349116 0.60603897108577121 0.40759588611388803 1.5310582144811795 0.42156263086500401 0.39752748945617994 -0.78854748569122879 0.30515952157233006 -0.48221208986968422 0.10239386580621561 -0.40931680362504358 0.42317791895515794 1.6158798195272823 1.3246129215536395
decision_type=2 2 2 2 2 2 2 2 2 2 2 2 2 2 2 2 2 2 2 2 2 2 2 2 2 2 2 2 2 2 2 2 2 2 2 2 2 2 2 2 2 2 2 2 2 2 2 2 2 2 2 2 2 2 2 2 2 2 2 2 2 2 2 2 2 2 2 2 2 2 2 2 2 2 2 2 2 2 2 2 2 2 2 2 2 2 2 2 2 2 2 2 2 2 2 2 2 2 2 2 2 2 2 2 2 2 2 2 2 2 2
left_child=1 2 4 19 13 6 8 14 9 40 28 29 32 34 27 22 -5 -9 37 23 26 84 91 24 25 107 -15 -4 97 44 -31 -32 33 -13 65 -33 86 -2 63 -18 -6 -42 -43 -39 45 49 54 48 56 51 53 71 -53 105 -46 -56 60 -55 -49 83 -48 -27 -63 79 108 66 67 -1 70 -70 -25 88 -29 -14 -41 92 -45 -68 -30 -20 -11 109 -83 -60 -12 -74 -19 -54 -10 -36 -21 -7 -71 -34 -95 -96 -44 98 -8 101 -76 -99 -23 104 -52 -51 -50 -3 -17 110 -38
