tree
version=v4
num_class=3
num_tree_per_iteration=3
label_index=0
max_feature_idx=9
objective=multiclass num_class:3
feature_names=orbital_period stellar_radius rate_of_ascension declination transit_duration transit_depth planet_radius planet_temperature insolation_flux stellar_temperature
feature_infos=[-1.8475740069981239:5.2144707781146895] [-3.8825310562215214:9.1802482863304196] [-3.0814846301882741:0.74956521272555798] [-5.0334553772203083:1.8219868774490464] [-4.1965188390169565:4.5306128241947254] [-2.0433526177249779:2.252394834352629] [-2.0437578532722722:5.3185329251594027] [-4.3931667072231804:3.0413854305696626] [-3.6040747380565059:3.1433614566914807] [-4.9104296899544497:13.670828444284954]
tree_sizes=11634 11669 11670 11829 11811 11813 11851 11809 11852 11844 11862 11885 11885 11864 11864 11925 11881 11858 11856 11859 11906 11880 11895 11893 11891 11899 11888 11907 11855 11885 11873 11900 11884 11892 11885 11908 11943 11889 11891 11897 11885 11888 11919 11897 11887 11886 11900 11882 11901 11847 11910 11923 11904 11873 11927 11856 11895 11892 11929 11876 11928 11914 11849 11932 11881 11870 11900 11919 11901 11904 11859 11874 11937 11791 11922 11865 11891 11908 11935 11901 11853 11914 11922 11858

Tree=0
num_leaves=112
num_cat=0
split_feature=6 0 0 6 5 2 4 9 5 0 2 5 0 4 6 9 6 4 9 3 5 0 3 4 6 6 5 6 2 2 4 4 0 5 6 3 9 2 5 4 3 0 9 4 9 4 0 9 3 2 0 4 2 0 3 4 4 3 2 5 3 9 6 4 3 3 6 0 6 0 0 3 3 4 3 3 0 3 5 6 2 6 6 5 4 9 6 0 4 5 6 2 4 9 4 9 9 2 2 0 6 3 3 2 4 4 4 6 3 2 6
split_gain=816.968 330.984 345.218 152.421 131.556 180.648 61.4966 60.3507 55.0515 53.4478 49.1762 48.897 62.4485 33.1913 29.7273 27.7791 30.3535 26.4316 26.0864 24.1424 22.7926 20.7217 19.9527 19.1281 17.8192 17.8114 17.6931 16.6389 15.672 21.1375 14.855 14.7721 14.2491 14.2067 13.5143 13.0712 12.8735 12.8558 18.5969 18.1335 12.7651 11.7399 19.0227 11.5762 12.7336 11.2264 11.2056 11.2604 11.1736 10.6225 10.4659 21.3362 10.0791 9.93778 11.9621 9.5852 9.34988 9.31378 9.08695 9.08318 8.84771 9.78005 10.5376 8.40631 8.34802 8.32238 9.43784 9.76285 8.25766 8.23939 11.7995 8.2174 8.14343 8.03913 7.86866 7.86671 7.84937 7.75603 7.46643 7.48177 7.39476 9.7555 7.39133 7.25641 7.19721 7.09008 6.93717 6.93362 6.92789 6.78085 8.34719 13.5723 8.83233 6.62753 7.04432 6.51087 6.58985 7.26481 7.04985 6.44175 6.41263 7.83649 9.43012 6.54363 6.40296 6.3946 6.3813 6.3136 6.26702 6.2541 6.22132
threshold=-0.013252230864061897 1.735327876846837 -0.42652543721003261 0.68132533775383064 -0.59510258408937544 -0.11109185477550913 -0.30477874038049274 0.15922287199607768 0.5116664217969763 -0.25304261428934122 0.083316932208742908 -0.2761283655943349 1.111135965798552 0.82879988664171611 -0.59235692122542971 0.49191808713437646 -0.6900642186316791 0.6136963148584208 -2.5607668300076729 -2.9649118913805235 -0.56983921246471536 0.20201235824269012 0.38800177292442478 0.9668335334823871 -0.34627632831295779 -0.14622179217523548 -0.86486644442138383 0.14626974912113377 0.11840071825907052 -0.010516166519398249 1.7236375632713319 1.5169025903627007 -0.10739748705778474 0.82589069764192147 0.56023708229346381 -0.15662720727948681 0.6925953007819684 0.11840071825907052 -0.31793993184691954 0.93698389806744931 -1.3035011034129826 1.8916540275149887 -0.51214469209965141 -0.89726696393477678 -1.186142120987091 0.27767797624849094 1.4187909223081296 0.70834288150226643 -0.13601794946804482 0.060636910273199111 1.2647004992428033 0.27767797624849094 -2.9095908407447317 0.86436191603097845 -0.076826296349243289 -0.95272808677741949 -0.081519209350663438 -0.039412707362291542 -0.30569537395240104 -0.6716686436243241 -1.4548874949529644 0.85373706455588894 0.43328045435050816 -0.77611775189327237 -0.085385135273791782 -3.0217215684349568 0.77352162865466501 -0.041532271463113245 -0.28877454649440032 2.1103200189145706 0.6127408332704275 0.013760090399257902 0.10401658297477683 -0.62759947423207463 0.33159532118878693 1.1732305112929675 -1.1409197008548895 -0.19881933783779801 0.17061561527721122 0.52384640043128627 0.09081574248622927 -0.90263292446988397 0.48529980850789595 -0.039571730891040789 0.5720591991304621 0.15301728562278796 -0.57901777944160726 0.385481899454796 -0.73484606272120268 1.1184427014033231 0.5408050503894436 -2.0164321862106274 -0.62759947423207463 0.044961499844629403 0.25231039519352522 0.6194770827945052 -0.12398482917239469 -1.8624165345820329 -0.99982560175963042 1.111135965798552 0.47263694169610787 -0.023908353114345797 -1.4548874949529644 0.067467574558827417 0.07295527181244342 -1.0429617788202672 0.021065472213450603 -0.83400193305452197 0.094215856140263468 -1.3857354578147305 0.34492624239665942
decision_type=2 2 2 2 2 2 2 2 2 2 2 2 2 2 2 2 2 2 2 2 2 2 2 2 2 2 2 2 2 2 2 2 2 2 2 2 2 2 2 2 2 2 2 2 2 2 2 2 2 2 2 2 2 2 2 2 2 2 2 2 2 2 2 2 2 2 2 2 2 2 2 2 2 2 2 2 2 2 2 2 2 2 2 2 2 2 2 2 2 2 2 2 2 2 2 2 2 2 2 2 2 2 2 2 2 2 2 2 2 2 2
left_child=1 2 6 8 15 18 7 20 9 -2 11 12 14 27 21 16 23 -14 -6 52 76 72 30 49 74 58 86 46 29 32 43 53 60 100 82 65 57 38 71 -40 106 42 -3 44 -13 -34 47 48 -11 64 77 -52 -10 54 -28 -16 -23 85 75 -55 61 62 -21 -56 -4 -5 67 -67 -24 70 -59 -12 -7 -66 -22 95 -1 -45 -29 104 81 -78 -35 -39 -58 -15 -18 -27 -64 90 -62 -92 -93 94 -75 96 -20 -98 -99 -54 103 102 -102 -31 -80 -76 -30 -95 -96 -47 -72
right_child=3 41 4 35 5 10 -8 -9 19 13 37 22 17 36 55 -17 26 -19 25 28 24 56 68 -25 -26 87 31 78 40 33 -32 -33 45 34 -36 -37 -38 83 39 -41 -42 -43 -44 50 -46 109 -48 -49 -50 -51 51 -53 99 59 63 -57 84 69 -60 -61 89 -63 88 -65 73 66 -68 -69 -70 -71 110 -73 -74 93 105 -77 80 -79 79 -81 -82 -83 -84 -85 -86 -87 -88 -89 -90 -91 91 92 -94 107 108 -97 97 98 -100 -101 101 -103 -104 -105 -106 -107 -108 -109 -110 -111 -112
leaf_value=-1.2464369646451376 -1.2437458142320239 -0.93016998370631643 -1.1632590420170712 -1.2435426661444617 -0.94931726747903844 -0.97967900410730158 -1.2350923934020575 -1.2243137964369024 -0.95417989558995442 -1.1459412442327104 -1.1541017063791108 -0.78782490605658917 -1.2530945721046309 -1.0253949808713212 -1.0225735327370038 -1.1593511330007231 -1.0064074735245638 -0.99762810284703718 -1.0692355147567512 -1.1486070156530273 -0.96445334064179289 -1.1744482634880138 -0.95567506255237444 -1.2642600541686055 -1.1177618969196794 -1.2458653014733423 -1.0630336736799799 -1.2363706770817036 -1.097168201291848 -0.84667234784024925 -1.104668500643128 -1.1936271135160654 -1.174150435602086 -1.1502552206030794 -1.2642600541686055 -1.2574149061166395 -1.1793876974815358 -1.1339932543570124 -0.85899500979287957 -1.1794773795171398 -1.1891533905377834 -1.2427479725981705 -1.2045594540522897 -1.043577576158389 -1.0766226240108792 -1.1346427024249028 -1.2642600541686055 -1.2642600541686055 -1.0012206482854178 -1.1575478927852101 -1.1500244650992211 -0.84947694217783887 -1.1794431384842803 -1.1981240561848416 -1.1357556368500759 -0.86692132020835899 -0.96171283483724568 -1.100431402368373 -1.2071100085931348 -0.94881792623022432 -1.1394032687176541 -1.2265465776306015 -1.1469104543293309 -0.87542845135843639 -1.167970438162224 -1.0218746171771118 -1.2466605063237897 -1.2642600541686053 -1.2642600541686055 -1.1513281705916505 -0.84288935968825918 -0.99490220292969489 -0.85294671785259268 -0.93872059001003749 -1.021767865213054 -1.1973590206560907 -1.1761348829038312 -0.81601462242044576 -1.1968104662344115 -1.2390286341982129 -1.2642600541686055 -1.0230517037301976 -0.91038696214030523 -1.0020347210725162 -1.1607761883484065 -1.2343683643572811 -1.2192708732164821 -1.093045135652259 -0.95665505569941423 -0.89460936695855098 -1.1360649277787087 -1.2001644241138316 -0.91778043655060282 -1.1639933631413715 -0.97939398651124621 -1.2229639952292561 -1.0569211511522307 -0.86853836122800621 -1.0468764583258299 -0.98871693011685036 -0.93657749037909255 -0.93699485724848397 -1.233001684460997 -1.0167401383933983 -1.1275396615439115 -1.2642600541686055 -0.89196033977156275 -1.0109954869953921 -1.2642600541686055 -1.0123119314256694 -1.0189603643311802
leaf_weight=12.899213969707487 235.34777635335922 8.9459407925605756 13.657517313957213 33.291433036327362 42.339191734790802 28.275370359420776 126.11438247561455 74.819273680448532 5.9314687252044669 23.3170545399189 12.52218374609947 6.7557018995285061 20.590588390827179 10.587325572967531 11.414977252483366 61.360917627811432 7.1328770816326168 24.143046766519547 82.519201040267944 11.927253186702726 95.855027168989182 15.359042078256605 5.9602080881595612 15.031974136829374 34.525243818759918 24.996676951646805 12.567647904157637 65.947358995676041 16.510955482721332 18.718776017427448 5.7623060941696158 6.5098194479942313 91.849666714668274 6.049844682216647 9.5537881255149824 503.795922935009 16.252913504838943 22.943297863006592 45.383404970169067 5.4233685433864585 73.464750289916992 170.99514585733414 30.807575792074203 4.1671427190303794 11.027301996946333 23.058255314826965 10.217744648456572 7.9586247503757468 39.331266760826111 28.007585555315018 8.0501653552055341 33.256490737199783 165.34596258401871 6.9524571299552944 3.5781469643115988 221.60732203722 19.757246464490894 9.8232323825359327 12.068433701992033 9.4747965633869153 75.494957089424133 6.0960660874843589 5.8774085044860831 69.769672930240631 9.5505145788192731 20.867114216089249 13.06305408477783 5.8346056044101742 3.9606446623802167 6.1073234081268302 20.733160227537159 30.726924777030945 27.388580501079559 39.548554807901382 9.4808763265609723 10.309430211782454 18.261830240488049 297.99329718947411 61.353513687849045 36.447230577468872 6.8434344828128806 30.500283420085911 8.4458243846893293 22.795280337333679 6.6649185419082633 7.6912294626235953 10.220405906438826 12.085013538599013 49.328372001647949 4.3536424338817588 25.107458651065826 3.5868879854679134 19.906265795230865 11.464617162942885 4.8423565626144391 5.5672103166580191 25.503117680549622 16.848233580589298 9.5183567106723768 5.006196677684783 4.9112375676631927 15.455002993345259 7.3549531698226946 9.2882968485355359 90.804359257221222 4.3543996810913077 5.5577120482921591 20.878516495227814 3.7680651843547821 22.812617421150208 7.49789273738861
leaf_count=42 790 23 44 113 113 77 405 240 16 75 39 15 70 30 32 194 20 67 249 38 255 50 16 50 105 87 37 219 51 44 17 21 302 19 32 1642 53 73 109 17 245 570 101 12 33 73 35 27 108 89 25 79 548 23 11 535 53 30 41 25 242 21 19 171 31 59 43 20 14 19 49 84 65 104 27 35 58 681 205 125 23 85 21 64 21 26 34 37 133 11 80 12 51 37 13 19 76 41 28 14 13 40 25 26 287 15 14 59 13 64 21
internal_value=-1.09861 -1.02704 -1.00499 -1.17672 -0.967327 -0.940399 -1.13865 -1.09635 -1.14608 -1.18071 -0.905973 -0.889205 -0.931538 -1.14489 -0.906674 -1.05864 -1.036 -1.11522 -1.06741 -1.11354 -1.05135 -0.983502 -0.847066 -1.08723 -1.01398 -1.09248 -0.976438 -1.1676 -1.09542 -1.08162 -0.8408 -0.951674 -1.09966 -1.0049 -1.11131 -1.24792 -1.04807 -0.996193 -0.961163 -0.893205 -1.15597 -1.2239 -1.14281 -0.836591 -0.966909 -1.14073 -1.10212 -1.07866 -1.05508 -1.06703 -0.829844 -0.90805 -1.16645 -0.936284 -0.913713 -0.874546 -1.07167 -1.01388 -1.06882 -1.05433 -1.07161 -1.02566 -1.00741 -0.888128 -1.04258 -1.18244 -1.13128 -1.07484 -1.07887 -0.972726 -0.944062 -1.041 -0.917322 -1.02428 -0.981309 -1.05771 -1.13002 -0.819153 -1.18839 -1.17162 -1.10301 -1.08038 -1.0105 -1.06823 -1.01193 -1.11333 -1.13178 -1.19606 -0.97691 -1.0978 -1.10493 -1.05139 -0.960894 -1.00723 -0.968281 -1.04743 -1.04015 -0.993888 -0.932919 -1.17384 -0.958977 -1.01546 -1.11432 -0.903074 -1.15547 -1.09809 -1.04549 -1.06523 -1.10406 -1.0738 -0.889652
internal_weight=0 2092.4 1881.65 1917.26 1468 1133.68 413.654 287.54 1340.41 649.418 891.929 752.134 375.201 414.07 330.467 334.316 272.956 44.7336 241.755 690.994 212.72 97.4452 376.933 146.75 144.216 199.416 126.206 335.377 514.71 419.177 367.012 108.853 339.399 79.7777 24.0495 576.852 78.6931 139.794 94.0559 50.8068 95.5334 210.749 39.7535 361.25 17.783 137.721 80.8247 70.6069 62.6483 131.718 343.467 41.3067 176.284 102.343 85.9155 233.022 41.7812 62.4402 162.334 16.4273 201.678 73.2291 67.133 73.3478 103.71 73.0562 39.7648 26.7017 9.92085 44.1616 38.0543 43.2491 55.664 90.0526 109.69 150.266 68.5048 302.16 254.552 188.605 55.6055 48.7621 14.4957 45.7386 26.4222 18.2786 17.3533 37.0817 55.2058 128.449 124.096 48.6006 23.4932 80.5021 48.159 139.956 134.389 51.8697 26.3666 170.352 55.7283 27.7212 12.2662 28.0071 152.158 13.8353 22.0687 32.3431 8.61042 45.8709 28.2311
internal_count=12029 5899 5205 6130 3950 2974 1255 850 4253 2099 2248 1862 970 1309 833 976 782 137 726 2154 610 266 892 440 402 613 342 1081 1576 1266 862 288 1046 220 72 1877 228 386 249 126 310 694 124 845 48 439 245 210 183 390 797 104 578 267 219 567 124 175 489 48 607 211 190 182 301 235 122 79 30 119 100 123 142 257 297 448 208 693 836 617 166 143 40 137 74 56 54 124 152 396 385 143 63 226 130 413 394 145 69 562 148 78 38 70 492 42 65 96 26 137 70
is_linear=0
shrinkage=1


Tree=1
num_leaves=112
num_cat=0
split_feature=2 2 3 6 0 1 3 6 0 7 7 1 3 0 6 6 9 3 2 6 3 1 6 1 0 7 0 6 1 6 2 7 2 3 7 0 7 2 3 1 9 7 1 3 6 0 9 6 3 6 3 2 2 9 7 6 6 1 0 6 9 9 7 0 1 1 3 9 1 9 9 6 0 6 9 3 3 9 9 0 6 3 7 3 3 3 2 2 1 2 3 6 3 2 1 6 2 0 6 9 3 9 7 0 9 7 1 1 7 9 3
split_gain=1027.86 377.116 104.96 83.9149 73.1945 54.127 40.5229 49.6624 55.904 38.944 37.2693 27.6983 25.716 16.3587 14.7674 13.7932 14.4949 13.6246 15.0667 15.0166 13.4766 13.088 11.9028 9.59514 9.4954 9.47491 9.19514 12.358 8.98937 9.45388 8.81095 14.8941 8.79108 8.76358 8.72434 8.61663 8.44846 8.86564 8.30375 8.08075 7.93967 8.22555 7.65598 7.48404 11.1378 9.8778 8.9774 7.44215 7.22195 7.20305 7.19528 7.25645 7.05654 7.0464 6.89783 6.82795 6.52591 6.51877 6.47785 10.4115 6.47001 6.38146 6.30289 6.20775 5.98592 5.94793 8.52349 6.7329 5.83342 5.56255 5.39137 5.20017 5.13997 4.85144 4.8715 4.8067 11.0395 4.75921 4.75534 6.35668 6.39908 4.71819 4.66898 4.59072 4.57032 4.50229 4.4965 10.8891 4.45492 6.12914 4.25708 4.24401 4.21988 6.69283 6.68293 12.583 5.55151 4.43353 4.27299 6.80541 4.21615 4.48115 5.06513 4.21095 4.16615 4.16427 4.1006 5.4067 4.06804 4.05281 4.03395
threshold=-0.11109185477550913 0.12963147947909756 -0.28534435010300802 0.75731976939314372 1.0810885495668152 -1.1689999103022439 0.38800177292442478 -0.56409412057563502 -0.18880015566177114 0.97414377511617645 0.69654440133055584 -0.6856297149831202 -1.3035011034129826 -0.69377991693517627 0.82147485767597483 -0.7962739557710562 0.36147864913598199 -3.4618180752943077 -2.0913607775754453 0.54551299780459928 0.26536055705409817 0.67137508154983394 0.29176002855314814 -0.59223235653550699 -0.45112696716704287 1.1238884160708773 0.035360766844255202 -0.43507390016657399 1.3817012525876375 -0.36096023260125337 -1.4461806593730098 0.15069219470081277 -2.1703098650531407 -3.3671182335916798 0.26444440574173189 -0.6281438292883974 1.2698895207069589 -1.5049234566692584 0.25305706892761043 1.0834611210597076 -1.9541830145573376 -0.39567861999918352 0.10033558632989141 1.1732305112929675 -0.14622179217523548 1.0160839846508356 -0.14058622900754561 0.26787859371120659 -3.8705144542695158 -0.20193358728477448 -3.417502662525286 -1.9944222478477338 -2.9920715631199899 0.5705652771183527 0.052014094466261908 -0.6900642186316791 0.65524473617912138 0.017255952555138853 1.4558729365465168 -0.44223102761499417 -0.44140652047048584 -3.0126677781723714 0.30083523580983335 -0.41830250278347902 -0.15701751952032464 -0.32189261132201374 0.90994447699660508 -0.84344894462176023 0.23898380064821872 0.63239054249795823 -1.1584342083796269 0.35248767113030127 0.63625069798537093 0.64788915004590864 0.20391748198150769 -2.0211207521518029 -2.9184575127499719 0.16569461994538054 0.20391748198150769 -0.56578073931391881 0.37344755616406172 -3.9527822095875926 0.34400171690357034 -3.1225453286783531 -1.7307376884828802 0.033667864773450955 -1.3140555506755256 -1.9485449284583962 1.6700222709638033 0.041801495763399407 0.80311366732649969 0.31923540233595299 -1.547081561491918 -1.6558413850372584 0.13750595422864412 0.4561232020681783 -2.2783980277897427 0.24328897357116855 0.45145756461542813 0.0030146829777476006 0.22739734920961582 0.68043519925827378 -1.786620424346707 -0.027226313809895198 0.75133881121329782 -1.8326440818249776 -0.17259314708882323 0.77579778375336839 0.41991228664272878 -0.88044819095455906 -2.0973769084406695
decision_type=2 2 2 2 2 2 2 2 2 2 2 2 2 2 2 2 2 2 2 2 2 2 2 2 2 2 2 2 2 2 2 2 2 2 2 2 2 2 2 2 2 2 2 2 2 2 2 2 2 2 2 2 2 2 2 2 2 2 2 2 2 2 2 2 2 2 2 2 2 2 2 2 2 2 2 2 2 2 2 2 2 2 2 2 2 2 2 2 2 2 2 2 2 2 2 2 2 2 2 2 2 2 2 2 2 2 2 2 2 2 2
left_child=5 2 23 4 6 38 7 8 35 13 11 47 33 22 17 72 40 18 32 43 28 -9 53 -2 -8 78 -23 -28 29 70 42 84 62 -13 60 -4 37 -11 -1 -29 -17 109 -21 44 45 46 49 -3 71 -19 -24 -52 -44 -7 65 -37 90 -18 59 -22 91 -49 -15 -25 -26 67 -67 -46 -62 110 -6 86 -10 -54 -75 76 -65 -64 -12 -80 -81 -73 -53 -33 -32 -43 87 -20 89 -30 -14 -35 94 98 95 -56 -96 -98 99 -94 101 102 -72 -66 -39 -60 -92 -108 -100 -42 -48
right_child=1 10 3 -5 20 9 24 21 15 36 25 12 56 14 -16 16 57 19 48 30 58 26 50 63 64 -27 27 39 88 -31 31 83 -34 34 -36 55 -38 104 -40 -41 41 85 52 -45 54 -47 69 61 -50 -51 51 82 73 -55 92 -57 -58 -59 105 -61 68 -63 77 75 103 66 -68 -69 -70 -71 100 81 -74 74 -76 -77 -78 -79 79 80 -82 -83 -84 -85 -86 -87 -88 -89 -90 -91 106 -93 93 -95 96 -97 97 -99 108 -101 -102 -103 -104 -105 -106 -107 107 -109 -110 -111 -112
leaf_value=-1.127541072852164 -1.1349594505191287 -1.1569732831414543 -1.2218802481540931 -1.2435690851361501 -1.1940153194595995 -1.0978202023027548 -1.1676185200978995 -1.2191054914004322 -1.0211634206716294 -1.0830568329194719 -1.1569258842268288 -0.90398685256525968 -0.84821300217207474 -0.92421713754595147 -1.1438161784018404 -1.2550728883279445 -0.91423698736560377 -0.94658050999086341 -0.85033403053407275 -1.0979523355389991 -0.91976008943582988 -1.2081473211457257 -0.8199769503786023 -1.0336090841323091 -1.0568877909455512 -1.2158618487418258 -0.93832731387744162 -1.2056655584451881 -0.82439947135464764 -1.149702671248567 -0.76731678680298321 -0.9956412066977246 -1.1217545676205651 -1.1491947822493536 -1.1322232924824442 -1.1388818984620406 -1.155564633983547 -1.0469629801464801 -0.99391914876151111 -1.094132619277685 -1.1289323637580966 -1.1158666995807882 -1.1526651583724636 -0.86771666608160625 -0.91506927701206675 -0.83421782031549818 -1.1595796133658656 -0.84460307476047369 -0.84365373412085609 -1.1019338320901853 -0.86765372991837553 -0.89087817034570027 -0.92003565617838623 -0.87473611436752696 -0.93402395137005245 -1.2161616806231696 -1.0054039235310823 -1.0681884791475438 -0.84921374596223931 -1.1734806779547369 -0.8638311480036891 -1.0893818577774683 -1.1676932116669834 -0.87484017474397402 -0.79329260113297573 -0.87432923589369382 -1.0400334891192964 -1.0301016815384401 -1.0417081402493253 -0.89748609742553953 -1.027996301965892 -0.86294534185882377 -1.1353313597462555 -0.85248370606875778 -1.0234064281320117 -0.84109137731736339 -1.1264599048438817 -0.95970393639013152 -0.91414282848629269 -1.2368084884506232 -1.0040182591384128 -0.99478202593971088 -1.1006031364748698 -1.1484907870031669 -0.97798906788539997 -1.1843032643009705 -0.89777412920978827 -1.1006031364748698 -1.0760216115685108 -1.077109053095231 -1.0556736342122535 -0.96217718384667816 -0.83188104062350288 -0.98921318253529422 -1.0556155816324626 -1.1480232711622549 -0.92138704663207605 -1.0980231414772954 -0.90205429414635629 -0.97997076814430895 -0.97289052721978031 -0.97790158844681263 -1.1160046131756378 -0.96536722340179482 -0.8322933993688223 -1.0152319530777187 -0.82614965158108133 -1.0280864245038683 -0.78033649296578123 -1.039517631244737 -1.0465719079176279
leaf_weight=64.855529546737671 7.500553995370864 18.079138547182087 179.80416858196259 448.63203245401382 13.806391686201094 43.285442143678665 8.6016807258129102 757.8640858232975 67.251020133495331 29.054507106542587 9.0355773866176587 19.612547844648361 94.573984295129776 46.855427920818329 10.352700442075728 15.080489069223402 9.8955318927764875 64.109721004962921 7.3636941909790066 12.496105641126631 6.0325075984001186 74.072294801473618 8.7316039204597455 13.214879631996153 12.694007635116579 14.313200145959852 8.5015440583229047 35.467485219240189 5.3546324968337995 197.13347890973091 4.1819635033607474 6.7050601840019217 9.7221935093402845 8.428487300872801 16.788850843906403 87.297352135181427 26.767260134220123 3.8255439102649671 15.887140601873396 35.832256317138672 24.570863664150238 44.814920246601105 4.9660550355911246 33.541023910045624 45.627941459417343 10.309430211782454 11.91167515516281 4.9521364569664001 71.149811118841171 9.3885784745216352 8.3839253485202772 3.7105864584446016 57.153455853462219 4.2681815922260276 14.683828234672548 48.968243986368179 9.6340714097022992 31.797553092241287 4.6733388900756827 16.788093596696854 13.493822157382967 7.1302158236503583 5.7388892471790296 14.942627459764479 5.8834882676601437 105.17195490002632 9.2682985067367536 20.117084562778473 8.0929682552814466 5.2884127497673026 21.697037637233734 50.403833717107773 12.895183175802229 5.3833718597888938 30.487267047166824 18.661954939365391 7.0379179716110221 6.3687838912010193 9.8928706347942335 5.0469506084919002 9.0503981709480268 8.7401999831199628 13.545076161622999 27.525195747613907 8.7114606201648694 64.112436503171921 17.011829137802124 13.545076161622999 26.496591299772263 5.1820513606071472 5.3137336075305965 5.5036518275737754 11.855855882167814 37.275271773338318 11.952574044466017 15.495144635438917 60.611322849988937 4.1671427190303794 21.037936300039291 30.215306490659714 8.5590227842330915 8.7087993621826154 103.73090836405754 11.588315635919569 7.056157261133194 36.719046175479889 11.700756788253786 5.2796717286109915 11.738237172365187 32.056352317333221 31.822261661291122
leaf_count=174 20 49 555 1459 40 133 25 1918 206 95 26 64 327 151 34 34 33 199 26 38 19 225 30 42 37 46 28 90 19 570 15 21 27 21 46 263 89 13 48 106 66 126 14 114 146 35 31 17 247 25 29 13 186 15 49 124 32 96 16 42 45 21 15 51 21 353 27 58 24 18 73 173 37 19 94 65 19 20 34 16 29 29 41 74 29 162 57 41 87 17 15 17 41 114 35 40 199 12 68 99 28 30 328 38 25 118 41 17 42 98 91
internal_value=-1.09861 -1.15342 -1.17344 -1.17875 -1.16439 -0.970267 -1.18135 -1.18558 -1.14935 -0.960816 -0.969515 -0.941811 -0.919329 -0.953037 -0.947036 -1.09845 -1.11969 -0.944914 -0.910437 -0.956208 -1.10588 -1.21016 -1.02412 -0.959429 -1.0141 -1.10329 -1.16612 -1.1271 -1.11744 -1.12557 -1.00142 -1.0614 -0.975812 -0.998418 -1.03382 -1.19807 -1.08356 -1.03529 -1.10125 -1.14961 -1.14001 -1.12953 -0.975847 -0.943608 -0.948392 -0.989942 -1.00304 -1.08971 -0.883743 -0.966425 -0.94985 -0.994079 -0.960275 -1.0778 -0.934567 -1.16665 -0.874365 -1.03165 -1.03555 -1.10641 -0.987315 -0.989056 -0.951748 -0.934984 -0.970319 -0.910561 -0.887749 -0.950268 -0.930518 -1.05795 -1.09517 -0.913128 -1.03953 -0.950005 -0.997755 -0.902916 -0.955406 -1.05829 -1.0545 -1.01593 -1.08736 -0.882428 -1.0555 -1.11855 -0.909658 -1.15615 -0.961012 -1.01246 -1.03979 -0.948685 -0.863563 -1.07532 -0.954316 -0.931865 -0.977862 -1.0439 -0.951889 -0.93275 -0.903304 -0.938238 -1.08561 -1.0928 -1.10078 -0.907422 -0.907762 -0.996488 -0.928678 -0.888937 -0.858463 -1.07832 -1.07735
internal_weight=0 2809.84 2533.92 2472.56 2023.93 1199.82 1569.05 1530.28 618.544 1119.08 275.923 228.584 198.423 1052.38 970.451 302.474 222.328 960.099 236.9 723.199 454.882 911.738 81.9248 61.3579 38.7675 47.339 153.874 79.8013 390.669 353.636 157.61 47.1237 68.6853 71.9203 52.3078 316.07 66.7035 39.9362 80.7427 71.2997 180.635 165.555 110.486 565.589 532.048 132.83 122.521 30.1615 168.214 73.4983 34.3712 25.6396 97.9901 47.5536 399.218 136.266 126.502 41.6931 64.213 22.8206 35.5189 12.0824 58.9631 53.8574 30.1658 180.185 114.44 65.745 21.5868 49.0223 156.502 97.0646 80.1462 93.0241 35.8706 40.6425 21.9805 12.1077 33.0258 23.9902 14.0973 59.144 17.2557 34.2303 12.8934 108.927 37.9206 20.9088 37.0333 10.5367 116.868 13.9321 219.033 112.123 106.91 30.179 76.731 64.7785 74.8473 42.0712 142.696 134.137 125.428 17.4718 10.8817 41.3924 22.2942 16.9804 32.7762 56.6272 43.7339
internal_count=12029 8218 7331 7134 5675 3811 4288 4167 1800 3589 887 736 649 3367 3106 858 615 3072 786 2286 1387 2367 261 197 121 151 449 224 1192 1069 490 139 213 217 153 942 222 133 222 196 486 452 351 1796 1682 399 364 87 573 224 113 83 313 148 1283 387 432 129 195 61 107 38 186 177 96 584 380 204 69 140 499 326 243 299 113 135 70 35 105 79 45 202 54 95 44 288 124 67 123 36 400 38 699 364 335 89 246 211 250 140 459 431 401 59 38 134 73 58 110 164 122
is_linear=0
shrinkage=1


Tree=2
num_leaves=112
num_cat=0
split_feature=5 0 4 2 1 9 0 4 2 5 2 0 0 4 0 4 9 5 2 9 4 0 5 4 1 9 3 5 2 1 1 0 4 4 3 2 5 3 0 4 4 0 3 3 0 1 9 2 2 2 5 3 9 2 5 9 1 2 4 0 3 5 1 1 0 4 5 2 0 3 0 2 3 3 9 0 5 0 4 1 5 9 2 0 9 4 0 4 4 5 1 9 0 4 0 5 5 1 9 2 2 0 1 2 2 5 2 9 1 9 5
split_gain=774.435 690.295 298.626 171.016 132.893 116.533 95.1341 75.5929 68.7613 47.0865 42.205 41.6878 40.6182 45.2356 37.0894 36.3751 35.8018 34.2891 30.3978 29.9296 28.6312 24.4504 22.3769 32.248 24.9136 20.5394 18.4958 16.5397 14.0811 13.6003 13.3405 13.3162 19.2682 13.3002 12.9932 12.7224 34.5484 20.5666 13.9985 37.6091 19.6127 36.6218 12.5543 11.3922 11.3333 11.2854 10.912 10.8951 10.7019 10.4118 10.3522 10.3465 10.1623 10.1426 9.94547 9.90498 13.6474 9.89442 9.52738 9.45158 9.35187 8.88953 8.69421 8.32282 8.24588 12.5825 11.5558 7.9469 10.6286 7.49163 7.60792 7.39968 7.09467 9.88357 6.73363 6.85513 6.72357 6.44962 7.05285 7.11544 6.35987 9.94143 8.0979 6.35916 6.2439 6.16137 6.15138 6.13685 5.76391 5.73605 5.65234 7.69857 5.55148 5.42192 5.33218 5.2476 6.74621 6.20713 5.86686 5.83079 5.28397 5.01762 4.99744 5.92631 4.97285 5.79714 4.84507 4.79436 6.12683 8.43057 6.36029
threshold=1.0886376968887188 -0.56578073931391881 1.284284799630633 -0.031396101376654238 0.95044332091718242 -1.7315402258789272 1.8232249609091082 -0.3708670593059058 -0.031396101376654238 0.21444906900456487 0.12963147947909756 0.78569202667207449 -0.39234620291219607 -0.087009429898481136 2.0717481824313819 0.41340515640379988 -0.062257863534490247 0.88661704707808098 -0.11109185477550913 -0.23592250048051058 2.3757216566745929 0.32616404666955645 0.5339933600473149 -0.61445355602049834 -0.22333260303367747 0.73378482626011277 0.24878589442008128 0.73432031330561076 -0.0041304005925931987 0.89580983915761692 0.44984239408946736 -0.72684234115176583 -0.63830762107467443 -0.15236838708084197 -0.19881933783779801 0.12963147947909756 0.28883019202489074 -0.15028175957047754 -0.17785737207439736 0.15949495614896583 -0.51413894874807442 0.66100848806263623 -1.8359012895973066 -0.013197168273652098 -1.0080315902763561 0.8211630414520007 0.087227233844362054 0.097195014323565768 0.021666182786027454 -0.038973266569693493 0.65149048483399452 0.030739552476142202 -0.22081936366700963 0.10171815296129347 -0.1570484802727459 -0.19429063663301158 -0.017464717492116397 -0.08582054742044283 1.9717753335340571 -0.13867259761382747 0.16978840105909362 0.07437437196962722 -0.16877095726035576 1.7917178011661778 -0.38318462526166519 0.054705084135418858 0.35389556517980308 1.0000000180025095e-35 1.6734115817077833 -0.032867960188405689 0.20816670966555378 -0.093233481349246736 -0.19881933783779801 -0.067319738749922295 -1.2252710988871283 -0.21402070026394523 -0.34291577731519468 -0.75614851135295569 1.0000000180025095e-35 -0.026651054003267043 0.84939941753719495 0.16569461994538054 -0.84634587752592305 1.0592039101259243 -2.9068185273023737 -0.12783931722120381 1.2647004992428033 -0.36368845016925105 1.0109555088155131 -0.57723565431446699 -0.31207255762565617 -0.52644480579353858 -0.72684234115176583 -0.53265709810706985 0.75715191066266696 -0.85024981428447843 -0.23979882627211038 -0.32189261132201374 -0.51214469209965141 0.029880742860384755 0.0047234387136328507 1.2647004992428033 0.017255952555138853 0.072711817955724914 -1.3434275082411862 0.24706935796997267 0.079107165326007867 0.11652253869058236 -0.31207255762565617 -1.0113849278404214 -0.32286158086980182
decision_type=2 2 2 2 2 2 2 2 2 2 2 2 2 2 2 2 2 2 2 2 2 2 2 2 2 2 2 2 2 2 2 2 2 2 2 2 2 2 2 2 2 2 2 2 2 2 2 2 2 2 2 2 2 2 2 2 2 2 2 2 2 2 2 2 2 2 2 2 2 2 2 2 2 2 2 2 2 2 2 2 2 2 2 2 2 2 2 2 2 2 2 2 2 2 2 2 2 2 2 2 2 2 2 2 2 2 2 2 2 2 2
left_child=1 3 4 22 6 43 8 10 64 15 16 48 13 72 20 49 29 25 -8 -19 50 27 23 24 71 35 46 33 -17 31 -15 32 95 -11 -9 36 38 -38 39 54 41 52 -7 -2 -25 -12 88 51 58 89 60 -42 -40 -49 -14 90 83 -24 -4 -58 67 -16 -41 -35 65 -3 -67 68 -13 70 -30 -1 -10 -74 -51 -76 -70 -36 79 -79 -66 -82 -83 -57 -45 87 94 -27 -20 -6 91 -39 -18 -56 -71 -5 97 98 100 -98 -97 -43 -69 -104 105 -46 -23 108 109 -75 -111
right_child=5 2 11 7 9 42 18 34 12 21 45 14 17 30 61 28 92 19 26 -21 -22 106 57 44 -26 85 -28 -29 69 -31 -32 -33 -34 63 77 -37 37 55 40 62 47 101 -44 84 104 -47 -48 53 -50 74 -52 -53 -54 -55 93 56 59 -59 -60 -61 -62 -63 -64 -65 80 66 -68 102 76 86 -72 -73 73 107 75 -77 -78 78 -80 -81 81 82 -84 -85 -86 -87 -88 -89 -90 -91 -92 -93 -94 -95 -96 96 99 -99 -100 -101 -102 -103 103 -105 -106 -107 -108 -109 -110 110 -112
leaf_value=-1.2122571237622348 -1.2022269132194376 -1.1948579714380227 -1.0892814438631417 -0.86251410905022452 -1.1844536464342481 -1.0434906389040481 -1.236046241950614 -1.0873581314960497 -1.2186458003034679 -1.073281364052924 -1.1501781631746535 -1.2444606145548667 -1.1895677539995562 -0.80646248827785305 -0.92337208629263445 -1.2035496575430913 -0.823004895480003 -1.1598067514916077 -0.98349696289711253 -0.84113095341004018 -0.85968954821602406 -0.91679163248099826 -1.1864224330418094 -0.76731678335424836 -1.0264249265506833 -1.0747741882464974 -1.1719057103904571 -0.88885941754199083 -0.97467245745435416 -0.83100829247168595 -1.0872513596256586 -1.145229310420907 -0.77986334763526233 -1.21754779459602 -0.77370631506366361 -1.2251559001136296 -1.2468846030314893 -1.1266077922664022 -1.2304708398882489 -0.76731678335424847 -1.1789399848053219 -1.0035222798099708 -0.77397099412680659 -1.0992918774189242 -0.88263691236904529 -0.933766269279525 -0.89333255130625033 -0.97844719329019236 -0.81589276287940216 -0.76731678335424836 -0.85665239417627403 -1.22180176124513 -1.11163772565036 -1.1646278685837232 -1.1281107259507541 -0.87726754536261153 -1.2290294099425934 -0.9487601758561679 -0.81520935203468592 -1.0223373435811922 -1.199548107646403 -1.0907371604638687 -1.0124191636054154 -1.0036094924373469 -1.2240032723993868 -0.891736637399548 -1.181174184288837 -0.96401103146597278 -0.8658259686442118 -1.0141837046960229 -1.2464026275466018 -1.0687528533355537 -0.93462435181554115 -1.2162059055970886 -0.84826657418432627 -0.96812199808638133 -1.1470628817464616 -0.76731678335424858 -0.79563869096936624 -0.99056273590066102 -1.1990007277085735 -1.1341456175734066 -0.83763604170843353 -1.0840999501233683 -0.83254527572726122 -1.1007246822041472 -0.90794041043364115 -0.83951426218010128 -1.1266914940626771 -1.0062617030385501 -1.1995237930924012 -0.91472796872813067 -0.92862661375620503 -0.88956679986653064 -1.2279123238727558 -0.91876256019070346 -1.0292746108074637 -1.192808198138672 -0.90208879526180619 -0.79396348770105285 -1.1121359457703284 -0.84912914245142435 -1.1404802327602237 -0.94425112156475088 -1.0613566373685206 -1.0392219032105512 -1.1187771260908501 -1.0419454859641895 -1.2284413480245113 -1.1081966127394338 -0.87591917173715106
leaf_weight=38.204964131116867 19.709266006946567 94.689140945672989 8.7341202199459058 5.3257481753826132 5.7449690103530875 4.845775067806243 16.250397205352783 4.3195805549621573 16.752272665500641 26.407856911420822 32.151311427354813 15.437665909528734 71.613747745752335 20.030042082071308 86.078294992446899 27.690695315599442 72.040651321411133 16.094395905733109 33.748601585626602 16.253380835056305 13.976923853158949 14.514520645141603 49.085663497447968 9.5336448252201063 77.109761744737625 6.4523407220840454 13.238441437482832 5.699504852294921 4.2219601869583121 13.051651805639265 6.0437649190425864 16.691230475902557 11.042590111494063 91.607592284679413 108.41683942079544 132.8802318572998 17.591326624155045 16.653750091791153 45.229965329170227 7.9959601759910583 259.72931984066963 18.170289635658268 221.93810817599297 5.558469295501709 20.423942059278488 8.3236404061317426 36.257489770650864 10.694299250841139 43.629490107297897 6.4582755267620078 4.1243398189544669 381.54662618041039 35.047262579202652 32.212453216314316 5.6125295162200928 20.535481005907062 8.6758842468261737 5.3284094333648673 5.7857229411602011 20.21517226099968 30.701748877763748 9.688131630420683 7.8889864981174451 5.2770104706287375 914.91831159591675 7.7947846353054029 7.3576144278049469 14.76116034388542 4.219298928976059 13.444794535636907 8.5582655370235425 13.288938194513319 8.8089360296726209 9.5410163104534131 16.532178401947021 62.960724085569382 5.2161132395267469 5.5356647372245815 29.351109087467194 13.401234388351439 60.888460963964462 7.0474162399768829 3.9405013620853406 5.0897535085678092 4.2480382919311506 34.577544987201691 11.151612758636473 5.7569835782051069 9.998329818248747 36.134081214666367 14.164715290069578 6.5585571527481106 16.847699105739594 4.8945127725601179 4.2046231031417838 4.8657734096050218 6.5037396848201805 8.5556042790412885 7.1736310124397304 5.1993884444236755 19.087967425584793 8.4673372209072095 16.050835758447651 5.7309054732322684 11.298115789890291 9.5077116787433607 4.2019618451595298 14.436286330223082 17.066891163587574 7.8341690301895106 5.5095866322517413
leaf_count=108 58 293 27 17 17 16 56 13 51 90 99 40 186 65 285 85 233 50 114 53 45 48 157 31 253 21 46 19 13 43 17 46 36 298 353 423 53 45 119 26 674 60 722 18 68 28 119 33 140 21 13 960 101 87 15 65 23 16 19 58 89 29 23 18 2726 26 24 46 14 42 24 38 27 26 54 206 15 18 96 39 190 24 13 15 14 109 36 19 29 122 37 20 52 15 13 15 19 25 22 17 52 28 47 18 37 32 14 45 43 22 17
internal_value=-1.09861 -1.11764 -1.14929 -0.958193 -1.16481 -0.820025 -1.17799 -0.890744 -1.18485 -1.06835 -0.952352 -0.980746 -1.15933 -1.06101 -1.01571 -1.01536 -0.919058 -1.16794 -1.02698 -0.999686 -1.08123 -1.13907 -1.0701 -1.04188 -1.086 -1.17256 -0.990541 -1.16474 -1.11203 -0.988378 -0.871548 -1.0127 -0.980052 -1.17749 -0.803946 -1.177 -1.1706 -1.08279 -1.18141 -1.12236 -1.18872 -1.12275 -0.77973 -1.12964 -0.930083 -1.10567 -0.96053 -1.19903 -0.856888 -0.96298 -1.1134 -1.20444 -1.17859 -1.11822 -1.16749 -1.05138 -1.00635 -1.16315 -0.980072 -1.08441 -1.1249 -0.940303 -0.889043 -1.2059 -1.21548 -1.17243 -1.03228 -1.08758 -1.15981 -1.05109 -1.15664 -1.17522 -1.1228 -1.0974 -0.92998 -0.943196 -1.0213 -0.796134 -0.846489 -0.925303 -1.22028 -1.17283 -1.02781 -0.918349 -0.983741 -1.065 -1.00425 -0.963844 -1.01622 -1.03071 -1.11706 -1.06674 -0.843024 -1.01699 -1.0651 -1.01903 -1.03525 -1.06785 -1.0335 -0.924732 -1.07286 -0.954445 -1.03842 -1.08885 -0.96772 -0.932376 -0.962139 -1.12376 -1.15333 -1.09731 -1.01229
internal_weight=0 3753.37 3131.7 621.666 2867.57 256.3 2522.76 387.885 2413.26 344.811 226.861 264.135 1316.63 106.023 205.985 197.102 186.386 1210.6 109.493 32.3478 110.219 147.708 233.781 179.367 128.604 1178.26 93.2429 128.992 69.272 97.4973 26.0738 84.4457 67.7544 123.292 161.024 1131.47 998.588 109.485 889.103 98.0057 791.098 106.915 226.784 29.5158 50.7634 40.475 80.0044 684.183 58.1493 127.83 96.2421 641.276 80.2772 42.9068 82.1208 91.8933 54.5163 54.4141 14.5198 28.8911 92.1177 95.7664 15.8849 96.8846 1096.64 109.842 15.1524 61.416 24.8731 41.5813 12.7802 51.4939 79.9492 63.1969 85.9512 79.4929 9.43541 156.705 48.288 18.9369 986.795 71.8764 10.9879 25.6252 9.80651 46.7869 28.801 12.2093 43.7469 41.8791 37.377 23.2123 88.8884 10.507 17.6494 56.7119 51.3861 39.683 31.1274 11.7031 23.9537 26.6376 36.5429 21.7817 41.2298 29.9317 18.7165 54.3879 39.9517 22.8848 13.3438
internal_count=12029 11201 9238 1963 8411 828 7291 1223 6927 1120 704 827 3631 313 641 633 577 3318 364 103 327 487 740 567 399 3215 308 425 213 292 82 249 203 406 519 3066 2643 316 2327 265 2062 308 738 90 168 127 262 1754 186 420 282 1634 220 120 216 263 161 173 46 81 269 314 49 316 3296 343 50 180 69 128 37 146 231 180 281 260 29 506 153 57 2953 227 37 80 32 149 91 40 143 139 102 65 285 30 55 167 150 114 89 36 67 88 111 65 137 100 62 153 108 65 39
is_linear=0
shrinkage=1


Tree=3
num_leaves=112
num_cat=0
split_feature=6 7 7 6 5 3 3 5 9 4 5 8 7 4 6 9 3 8 6 6 6 5 8 8 6 6 4 6 7 4 8 3 4 8 7 3 3 7 4 4 7 8 9 7 9 9 7 9 5 9 6 5 4 9 4 8 6 3 9 8 9 6 3 3 3 4 3 4 9 4 9 6 6 7 9 4 5 7 9 7 5 6 9 6 5 7 3 4 9 6 7 4 5 9 6 5 5 6 4 4 7 5 4 4 9 5 7 4 6 3 3
split_gain=583.913 211.234 172.302 124.157 93.9809 74.1467 61.8147 52.1189 50.5052 41.0365 39.6295 57.3686 28.1723 20.7306 22.013 20.3115 20.1676 22.264 33.3488 15.6237 15.5326 15.5097 16.4128 14.319 13.0613 12.4927 12.3136 12.1642 13.6096 11.9005 11.3441 11.3009 10.7083 10.9027 13.4251 10.6574 10.6335 9.98658 9.91333 10.5756 9.67051 10.7052 13.5059 11.8795 9.36142 8.82831 8.77533 8.40436 8.34596 8.47864 8.20888 8.19739 8.09885 8.03415 8.01212 7.89963 7.85021 7.79219 7.78718 8.04839 7.62165 7.50193 7.28337 7.05853 8.83496 8.44621 6.91073 10.0944 6.76943 6.73778 6.68123 7.69545 6.65914 6.52177 6.28866 7.55206 6.60901 6.22054 6.87512 6.14719 12.0087 7.09936 6.97106 6.14238 6.12831 6.08847 6.3635 6.06507 5.8776 5.78237 5.85886 5.56196 7.13898 5.4733 5.44523 7.79096 6.32703 5.43209 5.34224 5.34002 6.95663 5.33999 5.32025 5.30373 5.24077 5.15231 5.05038 8.32037 6.51816 6.74156 4.9654
threshold=0.040788652384012004 0.39068578669043547 -1.2682849302513952 0.78935312365429511 -0.59510258408937544 -0.13063077858307437 0.38800177292442478 0.5116664217969763 -0.9895549264457969 0.50273239640972689 -0.31793993184691954 -0.76107898332639368 0.77295379575171408 1.1547346301738945 -0.7962739557710562 0.49191808713437646 -2.9649118913805235 0.26441942276337588 0.56023708229346381 -0.6900642186316791 -0.56409412057563502 -0.22196448650852543 -1.5601918898932106 -1.8431531733513766 -0.49320910921882 -0.28877454649440032 0.19729518405036434 0.52384640043128627 0.59791326099156328 0.18176168461918513 -0.37191674141080755 0.42146365780400902 0.27767797624849094 -0.078270717284246685 -0.19036597573634512 0.08287454175472557 -3.2778776653351933 0.32869012724008823 -0.66202173575964762 1.7236375632713319 0.23300236523082218 0.15255227700173268 -0.070512909533729282 0.11251374237139382 -1.0519698004083351 -1.1007695822576273 -0.71590255702778738 0.20391748198150769 0.54896944933736724 0.75133881121329782 0.62562204024013657 0.24706935796997267 0.17313235570794122 0.5564706151477764 -0.29059176006114501 -0.17184764640634403 -0.16409812539730997 -0.2395349400161785 -0.44140652047048584 -1.0820263497457299 0.6194770827945052 0.47263694169610787 -0.0027048826622000496 0.35316523620701118 0.20699420566848598 1.0000000180025095e-35 -0.1460318741311962 -0.73484606272120268 -0.9334006259113613 -1.2211883989529861 0.094694596083711571 -0.69823935912222823 0.46381144299711424 -1.3243162936149455 0.70834288150226643 1.407243163080709 -0.096211419281802282 0.60763150692450718 0.082191802082853316 -0.87229215386846504 -0.20216005235547244 -0.059480927112649996 -0.22771743001468561 -0.31632371796439274 0.56446671748146604 0.28575833495622965 0.13264333460293484 0.64023180959161119 0.64131523372996713 0.14626974912113377 -0.88701170988395373 -0.16081082745237577 0.50422206932466895 -0.33606783225438591 -0.5588931640627065 -0.76722677361371938 -0.56212634709633724 -0.098948156162135745 1.0607730159548099 -0.95272808677741949 -0.10724532805869273 -0.0067545136977261487 0.48026000952133413 0.13093444082643615 0.15301728562278796 -0.44100583358153189 0.41279472223306124 -0.52339760229307108 0.16451884368985373 -1.9429155039184836 -0.091325706753393479
decision_type=2 2 2 2 2 2 2 2 2 2 2 2 2 2 2 2 2 2 2 2 2 2 2 2 2 2 2 2 2 2 2 2 2 2 2 2 2 2 2 2 2 2 2 2 2 2 2 2 2 2 2 2 2 2 2 2 2 2 2 2 2 2 2 2 2 2 2 2 2 2 2 2 2 2 2 2 2 2 2 2 2 2 2 2 2 2 2 2 2 2 2 2 2 2 2 2 2 2 2 2 2 2 2 2 2 2 2 2 2 2 2
left_child=1 2 8 7 13 25 10 9 23 51 11 26 19 14 62 63 -9 18 31 -3 30 -10 -23 98 60 54 45 28 74 -24 68 32 33 34 58 -28 -27 57 44 79 41 42 43 -35 -12 -7 -46 -31 -39 61 -51 -2 70 69 -6 -17 101 -19 59 -18 94 -50 -4 64 65 85 -26 -68 -13 -22 71 -32 -61 102 75 89 -77 78 -69 80 82 -81 -40 -56 -33 86 104 -55 91 -11 -91 92 97 -43 95 -21 -97 -38 -1 100 -48 -8 -25 -93 -16 -37 107 -53 109 -109 -82
right_child=3 12 4 -5 5 6 56 16 21 27 38 20 -14 -15 15 55 17 37 -20 24 53 22 29 73 66 36 35 -29 -30 47 52 84 -34 40 -36 105 88 48 39 -41 -42 93 -44 -45 46 -47 99 -49 49 50 -52 106 -54 87 83 -57 -58 -59 -60 72 -62 -63 -64 -65 -66 -67 67 77 -70 -71 -72 -73 -74 -75 -76 76 -78 -79 -80 81 110 -83 -84 -85 -86 -87 -88 -89 -90 90 -92 103 -94 -95 -96 96 -98 -99 -100 -101 -102 -103 -104 -105 -106 -107 -108 108 -110 -111 -112
leaf_value=0.01800014976448204 -0.1316389893437768 -0.081846620389490296 -0.089364266366479275 -0.1492163455615344 0.10407853788202692 0.06832834226481109 0.0015557053950968744 -0.064064308167345901 -0.1436380041766363 0.1173961450306964 0.18893439306135612 0.096685284914574954 -0.12082945612869045 -0.088001104578417394 0.013715164404081341 -0.1602211401614887 -0.13316506299815073 0.24006088744844511 -0.1300068421755389 0.22205590500783612 -0.021628848349288406 -0.10579044001029332 -0.16136788645543754 0.19115374933755758 -0.11169127944202463 -0.078847693279858161 -0.080170378962264588 -0.094162505840036437 -0.12909704442758532 0.1531306947033097 0.068785132577268843 0.073235085675749961 0.084896914058660844 0.14984634331509955 -0.14322327588010789 -0.001882398133020042 0.018363126027235162 -0.071233363248120574 0.15057649991865701 -0.019344314769874634 -0.073804679192349121 0.045772760443678992 -0.10813358216711638 -0.079969128077659657 -0.17294849419993183 -0.16219377355166542 0.09802816911531026 -0.10269885538879579 -0.043973814690378706 -0.089657379179105254 0.04859831122862928 -0.12627604514071034 -0.0014725005125080619 -0.0064930594655440068 0.0052863529207472157 0.0096671326703503205 -0.092918376948840836 0.028179198428052492 -0.089011310268777899 0.081856895765212476 -0.11808744066036525 0.080507828189766761 0.0047811190590952542 -0.11564534461125277 0.17280145807437589 0.11625982307261422 -0.1408372436327229 0.17953487671824223 -0.045716044335338067 0.18404152223011275 -0.0020161796103487927 0.18824066611024567 -0.06215836203670811 -0.046457344106629647 -0.059094667274864392 -0.028786535411719025 0.18632433985486593 -0.115988169856582 -0.0022393983891416331 0.21384733097643255 0.036543604824004317 0.11879631465918916 -0.03707096662878797 0.14621630803650215 -0.09641520543674939 0.14700354928905884 0.13710686915846454 0.178077834082669 -0.16035489339719178 -0.13376678100674974 0.023147783564604826 0.16967229875415929 0.18724002952870791 0.26890388337126886 0.1557427142391776 -0.082224174672700559 0.073301179710359723 -0.11897307016215776 -0.15779800804469907 0.14768477400996768 -0.17277301633603542 0.097894292593387097 0.056889250632565481 0.039837435548066784 -0.12866534914539685 0.17733650767320175 -0.11540915596223174 -0.1113726812402183 -0.059113761704130088 0.12132129080204852 0.20397538677531432
leaf_weight=14.731792360544206 209.56176695227623 77.347555994987488 30.967632591724396 421.94518531858921 93.35514435172081 5.7345982193946865 49.235697209835052 185.28073239326477 97.391131907701492 14.897930711507795 32.579045325517654 16.718912690877914 138.27143552899361 41.267568647861481 20.929946303367618 10.939072161912916 7.5510517060756674 11.707596540451052 68.749775007367134 5.8757332861423484 4.4753912091255179 44.979653149843216 5.6755315661430386 26.440422892570496 23.411553755402565 32.514868125319481 13.06947737932205 35.966132074594498 15.581923484802244 19.113609194755558 19.734359562397003 6.7743209898471823 46.967018485069275 24.499579876661301 25.340051084756851 6.8244855999946585 26.944523304700848 19.970274522900581 10.289180278778078 6.3104568123817435 15.131524354219435 4.3570350408554068 12.904223024845122 8.2501027882099134 3.7804023921489707 22.227447956800461 7.608759343624115 4.3198441565036765 15.168556809425352 22.614229589700699 24.60532334446907 44.125076338648796 11.972594678401945 11.89060562849045 53.239528149366379 23.959619492292404 16.90197828412056 8.0285866856574994 22.029264092445374 39.868552982807159 5.5439816415309897 106.92992013692856 82.930290937423706 4.2126255035400382 36.612840503454208 70.511420577764511 9.8748960644006711 11.645171225070959 20.26017689704895 186.71583506464958 7.8358697593212119 59.15316379070282 11.308902978897093 5.2768284082412711 15.982855737209318 5.0750102698802975 17.206171244382858 4.8585459887981406 11.200872451066969 309.81039240956306 5.2409642338752738 23.174196511507034 11.508227020502089 10.095031768083571 42.477486550807953 9.2630210220813733 7.2912690043449393 8.2918189465999586 4.1100397408008567 7.6242656111717144 45.45713862776757 14.183487266302107 5.0736883878707877 9.8040611147880536 19.655092179775238 11.6405973136425 18.719754248857502 11.182190477848055 6.995433807373046 19.332512319087982 3.9564868211746234 23.238978832960129 11.673316448926924 22.061478644609451 10.730288386344908 12.397456556558611 99.412456080317497 4.7890298068523434 80.147910788655281 11.918891727924345 66.887668341398239
leaf_count=44 747 257 102 1501 246 16 153 638 354 38 73 43 477 139 60 39 26 27 242 14 13 158 20 60 81 109 42 124 55 49 52 20 129 64 92 20 80 67 24 19 51 13 45 28 13 79 20 15 49 79 72 161 34 33 158 73 59 23 76 115 19 301 250 14 87 181 33 28 62 416 22 135 38 16 54 16 41 16 34 655 14 58 34 26 148 23 18 19 15 26 140 36 12 21 49 38 50 40 25 45 13 64 31 65 35 30 359 17 273 32 145
internal_value=0 0.0570839 0.0790177 -0.0707991 0.0983079 0.119245 0.140179 -0.0462545 -0.0530253 -0.0822026 0.15312 0.114755 -0.06335 0.0222573 0.0370137 0.0708871 -0.0167438 -0.000947421 -0.0267331 -0.0235662 0.140658 -0.100187 -0.0430704 0.07117 0.0132547 0.0427145 -0.034445 -0.00951629 0.0154736 0.0538455 0.0969175 -0.0011255 0.0144173 -0.00386677 -0.0380319 0.0352382 0.00152523 0.0417374 0.184343 0.193529 0.044499 0.0744265 0.0353976 0.0919526 0.125175 -0.114917 0.0652746 0.10597 0.0300461 0.0419915 -0.0176146 -0.107692 0.126236 0.168735 0.0732261 -0.0435847 0.00873892 0.153868 -0.00502511 0.0264784 0.0671642 0.0650432 -0.020816 0.0959255 0.101663 0.0797253 -0.0410474 0.0029629 0.0186662 0.179227 0.143867 0.158358 0.0500332 0.126136 0.0366767 0.0536354 0.137328 0.0542184 0.0904153 0.196675 0.159249 0.207232 0.0515056 0.0277495 -0.0730807 0.0262954 -0.00241006 0.0693367 0.0328017 0.0262038 0.000609602 0.0427945 0.00264821 0.200252 0.0855398 0.0474605 0.0136705 -0.0219162 -0.0386009 0.0944216 0.00538671 0.0324466 0.150032 0.0906448 -0.0345404 0.113707 -0.0868171 -0.0666554 -0.0394937 0.0546237 0.19181
internal_weight=0 2194.18 1856.13 1770.01 1619.53 1269.92 997.157 1348.06 236.598 607.747 907.78 407.302 338.045 349.616 308.348 194.45 740.318 555.037 346.013 199.774 347.049 171.48 74.0886 65.1178 122.426 272.76 60.2535 157.791 121.825 29.109 135.675 277.263 228.011 181.044 106.098 32.2914 116.07 209.024 500.478 433.221 74.9465 59.815 45.6539 32.7497 67.2572 27.962 34.6782 23.4335 189.288 169.318 47.2196 449.955 98.696 211.374 156.69 34.8987 89.3767 19.7362 80.7578 58.7285 61.4352 122.098 113.898 159.551 155.339 118.726 60.991 37.5795 36.9791 191.191 86.7234 78.8875 51.1775 43.3906 106.243 90.2605 22.2812 27.7046 22.846 426.911 93.926 332.985 21.7974 63.3346 49.2518 48.2145 38.9515 20.1824 83.5554 67.9793 53.0814 79.4454 43.2004 14.1611 55.8912 36.2361 30.3604 38.1267 21.7272 30.8978 11.5652 72.4747 38.1137 36.245 31.6602 19.2219 240.393 140.981 96.8558 16.7079 72.1286
internal_count=12029 6081 4985 5948 4213 3192 2405 4447 772 2083 2129 1016 1096 1021 882 530 2364 1726 1108 619 829 596 242 176 362 787 187 494 370 84 348 866 698 569 347 92 357 618 1113 949 222 171 137 92 164 95 91 64 568 501 151 1589 243 481 430 112 276 50 255 179 170 350 352 418 404 317 192 111 105 429 209 187 153 107 315 261 57 78 62 930 217 713 58 184 168 136 113 52 248 204 166 233 132 34 151 102 88 120 69 78 33 217 91 101 95 50 842 483 322 49 159
is_linear=0
shrinkage=0.165648


Tree=4
num_leaves=112
num_cat=0
split_feature=6 5 6 8 4 9 6 0 4 5 4 8 5 9 4 0 4 5 0 5 7 4 0 8 6 0 0 9 8 7 8 4 6 9 9 8 5 7 7 0 4 5 5 6 4 4 4 4 6 7 0 9 4 7 7 8 0 6 4 0 0 8 0 5 8 7 5 5 8 6 7 7 7 9 8 9 6 6 9 7 7 0 6 6 0 8 9 8 7 7 8 0 0 5 7 8 7 4 8 4 7 4 5 9 4 9 8 6 5 0 6
split_gain=286.704 414.643 42.3432 36.4342 34.2261 22.528 19.8729 19.4123 22.5343 17.2772 13.3784 11.8283 16.5618 11.7198 11.6591 10.5795 10.6166 10.2314 9.88892 13.1073 20.6078 13.1535 10.0258 9.58999 9.12732 9.00593 8.5428 7.92899 9.14871 9.239 10.4769 7.89823 7.49664 8.62627 7.40946 7.29339 7.11817 6.96563 6.73941 6.25775 6.18508 5.86444 5.60756 7.90558 6.08402 5.46762 6.4089 5.4554 5.45293 5.37523 8.07334 5.27569 5.111 5.06888 4.93619 5.03647 4.85749 8.64764 4.84273 4.66551 4.63942 4.61899 5.01026 5.73618 4.61085 12.9282 9.47609 8.88455 8.15454 8.08706 6.92339 6.60357 5.49777 4.84796 4.58779 4.55971 4.55776 4.52797 4.52726 6.93032 5.31272 4.42424 4.75183 4.37533 4.44211 5.0557 4.27259 6.5349 7.85605 4.48902 8.15952 4.1555 4.1247 4.24182 4.12078 4.87928 4.00276 3.93189 5.28969 4.91516 3.83654 3.8019 3.78077 3.7171 3.64105 3.62795 3.60873 3.60554 3.59913 3.55664 3.52991
threshold=0.82147485767597483 0.11661554656363111 0.16451884368985373 0.61467027582551959 0.82879988664171611 0.68043519925827378 0.70300842974694799 1.6734115817077833 -0.8646940479370655 -0.95092070828073727 0.8637735552679312 0.20201962809297017 0.76613828963349195 -2.9068185273023737 -0.29059176006114501 0.80384197609577457 0.12158085956406083 1.017013751640514 -0.29415632528222552 -0.59510258408937544 0.39848537355746155 0.24419795524059121 0.7201264080168438 1.2264649840428732 -0.57901777944160726 -0.31504758499251712 1.9816731614336662 0.70834288150226643 0.5559221690551619 0.57668622519277013 0.62245340597628573 -0.77611775189327237 -0.38966017052604585 -1.3401309822863017 0.51217730793330885 -1.7948184346883436 0.65149048483399452 0.32869012724008823 -0.20833805897187482 -0.56578073931391881 -0.73484606272120268 0.60896028711522032 0.35389556517980308 0.63352258479440204 0.079958975873025667 1.7236375632713319 -0.66202173575964762 0.014283510848732202 -0.28877454649440032 0.038493582147399459 0.051184456631129659 0.10925180189929797 0.48026000952133413 0.50865613006120947 0.66327855226783294 0.72617953281426051 -0.32290077687710739 0.43328045435050816 1.1261013670264106 -0.91652178279450791 -0.089031132563254081 -0.93366587184063132 2.4170952781781652 -0.28285397035484561 -0.078270717284246685 0.10452101957242176 0.41896519942926236 0.6301534965355583 0.060761415356741857 0.39893503050909479 1.0000000180025095e-35 -0.086710171818222687 0.15640646014699708 -0.54066510000278678 -1.2138097769197864 0.35448385699137558 0.52384640043128627 -0.37002023426095493 -3.5461459560822286 -0.92933885935515226 -0.30705820960227698 -0.093942081810077335 -0.54046556380691835 -0.26261241661458146 -0.25304261428934122 -0.67191322986465984 0.18833268954983007 0.30130382919477039 0.28575833495622965 0.49492751184368106 0.42339646029127537 -0.23638134613323006 1.037162929490643 -0.066257387642150889 0.75020194438241716 1.0123974204393911 0.41279472223306124 -1.3248729334480498 -0.37191674141080755 -1.7133206868297151 0.58376516858381089 -0.39647696832599938 1.1540255598305462 0.65517314229124168 -0.89726696393477678 0.28981928297471887 -0.30852936557513017 0.75731976939314372 -0.090891402048678085 -0.75614851135295569 -0.15517253052825034
decision_type=2 2 2 2 2 2 2 2 2 2 2 2 2 2 2 2 2 2 2 2 2 2 2 2 2 2 2 2 2 2 2 2 2 2 2 2 2 2 2 2 2 2 2 2 2 2 2 2 2 2 2 2 2 2 2 2 2 2 2 2 2 2 2 2 2 2 2 2 2 2 2 2 2 2 2 2 2 2 2 2 2 2 2 2 2 2 2 2 2 2 2 2 2 2 2 2 2 2 2 2 2 2 2 2 2 2 2 2 2 2 2
left_child=1 3 13 5 6 7 11 8 48 60 35 15 23 -3 39 17 76 52 101 38 21 22 32 27 51 31 58 28 36 -30 -31 109 81 77 -6 -9 56 -14 -20 -15 107 92 -29 -44 -45 46 -7 -27 -1 -26 -51 106 64 -22 -32 -56 57 -13 105 -33 -10 62 -12 -64 71 67 72 70 69 -69 -66 -4 -67 -71 -18 -54 -17 -34 -19 -80 -81 -21 -83 -41 -85 -86 87 88 -38 90 -88 -35 -2 -94 -61 110 -89 99 -99 -50 103 -11 -42 -58 -87 -16 -23 -8 -103 -5 -96
right_child=41 2 4 25 34 45 40 10 9 18 61 12 37 14 26 16 74 78 19 20 53 24 -24 -25 49 47 -28 42 29 30 54 59 33 91 -36 -37 86 -39 -40 83 102 -43 43 44 -46 -47 -48 -49 97 50 -52 -53 75 -55 55 -57 100 -59 -60 94 -62 -63 63 -65 65 66 -68 68 -70 73 -72 -73 -74 -75 -76 -77 -78 -79 79 80 -82 82 -84 84 85 104 89 96 -90 -91 -92 -93 93 -95 95 -97 -98 98 -100 -101 -102 108 -104 -105 -106 -107 -108 -109 -110 -111 -112
leaf_value=0.0087946013996457392 -0.12095692269393024 -0.058338787783487285 0.15349383816995907 -0.066988390175029805 -0.04292338782251081 0.18353115929690497 0.2471968868333568 0.16988794414781994 7.2098243940170079e-05 -0.05581641641223542 -0.024476578575120214 0.09860657533288561 -0.050602659874129527 0.0050962374388012549 -0.0099618172306214208 0.23345167277528203 0.10113237932157962 -0.058507782044489073 0.033712733978990925 -0.10781601812353366 0.25365831660835969 0.010064970159033718 0.017581549774364984 -0.042803324261298827 -0.087582327801988019 -0.092303782302942478 0.16434481506143403 0.077168895922882799 -0.072859697627653944 0.20634977103427232 -0.061594905641125415 -0.14368303003861913 -0.063641921762643522 0.083456015483797621 0.081194168684123366 0.048004487020626915 0.0061900805964231519 0.056771590546854531 -0.024689078242281559 -0.017227365134384956 0.016414089481256309 -0.14834820450926747 0.18746833581814662 0.16566778813142152 0.0030836345343596672 0.17928835068436813 0.029281147217457084 0.063115093756239818 0.057620456432286839 -0.10776101166295088 0.071393243443209006 0.15373392045005382 0.041854897568802146 0.048356884445373366 0.13996760078522749 0.025015547227887267 0.11562030058442284 0.25466454767386892 -0.12804889556640098 -0.13762340053060046 0.098203844177117722 0.1709314567493482 -0.027805852204846337 0.25728105864746931 -0.0029962339426759517 0.18073072605709306 0.19270767456892504 -0.11906128344381295 -0.08099754572369372 0.20147184628956538 0.17588568258616932 0.23345237736320712 -0.023454787845359395 0.062444656488682145 -0.041144945299013268 0.17711201147367817 0.027153600322778096 0.11148470922657622 0.26349113994823614 0.001856169551946807 0.15173077082053341 -0.024683970237773616 -0.077699846117172525 0.20845823365711125 0.25378991936063766 0.19085884929171851 0.14273665574163974 -0.1129914469165163 0.28201129102504457 0.22458058986471516 -0.097016017940615554 -0.037363943079800642 0.029196015886329342 -0.098361788285174431 0.043554129106246002 -0.10263839097982408 0.041211477838925654 0.19697262609354721 -0.003221457967826765 0.25636656094520016 0.26943228813588116 -0.11875563457014204 -0.13014791728352251 -0.034232605529231019 0.036779062213937272 0.1129596702655455 -0.16055141372601731 0.035608150957992274 0.010803418804594322 0.025234325198969863 -0.076721774773451351
leaf_weight=143.18190561234951 120.4962877035141 43.427638173103333 174.98408639431 92.803036615252495 53.899251490831375 8.0723700821399671 4.8906176686286909 16.827169686555862 24.376395791769028 74.464180469512939 126.04656955599785 17.991924107074738 24.182507753372192 17.468025118112564 77.654115706682205 9.8737953007221204 8.6180032789707166 7.4833360314369193 88.076141506433487 49.587925940752029 7.1208947002887708 18.917150020599372 89.171658858656883 11.49188309907913 310.76944109797478 9.5518822968006152 8.2255180180072767 27.138972103595734 14.186672747135161 13.246244847774504 10.214662760496138 76.243011265993118 5.1928242743015316 8.1282202303409559 17.476751089096069 67.549540579319 6.97235354781151 52.718147948384285 141.03617641329765 5.6797010004520407 58.856920689344406 248.28021138906479 79.099052131175995 12.140894681215288 13.162203758955 8.7240771949291211 87.565169781446457 17.644874900579453 7.2882397174835205 12.846407026052477 14.915492087602614 6.0014162063598624 23.27683299779892 6.1497329771518707 16.204515129327774 29.493221282958984 98.875047564506531 21.251093566417694 8.8881055116653425 32.370953813195229 28.88296839594841 3.7065097689628592 3.927618682384491 3.8202604651451102 7.282673478126525 5.7418489754199973 85.694568246603012 5.0326202511787406 12.077269107103346 10.131201535463331 32.126571387052536 33.818776875734329 9.7836872637271863 21.460930079221729 22.337557673454288 9.6842383444309217 4.1836342215538016 18.424836724996567 5.020176261663436 19.141863912343979 9.8187343776226061 89.625860214233398 96.162395030260086 15.656564712524412 4.8846886157989493 5.3473563790321377 12.890262693166738 9.7141278684139269 4.7732826769351959 7.1877030134201041 5.5815805792808524 200.26350286602974 11.02892702817917 20.356655120849609 14.687922567129137 39.522369593381882 8.8062798380851728 4.5577866435050991 17.631301283836365 6.4237635135650617 4.2435588240623465 71.712328016757965 5.26128926873207 4.7606725692749015 19.756102442741398 7.1991520226001731 4.1473676264286032 4.0313875079154968 6.4093039184808722 13.093467026948927 12.304265499114988
leaf_count=414 416 117 541 302 158 27 16 56 77 212 405 57 63 55 215 34 27 20 263 124 24 55 274 38 811 30 27 87 36 43 26 268 13 25 54 226 19 153 392 15 185 883 251 39 36 30 275 58 23 34 44 19 66 18 53 92 297 70 25 102 88 13 13 13 21 19 273 12 30 32 102 110 27 63 63 31 14 55 17 56 32 246 249 51 17 17 40 23 16 23 13 538 39 69 49 136 24 16 55 22 14 231 18 12 56 23 12 13 22 45 41
internal_value=0 0.0152006 0.0862023 -0.0297049 0.0986148 -0.0210405 0.105847 -0.025442 -0.0319961 -0.0392076 0.0203872 0.111802 0.0938013 0.0184961 0.0380369 0.129411 0.0526767 0.136721 -0.0429422 -0.0377551 -0.0464357 -0.0493788 -0.033318 0.106479 -0.0736954 -0.0824892 0.0024846 0.110584 0.0951211 0.0489103 0.0738893 -0.0912977 -0.0430291 -0.0218986 -0.0125326 0.0723116 0.114089 0.0230062 -0.00223805 0.0907338 0.0223689 -0.132664 0.14425 0.161687 0.0810945 0.0537522 0.0423008 0.00852981 0.0232684 -0.0813437 -0.0115077 0.0153842 0.14428 0.15852 0.042508 0.0657778 0.133211 0.183116 -0.0117181 -0.112892 0.0532897 -0.011476 -0.0165292 0.112762 0.14947 0.130749 0.171135 0.0843551 0.0370386 0.0759618 0.142829 0.166444 0.0520597 0.107029 -0.00153505 0.0815946 0.172055 0.0729795 0.0581291 0.0838152 0.0526693 -0.0638573 -0.0521245 0.11988 0.136941 0.0996022 0.063785 0.0216277 0.11828 0.113511 0.0702913 -0.0326514 -0.107025 -0.0535378 -0.0891516 -0.0655616 -0.0396694 0.0809934 0.0378997 0.150729 0.115058 -0.0825983 0.00438779 0.108737 0.0696 0.000467133 -0.0206146 0.151591 -0.108126 -0.0555856 -0.0112731
internal_weight=0 3568.43 1382.5 2185.93 1168.32 1877.7 1096.94 1773.34 1551.47 1372.38 221.878 1023.9 506.327 214.187 170.759 517.572 45.013 472.559 1319.12 1166.54 937.425 924.154 556.557 429.426 367.597 308.222 101.967 417.934 286.393 83.3453 69.1586 281.025 467.386 232.009 71.376 84.3767 203.048 76.9007 229.112 68.7924 73.0402 400.162 131.541 104.402 25.3031 104.362 95.6375 27.1968 179.083 338.531 27.7619 29.0659 431.095 13.2706 55.9124 45.6977 147.122 39.243 93.7414 175.129 53.2594 137.501 133.794 7.74788 398.134 189.331 101.22 88.1113 48.702 36.6248 39.4092 208.803 15.5255 31.5921 30.9556 32.9611 14.0574 23.6177 41.4641 33.9808 28.9606 235.376 185.788 51.3244 45.6447 29.9881 55.9256 30.266 11.7456 25.6595 18.4718 208.392 151.882 31.3856 98.8855 66.5146 18.5204 35.9011 22.1891 13.712 107.879 152.586 64.1182 103.636 25.1035 84.8533 23.0645 8.92201 78.1216 105.897 26.9922
internal_count=12029 10622 4177 6445 3559 5414 3347 5082 4356 3826 726 3115 1525 618 501 1590 138 1452 3661 3196 2541 2499 1524 1309 975 1031 290 1271 858 250 214 943 1250 631 212 282 608 216 655 211 232 1407 413 326 75 332 302 88 530 889 78 86 1327 42 171 145 450 127 263 596 165 444 431 26 1230 579 319 260 137 107 123 651 46 95 90 97 48 68 125 105 88 619 495 156 141 90 158 82 35 76 53 563 524 108 328 226 47 116 71 45 323 465 203 309 73 238 67 29 253 347 90
is_linear=0
shrinkage=0.165648


Tree=5
num_leaves=112
num_cat=0
split_feature=6 0 0 8 4 4 8 2 0 2 6 5 4 6 5 2 0 5 2 5 6 5 6 6 4 2 5 4 8 2 6 5 0 8 6 4 0 4 0 5 4 6 5 4 4 6 6 5 4 4 2 0 4 4 2 0 5 7 5 4 5 5 7 2 6 0 0 6 6 7 4 7 0 0 4 0 4 6 7 6 6 6 8 4 6 2 2 4 5 7 4 5 0 4 5 5 0 2 2 8 2 4 0 4 0 4 6 6 4 2 5
split_gain=1169.04 408.434 169.491 84.8466 80.4687 79.6236 54.3245 41.8843 38.1206 31.9197 24.344 22.7787 22.7597 19.5407 17.9998 17.0238 16.0801 15.3449 14.1706 13.5581 19.4526 24.5345 16.2596 16.023 15.9403 13.2502 12.9444 12.5377 12.123 9.86504 9.81975 18.7094 12.7158 9.25558 9.24627 23.0266 10.5637 23.2561 9.63646 8.9304 8.90163 8.83119 8.72795 8.63454 8.60072 7.90919 7.56625 8.57581 7.45354 7.32066 7.14415 7.08966 20.5741 7.03515 6.54494 6.37898 8.87481 6.3739 6.31278 6.29505 6.18054 6.17968 5.96104 5.91496 5.87259 16.4849 5.7799 5.75295 9.51375 5.98625 5.69934 5.66863 5.61613 5.56266 5.93539 6.87268 5.45726 5.21462 5.16587 4.87585 4.56174 6.00149 5.47034 5.91759 4.89504 4.65568 4.47046 7.73965 4.45547 6.18418 4.63637 4.36695 4.35491 4.83648 4.34881 4.33053 5.93191 4.17858 4.51042 4.17276 5.31654 4.35631 4.09454 7.91699 4.08128 4.07871 4.06854 7.39763 3.93726 3.84731 3.83257
threshold=0.74528400226592983 -0.68226423810655523 1.8232249609091082 0.92836551042780957 -0.44852416115381927 1.620038977413476 0.71519412651458991 -0.017407566510627848 -0.42652543721003261 -0.11109185477550913 0.64788915004590864 0.36136110086836859 -0.040079827039453737 0.82147485767597483 0.5339933600473149 -0.031396101376654238 0.70611164524503778 0.07437437196962722 0.12215722963505952 -0.31276428429892184 -0.12773724488101926 0.22420446046260487 0.027593002959536556 0.040788652384012004 0.79689864527954202 -0.08582054742044283 0.40365826646903885 -0.44852416115381927 0.44752999942226862 -0.08582054742044283 -0.18051967617919754 0.21444906900456487 -0.32290077687710739 0.41630880608487397 -0.72043800034663452 0.84724064290730683 0.57793485699316538 -0.47988780465390007 -0.22002234010711916 -0.42876821595029974 2.3757216566745929 0.14626974912113377 0.9895253291978765 -0.4878837661597088 0.50273239640972689 0.51977340020915219 -0.7962739557710562 -0.75585477454930883 0.13093444082643615 -0.79346920384734743 0.10032990293880632 1.4187909223081296 -0.17706227390985199 -0.19449209828074632 0.12963147947909756 1.2324440742273224 -0.66123290689423919 0.50097464768580457 0.82589069764192147 0.38102610479360449 0.42788275188071939 -0.85024981428447843 0.63966303540812108 0.08531519547629822 0.61753461189228032 0.14776465132876343 -0.40075591722875009 -0.48513446773518581 0.44319960157055494 0.45414741428143718 -0.5425590906581973 0.7625544067478085 0.25340684401131275 2.0717481824313819 0.23651382952175998 1.9816731614336662 0.12158085956406083 0.23254153885309953 -1.038542060931867 -0.78145073273913923 -0.38966017052604585 -1.016535596894655 0.37851654456354061 -1.3978633812749994 0.25574610069996534 0.17949725569892813 0.089260674209767868 0.68098455597589924 0.016023204551184254 0.090184816265964612 -0.38835979404146714 -0.13337273997116633 -0.33470688140169075 -0.17706227390985199 -0.52354816985983421 0.52646196046348648 -0.47049829905251356 0.0061835974694212509 0.039632682801938053 -1.8431531733513766 0.021666182786027454 0.8637735552679312 -0.20140604360408873 -0.43251102613509385 -0.79308506775135179 1.0109555088155131 -0.61308794138245559 -0.033210079728774641 -0.13621641624499672 -0.25678862570236921 0.42788275188071939
decision_type=2 2 2 2 2 2 2 2 2 2 2 2 2 2 2 2 2 2 2 2 2 2 2 2 2 2 2 2 2 2 2 2 2 2 2 2 2 2 2 2 2 2 2 2 2 2 2 2 2 2 2 2 2 2 2 2 2 2 2 2 2 2 2 2 2 2 2 2 2 2 2 2 2 2 2 2 2 2 2 2 2 2 2 2 2 2 2 2 2 2 2 2 2 2 2 2 2 2 2 2 2 2 2 2 2 2 2 2 2 2 2
left_child=1 4 3 5 6 7 25 30 12 -4 19 70 26 29 -6 71 -7 39 -12 22 51 23 28 72 -25 67 27 57 34 60 33 32 66 55 35 38 86 94 48 -11 78 -34 64 -44 77 -13 -29 -48 -10 80 73 102 -53 -31 58 -3 -57 -9 -23 -39 -2 -17 -14 -40 95 -66 91 -1 69 -69 -5 -8 -22 74 75 -41 -60 -43 -18 -51 81 -27 -83 -84 85 -82 -36 -88 89 90 -15 -32 -30 -94 -38 96 -33 -76 -99 101 -101 -75 103 -21 -81 -19 -49 -108 -58 -46 -56
right_child=13 2 9 11 14 16 15 8 10 17 18 45 62 88 -16 61 40 105 -20 20 21 54 -24 24 -26 49 -28 46 92 53 31 42 41 -35 36 -37 37 59 63 50 -42 44 43 -45 109 -47 47 106 -50 79 -52 52 -54 -55 110 56 108 -59 76 -61 -62 -63 -64 -65 65 -67 -68 68 -70 -71 -72 -73 -74 99 97 -77 -78 -79 -80 104 84 82 83 -85 -86 -87 87 -89 -90 -91 -92 -93 93 -95 -96 -97 -98 98 -100 100 -102 -103 -104 -105 -106 -107 107 -109 -110 -111 -112
leaf_value=-0.14809222950651921 0.22139447313065314 -0.12930973635844756 -0.1282925417589858 0.028301294143749631 0.22740149642067289 0.21081285834365979 -0.077056270919827308 -0.057324214994665917 -0.005738285795979064 0.15593151752489443 0.17869519078748081 0.14416392356795524 0.21334941583154737 -0.002529561721505153 -0.029472923722282076 0.25093275903910767 0.10531764541718533 0.059796852114534546 -0.053496622306565253 -0.12108711063338382 0.032175078882894934 -0.078892272779805914 0.12112360742997166 0.12156841240360269 -0.10555019807341368 0.16187974069059929 -0.10473875036453767 0.2793421716951357 0.17483794476203085 0.093502713815473426 0.13581493896881663 0.0063515770870782359 -0.09254596348174024 -0.021032393085610515 -0.10510019141471716 0.18595302728946814 0.022198082671809099 -0.0025668528339273028 -0.092761342398619995 0.18970185539780463 0.20364076972618256 0.18760619173839838 -0.098124732099742221 0.071876322105167159 -0.15739591394470814 -0.11432829941282652 -0.098587559947287573 0.26320228425653175 0.22734273565033708 0.27921927356882908 -0.098310611056028896 0.2539288934120133 -0.11177521817503762 0.22690180873901034 -0.060856519512750874 0.15610493381259175 0.042839279867370995 0.096097355161978357 -0.04467847257212227 -0.088313164041044667 0.014710336238457064 0.1532492892625818 0.010191196854235514 0.030855989955943172 -0.099022931541441747 0.094157607538863972 0.19637465045537308 -0.050504262582828231 -0.13463939697936161 0.087212306459202027 0.20313273636690565 0.08505677676395422 -0.098007544795405299 -0.061412024316311542 -0.11314914393700533 -0.063844466756088292 0.13184669487740294 0.015575490081058583 -0.062949249411858671 0.17062082744998697 0.26515098528201392 -0.10377972588094464 0.14363408867418306 -0.030028427842012144 -0.0068805855815436906 0.030232680718221532 -0.072350622811474322 0.15713007784905558 0.24395093057126202 0.23378161660797464 0.17049092418513942 -0.026865642728499981 0.14526284776344278 -0.046544745844933844 0.21290246164518958 -0.12388642642263577 -0.10121926457211014 0.17351873553745212 -0.033018956133649427 0.16798380628083062 0.080008131989126333 0.093361564193300287 -0.13176731815992523 0.11978682192977398 -0.018911068810845099 -0.077368303047710127 -0.044329078740979661 0.24315735850279194 -0.11765624456978267 0.035365839668586557 -0.13219914543885911
leaf_weight=15.931949675083159 5.0227075219154385 438.62144014239311 20.205468386411667 5.8703421950340262 135.71939018368721 26.959994405508041 6.6142770648002616 34.155297040939331 13.63134151697159 63.129519492387772 17.107974350452427 4.423194736242297 19.604577451944355 5.2547556459903744 7.9219942092895499 24.844205141067505 7.1621033847332063 9.069068521261217 12.468501538038252 12.687160909175875 12.624271631240843 93.485530108213425 14.56347209215164 40.363509297370911 10.734318420290945 4.896168887615203 26.561080783605576 6.2568707764148739 6.5712597668170956 15.52976933121681 6.4241293370723787 15.185900241136549 80.234525859355927 25.231156051158905 201.71168334782124 13.088753759860991 4.7409042716026297 33.4027199447155 66.922065079212189 10.041950464248655 6.7166223824024192 6.0981699824333218 17.448936492204666 15.462860167026518 10.474074482917784 12.223969757556914 5.8411948382854506 4.8303902149200484 5.200978845357894 4.6200051903724697 5.8430458903312674 5.345689773559573 20.066320970654488 35.98052778840065 26.608815565705299 4.7293018102645865 5.1094394028186825 9.4960475862026197 12.543154925107958 79.18828646838665 18.940186455845833 62.410894840955734 4.9670778810977927 12.624572694301603 68.5445706397295 14.72457581758499 6.7738388478755942 18.009988069534302 17.306466400623322 16.683549910783768 39.831806004047394 56.26532244682312 32.506014749407768 6.9820509552955654 8.4504774212837237 4.1440427899360648 7.7897975742816916 23.337981164455414 16.632153987884521 6.5240802764892587 5.4974990487098712 17.554685205221176 7.1964258551597622 21.377455204725266 8.4881001710891706 3.998489648103714 27.388784825801849 4.7290451526641837 391.32365721464157 54.503262579441071 22.217705190181732 15.33757236599922 5.327025890350348 11.172918885946268 10.655837595462797 330.68385002017021 190.77164903283119 4.3729991018772116 8.6206919848918897 41.319002896547318 34.658566325902939 17.48911851644516 253.37993666529655 5.3116742968559256 5.9703647792339298 17.287524163722992 5.7626630365848568 4.2801815569400672 23.411589294672012 3.8986004292964926 92.442320063710213
leaf_count=46 16 1271 73 19 403 81 17 96 44 199 54 15 58 16 25 73 23 29 42 33 37 262 44 129 32 14 84 19 20 47 21 52 260 76 536 41 16 109 207 32 20 21 53 53 34 39 13 15 16 14 19 17 57 107 94 16 17 28 38 226 65 187 14 40 226 51 23 57 58 54 124 178 88 24 24 14 22 77 50 20 17 45 22 58 28 13 78 14 1161 162 68 53 17 32 34 1116 656 14 27 129 108 55 648 16 17 49 14 13 67 12 322
internal_value=0 -0.0363877 -0.058679 -0.0707517 0.111053 -0.0752488 0.0628012 -0.0795269 -0.0583475 0.0713727 -0.0675542 0.120248 0.0298509 0.224113 0.213235 0.133711 0.117601 0.0888066 0.0808105 -0.0714143 -0.0877587 -0.0600262 -0.051392 0.0103324 0.0738567 -0.00630441 -0.00616093 0.0309141 -0.0564537 0.145836 -0.100473 -0.0891732 -0.0369506 -0.11878 -0.0621694 -0.0204558 -0.0750204 -0.036763 -0.0479173 0.1041 0.0352364 -0.0598865 -0.101379 -0.0182536 -7.17734e-05 -0.0456462 0.119705 0.0714866 0.0586324 0.0368411 0.0810437 -0.11851 -0.0348454 0.186683 -0.0891003 -0.124007 -0.0540556 -0.0239484 -0.0606987 -0.0628745 0.0580321 0.181063 0.172282 -0.0731425 -0.105792 -0.0648626 0.0627515 -0.0610037 -0.0343212 0.0157214 0.180676 0.0680042 -0.0615916 0.0887449 0.0325115 0.115635 0.0229504 0.0512144 -0.0123007 0.133819 0.0127902 -0.0124941 -0.0310025 0.013709 0.0845275 0.166234 -0.0959608 -0.0385618 0.236595 0.20148 0.137397 0.0211582 0.060798 0.0153806 0.154182 -0.112143 -0.0932877 -0.0224776 0.0364909 0.108691 0.127852 0.049202 -0.126344 -0.0500023 0.0800546 -0.030171 0.13828 0.0781954 -0.0889041 -0.105109 -0.116254
internal_weight=0 3409.91 2962.08 2710.46 447.831 2648.12 304.19 2590.64 1288.14 251.614 1166.38 62.3493 121.755 548.773 143.641 150.135 57.4709 231.408 29.5765 1136.81 625.889 329.098 510.92 96.2281 51.0978 154.055 97.1837 70.6226 496.356 75.4732 1302.5 805.401 152.579 497.103 473.285 111.468 361.817 127.988 98.379 205.051 30.5109 124.043 652.822 32.9118 43.8088 16.6472 26.9713 20.7144 18.8323 86.1233 141.922 296.791 25.412 51.5103 232.87 471.872 33.2503 43.6513 113.818 112.591 23.9629 87.2551 24.5717 79.5466 619.911 83.2691 28.5355 67.932 52 34.6935 45.7021 62.8796 45.1303 136.079 35.6302 14.186 20.333 29.4362 23.7943 17.1145 69.0088 51.0247 46.1286 28.5739 17.9841 9.49599 233.83 32.1178 473.299 81.9757 27.4725 21.7617 23.0712 16.4999 15.3967 536.641 205.958 21.4442 12.9937 100.449 75.9776 24.4712 271.379 17.9988 12.4944 26.3566 14.8732 10.0428 28.521 14.3727 119.051
internal_count=12029 10387 9041 8245 1346 8048 918 7874 3719 796 3365 197 354 1642 428 455 174 723 96 3269 1795 1024 1474 286 161 463 282 198 1430 235 4155 2708 501 1447 1361 348 1013 385 307 645 93 404 2207 106 144 54 74 55 60 248 446 771 74 154 738 1371 100 124 322 335 81 260 72 247 2101 277 97 215 169 111 143 195 125 427 111 46 60 98 73 51 197 139 125 80 58 30 628 92 1407 246 84 74 69 49 50 1824 708 65 41 316 237 79 697 49 37 78 42 27 84 46 416
is_linear=0
shrinkage=0.165648


Tree=6
num_leaves=112
num_cat=0
split_feature=6 0 8 6 2 5 5 0 2 6 0 8 1 0 5 2 8 6 9 9 0 8 6 6 6 0 2 6 6 8 2 2 6 8 5 1 0 8 2 9 1 9 5 5 6 2 8 9 0 2 1 9 2 6 8 5 0 6 9 1 8 5 9 1 9 2 0 9 5 6 9 9 5 0 2 2 1 9 0 9 9 5 5 0 9 9 9 6 6 5 0 8 9 8 6 8 0 6 8 6 8 1 6 9 1 0 9 8 0 6 2
split_gain=409.264 171.724 180.641 104.45 62.9349 92.9784 40.8681 31.9213 30.0447 27.6519 25.3094 22.7774 21.4428 18.4694 15.7474 15.6076 12.6056 22.7232 17.6029 11.7829 9.47783 13.4274 9.46788 9.18213 9.06476 9.43998 8.84195 8.71608 8.59721 8.50857 8.49093 9.55085 8.38828 8.9113 7.81564 7.78297 12.3956 8.32658 7.77894 7.66694 10.1789 7.4155 7.39337 7.34306 7.20611 7.49866 7.03322 7.02977 7.0149 6.57786 6.53572 6.46083 6.61468 6.51658 6.82515 8.63591 6.52533 6.42537 6.34202 7.43473 7.29402 6.21206 6.13539 9.3918 11.9774 5.95542 5.83364 7.54021 5.77739 5.68731 5.55306 5.43342 5.25403 5.19474 5.14037 7.31025 5.6982 5.27108 5.03162 4.98095 5.95029 4.72959 4.61057 9.34215 7.52383 7.87907 6.78427 6.00652 5.3728 4.59282 9.12194 8.53039 8.82861 7.03608 6.45253 5.05346 4.57808 10.4452 11.9741 4.54566 4.47856 6.30105 4.41524 4.38767 6.41593 6.37665 10.6374 4.37643 4.37461 4.3591 5.36146
threshold=0.040788652384012004 1.735327876846837 0.41630880608487397 0.68132533775383064 -0.11109185477550913 -0.480382000858668 0.5116664217969763 -0.27656645430751708 0.097195014323565768 -0.6900642186316791 0.80384197609577457 0.79045745773443388 -1.1689999103022439 1.2647004992428033 -0.2761283655943349 0.074736376962602671 0.2408950089179768 0.56023708229346381 1.1371723155327738 0.70834288150226643 1.8916540275149887 -1.4007647905371698 0.46022730179922799 -0.72043800034663452 -0.45569071894044261 0.94711821522380146 0.060636910273199111 -0.14622179217523548 -0.40583372455919237 -0.49351337727388089 0.092270791138829675 0.050664171289721859 0.78935312365429511 0.31474301591719528 0.42788275188071939 -0.24785242674155697 0.99043068297114323 -0.056818836294648047 -0.30569537395240104 -0.32832563065137638 0.33517878876006241 0.40491916388312027 -0.22196448650852543 -0.86486644442138383 -0.90263292446988397 -0.022042643023298395 -0.39837644969535074 0.6194770827945052 -0.35502177855643652 0.055645137911943802 1.0000000180025095e-35 -0.71731568765951048 -0.061067649387772045 0.46765643171117172 -1.3646438191075998 1.1540255598305462 0.8412150969557225 -0.098948156162135745 0.6194770827945052 -0.099765362888099243 0.50986718195776026 -0.529937859334358 0.28981928297471887 -0.43000459416421666 -0.89811303659869302 -0.082336537619989186 -0.25304261428934122 0.4987121628264351 -0.56212634709633724 0.21790347268575602 0.5705652771183527 -0.45040661283918276 -0.56212634709633724 -0.56578073931391881 0.098252060460143315 -1.3434275082411862 0.13750595422864412 0.19457227423016157 0.09363423002027621 0.15301728562278796 0.10278192665551567 -0.95092070828073727 0.65149048483399452 -0.32290077687710739 0.17267098364676348 -0.54066510000278678 0.24677933332402249 0.61753461189228032 0.4991465519674354 0.094993370563263513 1.111135965798552 -0.33473471441842678 -0.9334006259113613 -1.432088857743185 0.19392989803159794 -0.18805722987980017 0.24328897357116855 -0.59235692122542971 -0.94733529517596582 0.5408050503894436 0.44752999942226862 0.85964398660202279 -0.56409412057563502 0.4987121628264351 -0.092766098271577294 -0.15030221876779201 -0.091609378940884043 -0.61843642729847914 1.5476793539440841 0.56926342206473612 -1.9485449284583962
decision_type=2 2 2 2 2 2 2 2 2 2 2 2 2 2 2 2 2 2 2 2 2 2 2 2 2 2 2 2 2 2 2 2 2 2 2 2 2 2 2 2 2 2 2 2 2 2 2 2 2 2 2 2 2 2 2 2 2 2 2 2 2 2 2 2 2 2 2 2 2 2 2 2 2 2 2 2 2 2 2 2 2 2 2 2 2 2 2 2 2 2 2 2 2 2 2 2 2 2 2 2 2 2 2 2 2 2 2 2 2 2 2
left_child=1 2 4 6 12 9 7 -2 13 26 15 23 -1 24 -15 43 17 35 22 30 21 42 -18 50 25 96 44 38 58 107 31 89 33 -5 -35 51 37 78 72 69 -41 -17 -3 102 45 -6 -45 108 -26 62 -4 53 -53 54 -8 56 -56 -10 59 60 -25 -28 63 64 -46 -30 -39 74 -61 -33 -50 -27 -14 -67 75 77 -77 -68 -37 80 -13 -52 83 87 85 -84 -85 -24 -88 91 95 -9 -93 -92 -94 -91 -7 98 -98 -86 -90 -102 -11 104 105 -48 -107 -29 -12 -87 -111
right_child=3 20 11 32 5 8 16 19 57 10 47 79 27 14 -16 41 18 -19 -20 -21 -22 -23 82 28 48 71 61 29 65 -31 -32 39 -34 34 -36 36 -38 66 -40 40 -42 -43 -44 46 49 -47 103 -49 70 -51 81 52 -54 -55 55 -57 -58 -59 -60 68 -62 -63 -64 -65 -66 73 67 -69 -70 -71 -72 -73 -74 -75 -76 76 -78 -79 -80 -81 -82 -83 84 86 99 109 88 -89 100 90 93 92 94 -95 -96 -97 97 -99 -100 -101 101 -103 -104 -105 -106 106 -108 -109 -110 110 -112
leaf_value=0.10063497655591834 -0.12804953392984963 -0.10231432767941821 -0.099372692082040567 -0.13952787218845758 0.049427579903340901 0.14968110998880368 -0.1303018772005711 -0.1448188179311817 0.058726157346485702 0.067123970609279479 0.017425813100846545 -0.08120617484082826 -0.11372665084170631 -0.039359706625497475 0.11580942960144128 0.048236050129955715 -0.052431552722238595 -0.12248374975680555 -0.10060235291487314 -0.10229439127603986 -0.12372808282550868 -0.1221090178712807 -0.097402014810897039 -0.13852449824054228 0.024702973469599418 0.083523387091460066 -0.081661625044166908 -0.046856536407359962 -0.10489080495246662 -0.10927208591327833 -0.090068275492465891 0.080174923690003716 -0.1388134386907077 -0.13459783160511282 -0.0015659001569277352 -0.15223311739940751 0.11532400634889213 -0.083455277295265029 -0.11327093936200792 -0.055217444030728126 0.19409345041216583 -0.11945823466691492 0.13752737787865402 0.012899091985325028 0.072112966062352998 -0.087920384608930285 0.17467539066200541 -0.15965840372716353 0.16894772448433634 0.23270110045198569 -0.05780614186375839 0.0097544701900254532 0.13411268374016355 -0.078324902516584763 -0.0033449305870885452 0.18513514031852055 0.1796614890982558 -0.065381105509542806 -0.11708484395627518 0.076029712932330823 0.04484943794499989 0.14948827339493917 -0.041353385784365551 0.090901919488819316 -0.11898691195259516 -0.088568359478913061 -0.059183287534273855 -0.13101642682392659 0.23614753872693553 -0.15323737723257255 0.076553904690866897 -0.11115257606077993 0.023267259393359285 0.057038371023553767 -0.073349475119534213 0.17967174221135812 0.018757116213687339 0.10419550260692817 -0.058866807218185026 -0.13066051738476075 0.12932379864489488 0.11875511288771469 -0.044832627468664732 -0.02879973353955162 -0.058893185318952074 0.16717469031779048 -0.063245363876194935 0.10470233904095497 0.041651525614744063 -0.080377077273439457 -0.076535703044627729 0.15976682421259292 0.041365455131159933 0.14565289617258587 -0.13672837188365952 -0.0085516930011065931 0.12978831453374001 0.13624914515775138 -0.11608828402524829 0.051330657720349226 0.26489665835704729 0.075675996085723438 -0.1619086119038213 0.062650818600293687 0.17435344751587628 0.16123434265441547 -0.061508596115118941 0.15750143156576488 -0.1606170238210706 -0.10813573334248637 0.11741399471355077
leaf_weight=63.282807499170303 173.86981774866581 4.8198692202568081 47.309026032686234 46.439676880836487 16.740367665886879 139.74006739258766 7.9266767203807822 23.137820035219193 79.477287262678146 6.4723477363586426 45.459804758429527 41.438234254717827 8.0408465862274152 26.353011965751648 56.254679635167122 29.389905110001564 29.293862253427505 57.98656165599823 29.357121884822845 70.394847109913826 148.54758878052235 20.902161121368408 22.454586043953899 7.5371934175491324 9.9543891251087171 9.1660100817680377 45.481906145811081 5.8335261791944504 23.335888803005219 36.923735439777374 48.273119777441025 5.4613031446933729 374.16510620713234 17.392540752887726 39.956376791000366 22.995085626840591 14.124146223068236 24.484889298677444 13.488810300827025 6.2391432970762279 16.060680344700813 9.5987584739923459 13.144146069884298 12.745898872613905 19.215823873877525 31.301493257284164 16.452274292707443 8.5971695184707624 445.17201438546181 4.474897474050521 9.3565079420804995 25.170442342758179 21.989335998892784 25.833108857274055 65.29517275094986 8.8521324098110181 5.8229041695594779 13.37250281870365 6.1140130162239066 25.712582305073738 28.300257235765457 3.4308599829673758 26.976218447089195 56.071327567100525 16.926807045936584 10.256768167018892 17.777427539229389 9.0242605656385404 8.1411219835281354 6.0237569212913513 18.594714820384979 6.8916071951389304 172.01716862618923 19.514719009399414 10.680132552981375 15.314178988337526 9.969156086444853 7.7941289842128745 50.885290801525116 83.233558520674706 4.0430868566036215 7.4998796433210364 7.7005423158407202 16.605295091867447 12.850497499108313 35.312758430838585 4.8030651807785025 4.9188911318778983 11.152863368391992 37.438964992761612 5.2353735417127636 6.5168209671974209 9.9078286588192004 15.456364929676054 12.785879939794539 95.288653552532196 10.463043928146364 59.232704043388367 11.308784395456312 51.053055599331856 9.992993116378786 9.3443215340375883 3.5909471511840803 17.398638024926186 95.56240114569664 10.848743915557863 12.852600425481794 5.670643746852873 4.1307906806468955 3.831898719072341 11.787256091833113
leaf_count=154 691 18 171 181 48 307 29 87 208 17 130 148 27 83 134 78 99 219 109 269 583 78 81 25 27 23 152 19 85 134 175 15 1501 68 127 92 36 88 47 20 39 32 33 35 51 107 35 32 939 10 32 80 55 92 212 21 14 43 22 70 78 8 85 146 55 36 61 34 17 23 46 22 492 53 38 37 31 23 179 324 12 22 25 53 43 87 17 13 34 132 18 19 30 38 48 321 24 130 36 150 23 27 13 48 206 24 37 15 15 13 31
internal_value=0 0.0469657 0.0611276 -0.0618128 0.0828467 0.097905 -0.0356267 -0.0698129 0.130006 0.0403006 0.0755352 -0.0525968 0.014786 0.140443 0.0663083 0.101774 -0.00816501 -0.0265604 0.0202217 -0.0415466 -0.104674 -0.0318478 0.0355701 -0.0166138 0.149062 0.122598 -0.00331552 -0.00766575 0.00887171 -0.0705159 -0.0266892 -0.0139174 -0.127256 -0.0855893 -0.0419113 -0.0103882 -0.0337496 -0.0462139 0.00806016 0.0677095 0.12434 0.00695079 0.0731762 0.122789 0.0143837 -0.040061 0.131125 -0.0213775 0.16229 0.0355346 -0.067816 0.0161907 0.0677394 -0.00518467 0.0163114 0.0308438 0.011639 0.0408519 0.0446768 0.0588682 0.00628294 -0.0654482 0.0281321 0.0484594 -0.0173855 -0.0422363 -0.0137893 0.0103855 0.114535 -0.0422466 0.165243 -2.76308e-05 0.0171495 0.00687445 0.0311225 0.0530628 0.116224 -0.00938595 -0.0879268 -0.106573 -0.062491 0.0207509 0.0483442 0.0172152 0.0684825 0.111334 0.0585139 -0.0610848 0.0995945 -0.0273197 -0.0128637 -0.0696865 -0.0101737 0.0894353 -0.0589745 -0.0288117 0.131519 0.100187 0.0020744 0.0291655 0.125246 0.17346 -0.0146031 0.140967 0.151007 0.0954448 0.0404468 0.0538757 0.00259523 0.134945 0.0620791
internal_weight=0 2194.16 2006.75 1672.43 1684.96 1379.7 1194.47 532.09 885.981 493.72 273.1 321.793 305.258 793.131 82.6077 214.913 662.384 401.925 260.459 358.221 187.414 38.8662 231.102 193.078 710.523 236.802 220.62 241.975 128.913 48.4279 287.826 239.553 477.954 103.789 57.3489 343.938 183.049 168.925 193.547 33.7849 22.2998 38.9887 17.964 175.924 171.707 48.0419 165.861 58.1878 473.721 123.665 64.1654 160.89 47.1598 113.73 87.8969 79.9702 71.1181 92.8498 75.8052 69.6912 35.8375 48.9128 119.19 92.214 36.1426 53.1074 95.0442 70.5593 33.8537 11.4851 463.767 16.0576 180.058 29.7715 61.535 50.8549 25.2833 25.5716 73.8804 128.715 45.4813 16.8564 201.808 79.272 122.536 58.6325 51.8985 27.3735 35.2932 205.768 153.419 52.3483 29.2105 20.6917 22.6937 132.728 220.745 81.0045 21.7718 63.9036 30.4902 19.3373 10.0633 153.115 135.716 40.1536 23.7013 11.5042 49.5906 50.9319 15.6192
internal_count=12029 6081 5369 5948 4274 3386 4071 1925 2022 1364 702 1095 888 1771 217 525 2146 1341 805 1234 712 129 696 611 1554 542 662 734 386 168 965 790 1877 376 195 1122 619 583 566 97 59 110 51 415 502 155 385 177 1012 347 225 503 135 368 276 247 226 251 212 190 103 160 337 252 106 174 312 224 87 38 985 45 519 89 190 152 68 84 271 484 160 54 597 248 349 156 154 94 101 693 509 184 97 56 78 453 497 190 60 193 84 50 30 350 302 96 61 34 145 131 44
is_linear=0
shrinkage=0.165648


Tree=7
num_leaves=112
num_cat=0
split_feature=2 2 6 0 1 8 5 0 5 8 1 1 8 5 6 1 5 0 0 5 2 2 5 0 5 6 0 7 7 1 7 6 5 0 8 2 5 5 1 6 5 0 1 1 6 6 5 8 1 8 0 6 0 6 5 8 7 7 5 1 8 2 5 7 1 2 1 1 2 0 7 2 2 0 0 6 5 2 6 0 0 8 5 0 2 8 2 0 2 8 5 0 8 7 8 0 0 7 8 6 2 6 2 2 5 0 6 1 8 5 0
split_gain=530.87 208.42 64.4282 39.9425 27.405 21.1106 20.9312 35.5555 32.2554 18.1289 15.0343 13.6753 12.9461 12.2527 12.1936 10.2896 9.35732 8.68028 8.65191 7.99466 7.40833 6.81665 6.20951 6.1575 6.09468 5.97856 5.40849 5.32322 5.2487 5.2077 5.19852 4.98234 5.71079 4.5698 7.15913 4.44329 4.74006 4.4305 4.28321 4.20449 5.0551 4.78497 4.16614 5.2473 5.30982 4.06334 5.88182 5.25504 3.97828 4.55292 4.98093 3.95598 5.15709 4.12573 7.73868 3.87887 3.81667 3.79421 5.36265 3.75919 9.00214 3.92581 3.75777 3.73077 3.64622 4.58948 3.8608 3.61481 4.3056 3.59944 3.54385 3.5053 4.41342 3.44268 6.2047 4.39377 4.02024 3.4147 3.38142 3.37455 3.35554 4.90578 5.12733 3.32613 3.32467 3.27529 3.37299 3.25424 3.93899 3.51944 4.05366 3.21406 8.08297 5.74556 6.07832 4.99972 3.20845 3.20503 5.56241 4.67145 5.41822 4.05127 3.5256 4.90622 3.18755 3.16086 5.65042 4.02262 3.65853 6.21444 5.58272
threshold=-0.11109185477550913 0.12963147947909756 0.75731976939314372 1.0810885495668152 -1.3851338180957156 0.65921336248951834 -0.49453821580800256 -0.33470688140169075 0.19142473967585141 1.2664753025920714 -0.6856297149831202 0.11925465777338616 0.24797226767855288 -0.19588754150351423 -0.6900642186316791 0.16529129229914083 0.88661704707808098 1.735327876846837 0.80384197609577457 -0.86486644442138383 -0.30569537395240104 -0.046063470867040997 0.37919398554193035 1.037162929490643 -0.56212634709633724 0.82147485767597483 0.31752108337723023 0.24144208446285578 1.1238884160708773 -0.099765362888099243 0.090184816265964612 0.71800308185184492 0.31898314332653471 1.9816731614336662 -1.5601918898932106 -2.5061125830041786 0.84939941753719495 -0.21402326128981772 -0.23548159860822332 0.70300842974694799 0.79512591976697933 -0.31504758499251712 -0.061077353981861295 0.16529129229914083 -0.84855883353467887 0.36592231203565823 0.4962700521072968 0.40808086775371694 -0.32189261132201374 -1.0073309300658952 1.0810885495668152 -0.5327165761381788 0.26413476327534319 -0.59235692122542971 -0.3073519634114672 0.31474301591719528 0.28575833495622965 -0.87229215386846504 -0.078109949037779583 0.5579919735082145 0.34428165435806746 0.46498233655571825 -0.56212634709633724 0.31926207313374261 -0.36291597034544482 -1.5995634140756967 -0.90068226793476569 1.2707221365792907 0.019985725352585502 0.10809728067122017 0.7402265101946145 0.055645137911943802 0.067467574558827417 -0.56578073931391881 -0.90088441147101717 0.37344755616406172 0.45232261586174327 0.039632682801938053 0.5408050503894436 -0.021205133021237697 -0.14559026541904815 0.51735962195017782 0.33237350261760029 0.51426949652627174 -0.0092161243301733479 -1.8431531733513766 0.0097407083605874027 -0.75614851135295569 -1.9485449284583962 0.48676222203843561 -0.034576807084066692 0.40071572989907805 0.27032484362091475 0.4781142945663775 0.5559221690551619 -0.43576757255908688 -0.30172576717060456 -0.46931322530450387 -0.64589662630382783 -0.37002023426095493 -1.9739363871146749 -0.27879903063035366 -1.2331057832773091 -2.0390206627767644 -0.16348357899933172 0.80384197609577457 0.35248767113030127 0.49859547624384709 -0.056818836294648047 0.75834749312783589 0.24328897357116855
decision_type=2 2 2 2 2 2 2 2 2 2 2 2 2 2 2 2 2 2 2 2 2 2 2 2 2 2 2 2 2 2 2 2 2 2 2 2 2 2 2 2 2 2 2 2 2 2 2 2 2 2 2 2 2 2 2 2 2 2 2 2 2 2 2 2 2 2 2 2 2 2 2 2 2 2 2 2 2 2 2 2 2 2 2 2 2 2 2 2 2 2 2 2 2 2 2 2 2 2 2 2 2 2 2 2 2 2 2 2 2 2 2
left_child=4 2 3 6 -1 10 7 27 51 12 16 -10 20 -5 42 -14 -3 -15 19 56 24 -13 23 -4 -6 35 31 -2 70 30 38 32 -12 34 -26 55 39 97 -21 40 45 -41 62 -44 -45 47 79 63 49 50 -39 52 71 54 83 -17 -16 -51 69 60 -34 -62 -9 -37 66 -66 -60 -53 -69 -59 -7 -8 -73 74 -72 -75 -77 85 -48 96 81 82 -57 -54 -20 86 -19 88 -49 90 -89 92 -23 -94 -95 -96 -47 98 -36 102 101 -101 103 -99 -87 108 -107 -108 109 -50 -110
right_child=1 5 22 13 9 28 8 14 11 -11 26 21 15 17 18 25 -18 77 84 29 -22 91 -24 -25 33 -27 -28 -29 -30 -31 -32 -33 59 -35 37 36 -38 48 -40 41 -42 -43 43 44 -46 46 78 87 105 57 -52 67 53 -55 -56 80 -58 58 64 -61 61 -63 -64 -65 65 -67 -68 68 -70 -71 73 72 -74 75 -76 76 -78 -79 -80 -81 -82 -83 -84 -85 -86 104 -88 89 -90 -91 -92 -93 93 94 95 -97 -98 99 -100 100 -102 -103 -104 -105 -106 106 107 -109 110 -111 -112
leaf_value=-0.024068557518559162 -0.012791027490736165 -0.069933017895723676 -0.10992288452395717 0.020545481914763221 0.25363392450092509 -0.07256553544932956 -0.10968692795354586 -0.0024890361702040128 -0.052376044776491978 -0.049258961509852706 0.068670079169977305 0.1435968493496726 0.027051597035333479 -0.070559447524045291 0.14765885507664286 0.16062404306466571 0.12030511488396038 0.093669548114569956 -0.041457107287189071 -0.021299986696320054 0.17773048569317515 0.12494808414281601 -0.13678453357720688 -0.018808211659605851 -0.082972985245855044 -0.071203157425112559 0.18517545917079536 -0.094690333163122808 -0.10108272224906603 -0.070903969243655496 -0.13270598530700661 -0.067133843915846314 0.14540309785080541 0.1868111616170621 0.054852879183176766 0.0095355058941619907 0.22221730566657372 0.21717674704328793 0.098777276260367419 0.1200871699548738 -0.056668660972732765 -0.033596527540683686 0.11843652165822985 0.1375855914332253 -0.01791006083026405 0.13085399733637013 0.12960308906622817 0.082008508377980904 0.12697720235637106 -0.013656817388549597 0.013591994122818331 -0.10366682872409379 0.17422668713073378 -0.07870645529742766 -0.11707556036555129 -0.0024210852638643925 0.0012055868948509043 0.093271774057629597 0.031429161075141245 0.17489606325030108 0.10020969499321737 -0.047194257688296368 0.092434577751949465 0.1714451775726818 -0.076418426081217419 0.11597365588060279 0.10066925138179295 0.07390451274129746 -0.085001365300701862 0.24244302429878278 -0.016680862316230543 0.088913512179999099 -0.074483339510613783 -0.1305214919553051 0.22013224260904016 0.18378046780509807 -0.037018609835089943 0.042708937067949988 0.072981453463859661 0.086254434663317267 -0.051767295459503385 0.0064429463668196586 0.18459440628120377 0.0244761554507609 0.093959532600266488 -0.14406418232787782 -0.076818176982282993 0.087000692114544476 -0.077166243173873994 0.09795558670616622 -0.1145022328733513 -0.087954425559461688 -0.10022154866562497 0.20487819730113499 -0.084877062317359558 0.077972915738162354 0.20425729854707697 0.052097551776311785 0.29680745019690169 -0.016935048585073782 -0.077550983748952945 0.17672152135505276 0.009111149056368591 0.22560927160180438 -0.025821935061270226 0.13543391283863496 -0.12920517717023125 0.068830440312739397 0.12005277388907103 0.21640319886805642 0.04458080156129033
leaf_weight=56.946792215108871 24.161825880408287 19.191551715135578 102.30949771404266 257.53469428420067 7.6344734132289878 8.2106053829193097 72.2155931442976 102.35668209195137 120.2021119594574 23.934449061751366 47.852013975381851 13.591931104660032 95.643191188573837 94.317635267972946 7.4463063478469875 7.4732634127140036 11.25539857149124 10.787083238363264 6.7379275858402279 22.930563375353813 42.642255365848541 16.542164295911789 247.04915621876717 25.405288681387901 5.6641670167446128 6.4080385565757743 34.196355730295181 220.56450471282005 12.982411563396452 135.67483608424664 7.2281692326068869 4.1023596227169028 64.481937319040298 18.1105717420578 7.1758338510990143 4.9185364842414883 8.1682193875312787 13.748014062643053 12.646656155586241 9.146677106618883 5.5696949362754813 14.172334462404249 25.725589245557785 7.8931024670600882 25.471122890710831 33.496737420558929 44.254380434751511 7.1245693266391781 132.04277330636978 10.889277547597883 4.3380543291568747 493.11056981980801 6.8492344319820466 19.822071745991707 7.4893083274364463 6.1410352885723141 14.182142525911329 8.3020101487636584 28.282038688659668 44.1131671667099 8.9305122792720812 11.144579529762266 12.883719354867933 18.950902909040451 8.8451503217220289 5.5288068056106559 101.04224932193756 6.8677031397819546 14.67874616384506 9.5375538468360883 5.4204030930995941 5.7535036504268673 21.432251110672951 4.9028354287147549 6.9008772969245893 4.1687131524085981 4.9488814771175385 33.747984424233437 83.632424175739288 18.339077234268188 10.291993498802183 25.151310801506042 11.660954296588896 10.029087364673613 19.01161327958107 7.4824508130550376 4.5177904963493338 5.6651459634304047 10.631591081619261 32.787356287240982 5.3043341934680921 7.4458677768707267 13.578905880451201 4.6308773010969189 10.554026216268538 10.145977854728701 31.899727791547775 9.2504231035709399 4.0949392914772016 6.1828250288963318 13.477276116609575 5.6938296258449572 9.048724412918089 8.6556330621242505 38.159976691007614 12.976464509963991 5.3391802012920362 5.951865553855896 160.00569921731949 25.429308831691742 32.326823830604553
leaf_count=155 82 53 387 829 25 22 198 300 358 84 141 41 280 261 24 23 34 34 19 68 134 51 985 92 14 22 106 790 46 373 19 13 194 57 20 13 27 44 41 29 14 41 79 25 70 107 131 24 397 28 12 1385 23 54 20 18 44 25 79 138 26 30 40 60 22 16 293 22 46 31 16 19 64 17 23 14 14 109 237 54 27 74 36 30 60 23 15 18 34 106 13 21 34 15 31 31 100 26 14 16 35 18 24 28 119 40 13 18 478 82 95
internal_value=0 -0.0419473 -0.05856 -0.0464503 0.088258 0.0897483 -0.0593981 -0.0368674 -0.0763939 0.0934884 0.109329 -0.0175338 0.0963378 -0.00296145 -0.00645185 0.0758749 0.000392778 -0.0349902 -0.0318551 -0.0434849 0.110816 0.0372201 -0.121454 -0.0917982 0.10649 0.0875143 0.124769 -0.0866044 -0.0112847 -0.0550107 -0.00463586 0.113333 0.117527 0.104766 0.102422 0.0900906 0.0975828 0.104094 0.021384 0.0944589 0.0996822 0.0266846 0.0264599 0.0622212 0.0188761 0.102614 0.114921 0.0721113 0.108762 0.0892781 0.168346 -0.0939819 -0.0696703 -0.0225878 0.0230625 0.0488701 0.051627 0.0809846 0.0873644 0.135696 0.115246 0.0183792 0.00812329 0.138082 0.0767302 -0.00241663 0.0855271 -0.100765 -0.0343518 0.173023 0.0224553 -0.0906013 -0.0399026 0.0520729 0.115953 -0.00406536 0.0639343 0.000437147 0.092575 0.14905 0.0331849 0.0535402 0.120081 0.085245 0.0585248 -0.0229698 0.0433439 0.046512 -0.0132982 0.0707825 -0.0104368 0.0142326 0.0279538 -0.0132824 0.0333223 -0.00505716 0.166659 0.0626385 0.142761 0.0453748 -0.00566619 0.0759065 0.0933845 0.135972 -0.0452061 0.118686 0.0608745 -0.0248144 0.122696 0.141418 0.107368
internal_weight=0 2613.97 2321.17 1946.4 1279.93 292.803 1499.85 644.915 854.94 1222.98 245.268 196.692 1199.05 446.548 400.188 496.831 30.447 189.013 225.858 200.109 702.216 76.4898 374.764 127.715 659.574 401.188 214.821 244.726 47.5347 178.48 42.8054 180.625 176.522 651.939 633.829 394.78 334.062 628.165 35.5772 325.893 302.574 23.319 174.33 59.0898 33.3642 297.005 211.622 85.3824 564.585 190.513 18.0861 658.248 143.591 44.1897 24.3676 60.7186 21.6284 172.427 161.538 128.67 84.557 20.0751 115.24 23.8694 143.698 14.374 129.324 514.657 21.5464 17.8396 34.5523 99.4013 27.1858 26.3417 12.3213 14.0204 9.11759 94.6953 127.887 83.7355 53.2453 42.9533 17.802 16.8783 25.7495 60.9473 15.3049 61.513 17.7562 43.7568 10.9695 62.8978 55.452 38.9098 25.3309 20.7 65.3965 63.5795 11.2708 52.3087 25.3539 11.8767 26.9548 17.9061 45.6424 374.072 24.2675 11.291 349.805 157.472 192.333
internal_count=12029 8218 7331 5867 3811 887 4477 2034 2443 3656 735 582 3572 1390 1162 1488 87 561 648 569 2084 224 1464 479 1950 1208 648 872 152 501 128 542 529 1925 1868 1186 1008 1854 109 981 911 70 514 174 95 897 629 268 1673 550 56 1861 408 127 73 178 68 494 466 388 250 56 340 73 410 38 372 1453 68 56 106 281 83 84 39 45 28 300 368 261 155 128 54 53 79 191 49 195 58 137 31 183 162 111 77 62 207 181 34 147 69 34 78 54 142 1123 71 31 1052 479 573
is_linear=0
shrinkage=0.165648


Tree=8
num_leaves=112
num_cat=0
split_feature=6 8 4 2 6 8 1 6 1 8 2 1 6 4 8 1 8 9 7 2 2 4 6 6 4 1 4 6 7 9 4 4 4 4 2 8 6 1 1 1 9 1 4 7 1 1 9 4 8 4 4 6 6 6 7 8 4 8 9 6 2 9 2 2 2 7 4 7 6 7 2 7 6 6 4 2 7 8 6 1 2 7 6 1 4 9 7 9 2 8 4 2 6 4 9 6 6 6 1 8 4 7 8 1 8 6 1 7 4 4 4
split_gain=786.852 282.276 113.101 59.538 54.7318 41.0035 48.8958 30.732 27.9834 25.1459 24.1228 20.2448 19.5417 18.1388 16.8767 16.856 15.8382 14.29 13.9638 13.9301 13.6416 13.2216 11.3591 8.33807 8.21194 7.49489 10.2761 7.08883 6.93975 6.88364 10.4311 6.60997 6.36488 6.13834 9.62868 6.11221 17.9448 6.04549 6.40943 5.89631 10.4005 5.87996 8.68526 5.74078 5.66804 5.62326 12.5251 10.1546 8.52698 9.90151 8.72875 13.4723 8.08306 7.57388 6.79908 5.75062 7.9496 5.61022 5.58459 5.52315 5.44359 8.32292 5.38164 6.10808 6.62225 5.35004 5.34619 5.50193 5.27796 5.17936 5.17379 5.04657 5.00949 5.01807 5.44824 4.94867 4.8992 4.86238 4.84718 12.4545 4.81436 5.19529 9.55726 7.67351 6.56777 6.79064 4.70461 4.46375 4.42337 4.33331 5.37968 4.28526 4.53332 4.46582 4.20077 4.16451 7.01663 4.4311 4.15891 4.1043 4.07906 3.95279 3.92132 3.87977 3.85454 3.83274 3.82837 3.82394 3.7962 3.75194 3.69553
threshold=0.74528400226592983 0.68096187169606759 1.284284799630633 -0.031396101376654238 0.4924098948591113 0.37087698617495402 -0.051128488548092543 0.56023708229346381 0.11925465777338616 -1.2138097769197864 0.23380855021826671 0.93188213668954101 -0.83400193305452197 -0.34057468143584707 1.0867114980290384 -0.072375335628270088 1.2664753025920714 -0.14922475354797643 -0.70129554855373188 0.0061835974694212509 -0.08582054742044283 0.51326159704305374 -0.56409412057563502 0.4561232020681783 0.59301057121698253 0.95044332091718242 0.10673447668975186 0.6926422841964992 -0.53184606646698529 0.52218170589905422 0.38908640269135242 1.407243163080709 -0.67282710388923095 -0.74758619733353526 0.12215722963505952 0.40808086775371694 0.39893503050909479 0.16529129229914083 0.7407038317268958 -0.33660905909696487 0.19457227423016157 -0.24785242674155697 -0.25531600317540953 -0.19997005403926291 0.26734723962540169 -0.015498084473024696 -0.22081936366700963 -0.2687615265280604 0.093658382957233069 -0.13621641624499672 0.60468892308377098 -0.50764247466334378 -0.033210079728774641 -0.42082032059121716 -0.92933885935515226 -0.77242627626019644 0.5720591991304621 -1.2931144735314459 0.082191802082853316 0.13128440079354795 -0.11109185477550913 0.10925180189929797 -0.18741202837593487 0.15663842805901448 0.052475809330424263 -0.0052705609748021484 0.30373158935006744 1.2698895207069589 0.58495889228018749 -0.25845277692848279 0.094600412659995012 0.41991228664272878 -0.15517253052825034 -0.43507390016657399 0.64023180959161119 -0.040674877701124788 0.162530411437426 -0.063642596192534734 0.56023708229346381 -0.30447377109799506 -0.08582054742044283 -1.1073569357069399 -0.14622179217523548 0.64482461649778033 2.1503645923058285 0.79984618095540772 0.57668622519277013 0.60603897108577121 -1.8247247222012175 0.63052449515724918 -0.93205061753465079 0.041801495763399407 -0.50150136513034915 -0.25531600317540953 -0.67198154734961346 -0.30802558867901525 -0.84855883353467887 0.19392989803159794 -0.27882423490274499 0.48676222203843561 0.07295527181244342 -0.21672561173185459 0.73890034287383022 -0.13755185498302988 -1.432088857743185 0.62562204024013657 0.32150261485470766 0.83176770208907247 -0.97282130878269901 -0.20178925034762252 -1.0886140472046182
decision_type=2 2 2 2 2 2 2 2 2 2 2 2 2 2 2 2 2 2 2 2 2 2 2 2 2 2 2 2 2 2 2 2 2 2 2 2 2 2 2 2 2 2 2 2 2 2 2 2 2 2 2 2 2 2 2 2 2 2 2 2 2 2 2 2 2 2 2 2 2 2 2 2 2 2 2 2 2 2 2 2 2 2 2 2 2 2 2 2 2 2 2 2 2 2 2 2 2 2 2 2 2 2 2 2 2 2 2 2 2 2 2
left_child=1 2 3 25 14 7 13 9 18 17 37 12 24 39 19 -6 62 91 31 95 66 87 -10 58 41 27 65 35 -23 45 76 -4 77 34 -21 57 86 100 -39 89 -41 42 110 -44 -35 46 48 69 50 98 -14 -52 53 70 106 -54 -57 60 -8 72 -1 -62 -17 64 107 101 67 88 80 -47 -48 -60 73 -19 -75 -33 -31 -22 -59 -80 -24 82 83 104 85 -83 99 -13 -2 90 94 92 -5 -94 -7 96 -3 -97 -50 -37 -9 -27 -46 -29 -82 -28 -49 -64 -88 -25 -11
right_child=20 4 8 5 15 6 23 10 22 11 -12 21 29 -15 -16 16 -18 59 -20 33 32 28 68 109 -26 26 105 103 -30 30 -32 75 -34 44 -36 36 -38 38 -40 40 -42 -43 43 -45 102 47 52 54 49 -51 51 -53 55 -55 -56 56 -58 78 71 -61 61 -63 63 -65 -66 -67 -68 -69 -70 -71 -72 -73 -74 74 -76 -77 -78 -79 79 -81 81 84 -84 -85 -86 -87 108 -89 -90 -91 -92 -93 93 -95 -96 97 -98 -99 -100 -101 -102 -103 -104 -105 -106 -107 -108 -109 -110 -111 -112
