tree
version=v4
num_class=3
num_tree_per_iteration=3
label_index=0
max_feature_idx=9
objective=multiclass num_class:3
feature_names=orbital_period stellar_radius rate_of_ascension declination transit_duration transit_depth planet_radius planet_temperature insolation_flux stellar_temperature
feature_infos=[-1.8475740069981239:5.2144707781146895] [-3.8825310562215214:9.1802482863304196] [-3.0814846301882741:0.74956521272555798] [-5.0334553772203083:1.8219868774490464] [-4.1965188390169565:4.5306128241947254] [-1.7385106777472259:2.252394834352629] [-1.7641198973800876:5.3185329251594027] [-4.3931667072231804:3.0413854305696626] [-3.6040747380565059:3.1433614566914807] [-4.9104296899544497:13.670828444284954]
tree_sizes=11681 11667 11675 11816 11817 11878 11863 11832 11861 11915 11852 11863 11875 11880 11868 11844 11886 11903 11918 11842 11870 11897 11879 11874 11917 11857 11897 11914 11884 11895 11933 11877 11876 11929 11883 11900 11915 11911 11927 11894 11903 11912 11899 11863 11885 11916 11871 11860 11911 11884 11911 11914 11877 11904 11892 11857 11895 11930 11878 11882 11914 11879 11887 11862 11896 11879 11925 11895 11940 11923 11879 11896 11864 11885 11887 11889 11912 11864 11943 11853 11854

Tree=0
num_leaves=112
num_cat=0
split_feature=7 5 8 1 5 2 7 2 5 1 4 1 4 4 3 4 4 1 5 7 1 4 3 8 1 5 5 5 4 8 4 8 5 3 2 1 1 5 1 4 8 5 1 4 5 5 5 2 3 7 3 8 4 8 4 1 5 4 7 4 5 7 8 7 2 5 1 1 2 4 1 5 3 7 4 3 5 7 2 8 8 4 8 1 5 2 1 8 4 8 1 3 8 5 4 1 4 1 4 7 8 7 1 7 3 4 5 1 4 2 4
split_gain=372.461 392.382 225.232 175.499 105.651 141.575 71.308 68.4931 61.2839 57.3378 47.9819 36.9866 33.2962 29.3901 27.8746 26.1784 25.6628 24.7452 23.1939 48.8408 22.9053 21.838 20.9286 20.5317 20.1808 18.9148 28.3998 24.7165 15.0847 14.9975 14.9379 14.5471 17.2871 14.0405 13.4148 13.0618 12.9895 12.8025 12.5206 14.0743 12.3493 12.2303 18.7476 16.4648 12.1434 15.2557 11.7729 13.1705 12.0485 11.7327 11.2156 11.0749 10.7869 10.7469 11.9016 10.7466 15.8478 12.6054 11.1418 10.7391 10.6584 10.6131 11.0479 10.0719 11.4 13.257 11.3376 11.1402 9.7684 9.66538 10.3316 9.65694 9.53347 9.41754 9.0264 9.00695 8.8764 8.80384 8.57092 8.47435 8.38998 8.32856 8.28668 11.3017 8.15784 7.99739 7.96396 7.53788 7.48469 7.46338 7.35385 7.30619 7.63532 10.9081 7.13487 7.06366 7.03848 6.91732 6.91713 6.83982 7.07392 6.81875 6.74712 15.6522 6.73652 6.72383 6.43722 8.13418 6.43683 6.39211 6.39137
threshold=0.38581766248263322 0.25771198327255301 -1.2815383544507044 0.91314839140209114 -0.60641445770078795 -0.11637592503913018 0.73398653059756491 0.083220319320340616 0.96980214272921594 -0.65663796672128294 1.7891851736938593 -0.9771636115379263 1.1509538608579459 -0.48522849335970292 -0.044082960715449343 0.54966792552201527 -0.5227543700534435 0.49859547624384709 -0.28365486862223371 -0.76512955675717997 1.0000000180025095e-35 0.19338939216936563 0.4781501500514575 -1.9081441407661293 -1.1689999103022439 0.91820240591098112 0.54378945435290793 -0.28365486862223371 -0.90598888819772738 -0.49057769154978997 -0.42816106084451672 0.21756987677989206 0.74350499493974576 -3.4485545826466284 -0.31381031895273298 -0.61646084630717335 -0.070872969153104273 -0.2274920771224245 -0.18889881948048812 1.1255857757417156 0.42460818287650526 -0.56310356298084951 0.19767370355859898 -0.29429885254901295 -0.46755720337212564 -0.56310356298084951 -1.0551105391079096 0.023135459882192302 -0.12491427022753744 -1.6144637119245966 -0.022297717042098646 0.15091420828630189 0.048308256219963958 -0.51090097892363506 1.966534839754065 -0.066101251519372781 -0.45420163281764564 -0.19832961304391131 -0.056766936829945894 1.7891851736938593 -0.31324132585124503 0.49102096745562557 0.55579836897546808 0.1646244884722903 0.11818220811753292 -0.38039636809579752 -0.0028917883639083494 -0.061077353981861295 -0.86916907816517119 0.33075576578931343 -0.10154092922591829 0.86273020429280145 1.1450299441591001 -0.45742129559999828 1.4400225675765144 -1.5041492662767737 -0.83824233797152647 -0.48207141374953844 0.0088672533270948515 0.33281665929287912 -0.37638019865274558 -0.27918780082852207 0.11247579733255121 -0.30802174480435268 0.71207145076666434 0.032956407508883359 0.017255952555138853 -0.93168618553655491 -0.3034192591740687 0.304632144426837 -0.57579644123377638 -0.18443053844468818 -0.78707090450969686 -0.18865094866253587 0.96632533850451841 0.71343010655353523 0.099711033515890363 -0.90068226793476569 0.29033668879286245 0.55902992209721269 0.60328930822821802 0.35673392400825893 0.3095619461499885 -0.38385493835734757 0.88105870517199381 -0.11203528750853034 -0.21463912238042729 -0.056055096700179843 0.20826951904615149 0.022372138218454254 0.50510291798304074
decision_type=2 2 2 2 2 2 2 2 2 2 2 2 2 2 2 2 2 2 2 2 2 2 2 2 2 2 2 2 2 2 2 2 2 2 2 2 2 2 2 2 2 2 2 2 2 2 2 2 2 2 2 2 2 2 2 2 2 2 2 2 2 2 2 2 2 2 2 2 2 2 2 2 2 2 2 2 2 2 2 2 2 2 2 2 2 2 2 2 2 2 2 2 2 2 2 2 2 2 2 2 2 2 2 2 2 2 2 2 2 2 2
left_child=1 2 9 4 12 24 25 10 11 23 14 29 20 68 44 -5 79 31 19 21 50 35 28 -1 -6 26 27 41 97 84 -22 38 86 98 72 -16 -35 -11 90 105 96 42 -2 -43 45 -7 -32 48 -48 -39 -4 91 85 -17 -55 56 80 58 -57 63 -53 88 75 64 65 67 -66 -9 -10 -51 74 -34 104 -49 -71 -63 108 -54 -23 -13 -21 -24 102 -84 -3 -52 -33 -67 -42 -88 -18 -46 93 109 -89 -78 -38 -20 -28 -64 -101 -19 -30 -104 106 -40 -26 -108 -44 -93 -109
right_child=6 8 3 15 5 7 -8 59 13 37 -12 16 -14 -15 18 53 17 101 22 55 30 78 81 -25 34 -27 33 -29 82 -31 46 32 71 36 -36 -37 40 49 39 -41 61 43 76 -45 51 -47 47 73 -50 69 52 60 77 54 -56 57 -58 -59 -60 -61 -62 62 99 -65 66 87 -68 -69 -70 70 -72 -73 -74 -75 -76 -77 95 -79 -80 -81 -82 -83 83 -85 -86 -87 89 94 -90 -91 -92 92 -94 -95 -96 -97 -98 -99 -100 100 -102 -103 103 -105 -106 -107 107 110 -110 -111 -112
leaf_value=-1.1579722722704455 -1.1965321306448806 -0.90295948932005166 -1.1845070656057974 -1.2379688871658978 -0.95003242965611634 -0.89947675432793761 -1.229868978313075 -1.1624223792992983 -1.033824325577376 -1.2552376247095911 -1.2164957428632186 -1.2086817596525958 -1.2352113428261082 -1.2592223517138375 -0.97306661632498337 -1.192168193843919 -1.1727168197551858 -1.1969278939335513 -0.87346086458185468 -1.0914356334673661 -1.1758605868421197 -0.88775111988284583 -0.96812522885632957 -0.94530775793444832 -1.031307176991205 -1.238356959129717 -1.2125005270005322 -1.2007273024401073 -0.83226525604128943 -1.1877190418687897 -1.166812260205442 -1.2642600020482715 -0.89733158666101698 -1.2252531720916668 -1.2353510850748288 -1.2642600020482715 -1.2017182966237139 -1.2294174287108266 -1.2054247077565881 -0.97739825374768663 -1.1035326674716308 -0.99247825553499736 -1.0628178634526577 -1.1707539901340334 -1.1297545029890754 -1.1493541473588245 -1.2056653128807322 -1.2642600020482715 -0.9059887411876143 -1.2301015200435335 -0.99220574889377189 -0.93668297721532179 -1.0161893249857132 -1.0323149769704152 -1.2642600020482715 -1.1405828867547148 -0.87984978478104603 -0.8317179081815671 -0.85830232533366879 -1.2642600020482715 -1.2320714249963749 -1.0076568621990942 -0.87548342313876903 -1.1374933124544848 -1.0317491961265337 -1.0572393956190527 -1.223076479569734 -0.94392382513034623 -1.1892891327719037 -0.90341128551284866 -1.1615419620892611 -1.1393425329238196 -1.2041268333827164 -1.0153682391299275 -1.1692035873811588 -1.1800255657594119 -0.90502843802183008 -1.1966763973904868 -1.0864572389858693 -1.0147237514785854 -0.9543446716958679 -1.2642600020482715 -1.1697638823646095 -0.87903562101848942 -1.0630503767665433 -1.1082539924252581 -1.1398691939598486 -0.88698674430657987 -0.85682845696482179 -0.96231512894865601 -1.0644848747338449 -1.0014358074838463 -0.90646862748014845 -0.907978019834349 -1.1077178190306067 -1.1003989620335051 -1.0273220724351086 -1.0678560833290374 -0.97998425967990832 -1.1576888948647051 -0.98798189984737006 -1.0631830006845697 -1.0790387825083101 -0.78185532751381248 -0.96598610070625179 -1.1356486618586827 -1.0707059664132645 -1.1965443079586375 -1.2642600020482715 -1.2291497559780702 -1.0389408258275936
leaf_weight=19.465678691864014 74.673314094543457 28.63215970993042 34.58953595161438 78.694372832775116 32.921407580375671 10.08312773704529 474.59528231620789 15.801559805870058 22.945012032985687 101.9175973534584 14.438709557056425 148.9045142531395 31.655127823352814 182.53331607580185 5.5262013673782375 25.510222136974335 20.089732468128204 122.91091752052307 8.2353983521461505 15.96196812391281 13.00261741876602 14.043093323707582 6.2102738618850708 34.595988750457764 58.22294944524765 53.248899579048157 26.648425817489628 199.01029884815216 252.76987677812576 9.0102640986442548 9.436227083206175 7.4009963870048514 25.060447275638584 11.786897599697111 15.904072463512419 17.975910425186157 18.378516674041752 46.184685349464417 54.701631247997284 12.822051405906675 4.2908337116241482 39.754632651805878 11.411949694156649 22.126521646976471 5.1273313760757437 20.00635701417923 3.9233036041259757 4.6047150492668143 59.673450171947479 13.45989292860031 42.249799907207489 6.3159582018852234 10.193596184253691 47.57363623380661 6.9580466151237479 7.4349973201751709 87.310827732086182 83.972847580909729 7.9278869628906232 5.4491685032844535 7.1418116688728315 13.438149392604826 10.643453896045683 19.947924137115479 35.593404591083527 11.104438304901121 11.163919031620024 10.764539182186125 21.464247405529022 12.741337001323702 15.666121423244475 5.5208792686462393 15.291710734367369 44.334405124187469 4.8368067741394034 21.832852721214294 12.79869467020035 27.211896300315857 10.343360304832457 6.448735535144805 52.665408968925476 4.4899997115135175 4.8654856085777309 14.918886661529539 12.567650794982908 26.524142265319824 16.632762730121616 45.699917197227478 15.7984162569046 10.658854842185972 120.82534807920456 6.9973696470260638 100.23165553808212 15.485582768917082 4.4055490493774405 8.4175502061843854 9.7023197412490827 12.875162184238432 4.0433410406112662 8.6284082531928998 30.78686249256134 11.432672739028929 9.9290893673896807 9.5307847261428815 16.185056209564209 123.33319973945618 93.828555941581726 30.553667426109314 7.0361273288726798 6.5475119352340698 9.1823644638061506
leaf_count=61 235 72 111 262 88 25 1544 50 66 342 46 503 104 598 15 82 64 407 20 48 42 35 17 91 169 172 91 653 587 29 31 25 63 39 55 62 62 153 185 34 13 108 33 69 16 63 13 16 152 45 116 16 29 136 23 23 213 196 19 18 23 38 26 61 103 32 38 28 70 32 49 17 52 125 15 72 32 88 31 18 139 16 15 36 37 81 53 112 38 29 356 19 251 39 13 25 28 38 11 28 85 34 29 21 44 388 283 102 24 22 27
internal_value=-1.09861 -1.06797 -1.02554 -1.0042 -0.987298 -0.965924 -1.18181 -0.936555 -1.15455 -1.17281 -0.917201 -1.13137 -1.07431 -1.22982 -0.911832 -1.17013 -1.14141 -1.12409 -0.89541 -0.928338 -1.05584 -1.08184 -0.864584 -1.02188 -1.07163 -1.14408 -1.13497 -1.16072 -0.856799 -0.994131 -1.00708 -1.1033 -1.03182 -1.08007 -1.08836 -1.19579 -1.05856 -1.2147 -1.11737 -1.14502 -1.04385 -1.11554 -1.14765 -1.05622 -0.969696 -1.06562 -0.989089 -0.974187 -0.924476 -1.17022 -1.10259 -0.950174 -1.0759 -1.10342 -1.06191 -0.899541 -0.926667 -0.856957 -0.994914 -1.03571 -1.09344 -1.01784 -1.04335 -1.02765 -1.01136 -0.976171 -1.07743 -1.07389 -1.10896 -1.11167 -1.06372 -0.941022 -1.07789 -1.03879 -0.976547 -1.11435 -1.05561 -1.14749 -0.972031 -1.20063 -0.986231 -1.09239 -0.847024 -0.950533 -0.951794 -1.03696 -1.11185 -0.93376 -0.909522 -1.07052 -1.07992 -0.935827 -0.928135 -1.00294 -0.906395 -0.982542 -1.14146 -0.992021 -1.18187 -0.993314 -1.02513 -1.18555 -0.839501 -0.933488 -1.06861 -1.15709 -1.07727 -1.09731 -1.13965 -1.11151 -1.16012
internal_weight=0 2930.28 1966.39 1717.52 1558.78 1251.38 1079.05 979.293 963.895 248.868 819.363 736.953 307.399 226.943 804.924 158.736 686.743 531.389 626.987 303.163 275.744 47.8886 323.825 54.0617 272.09 604.456 551.208 375.229 313.125 50.2101 134.975 397.046 65.2739 175.978 239.168 23.5021 145.287 194.806 331.772 190.857 133.5 176.219 114.338 61.8812 177.937 30.0895 121.972 112.536 63.5968 92.8888 140.769 147.847 106.179 80.0419 54.5317 255.274 155.938 99.3357 15.3629 159.93 13.4578 105.419 85.3297 154.481 134.533 87.776 46.7573 26.5661 44.4093 46.7042 33.2443 30.5813 223.264 48.9391 17.5781 35.271 39.6643 37.4055 24.3865 155.353 68.6274 10.7003 292.014 19.7844 41.1998 68.7739 34.6926 61.2099 20.0892 27.2916 140.915 134.389 129.262 29.0305 50.1055 21.2162 28.0808 21.1106 30.6918 50.0587 39.4153 134.344 272.23 19.4599 207.973 178.035 191.788 133.565 18.4481 13.5449 39.736
internal_count=12028 8602 5554 4766 4263 3355 3426 2535 3048 788 2080 2314 908 734 2034 503 2176 1655 1560 781 804 143 779 152 820 1882 1710 1179 746 138 379 1214 187 531 732 77 429 636 1027 607 390 526 349 177 474 88 337 306 165 294 425 386 314 241 159 638 400 238 42 455 39 300 249 437 376 235 141 78 136 141 96 80 677 141 47 110 114 117 66 521 187 33 688 51 109 197 107 157 51 82 420 347 331 80 125 57 90 58 102 139 113 441 637 50 625 573 581 412 57 41 129
is_linear=0
shrinkage=1


Tree=1
num_leaves=112
num_cat=0
split_feature=2 2 3 6 1 7 5 8 3 7 8 5 3 8 1 3 5 5 8 6 3 5 7 2 2 6 5 1 8 3 6 2 8 3 6 1 8 3 2 3 5 3 5 5 5 8 5 3 6 1 6 1 8 1 3 7 2 1 6 5 7 1 3 3 3 2 2 2 5 6 1 6 1 3 3 1 1 7 7 3 6 2 8 1 8 5 8 7 3 5 3 1 7 8 2 6 8 1 6 7 2 1 5 5 5 7 1 8 5 5 2
split_gain=991.644 352.811 103.65 86.7799 64.0275 40.6404 44.5893 57.4953 45.6615 40.618 38.2468 32.0988 28.4272 29.8407 26.3673 29.8224 22.9296 20.7006 18.5872 15.3471 13.4575 13.3176 11.6204 11.004 10.6742 13.2952 10.3999 10.3212 10.2023 10.0334 11.3229 11.1554 9.78652 9.71453 9.52661 8.80373 8.27697 8.13161 8.01703 7.95959 7.75659 11.9866 9.59829 7.47212 7.43169 9.42583 7.13365 14.9569 6.40616 6.34456 6.3384 5.97078 5.89416 9.26861 6.06305 8.18963 6.80938 5.84545 5.80026 8.39639 5.69547 9.70588 5.62652 5.51978 5.5196 5.51847 5.46308 9.26932 7.0047 5.36694 5.97968 6.81466 5.93571 5.28768 9.76744 5.06396 5.02893 4.95204 4.9401 5.66179 4.91431 4.87805 7.56555 5.27429 4.78995 8.18719 4.76807 4.75361 4.60733 5.37515 6.92826 6.77654 4.80592 4.58734 4.52794 6.07393 4.52129 4.7622 5.09702 4.50564 4.39214 4.39039 4.38801 4.30371 4.26446 5.09621 4.1912 6.87062 4.56785 7.3787 4.74182
threshold=-0.094042825879823891 0.12726892973051288 -0.31359791914619195 0.79435644470319922 -1.1689999103022439 -0.7898885014754945 -0.45420163281764564 0.31205294177183124 0.39484504696965478 1.2640982987540974 0.65614498026679313 -0.19591279402456904 -3.117957428889472 0.24563224841175305 -0.69798022466282872 -1.4267960990825099 -0.62712516652415606 0.15476935752074714 -1.3604882975182353 0.85127535004771626 0.22575035471062288 0.88740398617276728 -0.40564494408392587 -2.1309301696201879 -1.4295520801862065 0.54263368965439418 -0.97855282350707351 1.3333885976935036 -0.18373735651535303 -1.3486503604177822 0.29170726406357844 -2.2668176130820861 0.2977018077378093 0.37281283858664915 -0.59210243007462959 1.4182005532344875 0.26215987733163942 -0.15601798287018978 -0.0076712230298468494 -3.4485545826466284 0.26853358507638853 1.1450299441591001 0.75976686254544756 0.3805259745800959 0.14493593030412683 0.26215987733163942 0.3618294522226142 -0.073873911471607587 -0.24597516689112761 -0.10154092922591829 0.58352665803215753 0.21904261544262874 -0.080192399073417089 -0.29664733539345861 -0.31359791914619195 0.19314195989568436 -1.8525762430855652 -0.59252829666292983 0.33765147184559779 0.66909948789736839 0.60227957182333036 -0.36906420278921409 0.73346806427640032 0.4781501500514575 -2.6241270834131982 -0.81884692182341656 -0.11637592503913018 -0.26156430457505325 -0.45420163281764564 0.67176752862413636 0.25374063434388033 0.32838387160211163 1.2538207571191531 0.0084330049819298005 -0.088520656049609334 0.41288376088839551 1.0834611210597076 -0.68607316409626284 -1.7352760837790058 0.11454822168803951 -0.61308794138245559 -2.6643497387837685 0.62936062042873187 0.82986584906765448 0.21756987677989206 0.73564089513762565 -1.0047610849758872 -1.2161228300913931 0.88105870517199381 -0.38794929344972112 -0.15601798287018978 0.21904261544262874 -0.52670248424231414 -0.33089092519345126 -1.9208737622784475 0.54728494188496268 0.60328930822821802 0.67044861860716443 -0.53726495739588553 -0.19036597573634512 -2.8674379987720218 -0.71448058925189339 0.25771198327255301 0.61034821248364468 0.40635579319730947 -0.23897913405130222 0.3605100079490195 0.24563224841175305 -0.15106281817843598 -0.10091557548542614 -1.5550322236187122
decision_type=2 2 2 2 2 2 2 2 2 2 2 2 2 2 2 2 2 2 2 2 2 2 2 2 2 2 2 2 2 2 2 2 2 2 2 2 2 2 2 2 2 2 2 2 2 2 2 2 2 2 2 2 2 2 2 2 2 2 2 2 2 2 2 2 2 2 2 2 2 2 2 2 2 2 2 2 2 2 2 2 2 2 2 2 2 2 2 2 2 2 2 2 2 2 2 2 2 2 2 2 2 2 2 2 2 2 2 2 2 2 2
left_child=4 2 57 5 37 11 7 16 27 12 14 20 17 40 21 32 26 87 48 23 35 -3 34 36 29 51 -7 93 73 31 49 -15 64 -20 -18 -4 58 -1 -9 -34 41 66 62 -5 -17 -46 -12 -48 78 -31 -47 63 53 65 55 -54 -56 -2 -19 -60 61 -10 -42 -26 104 77 67 68 -14 70 -33 -72 -71 74 -28 -25 80 -44 79 -13 101 82 -32 -84 -59 102 -70 -6 89 -88 92 -92 -91 -8 -83 -96 97 -40 -99 -79 -38 -30 -86 -52 105 -16 107 108 110 -110 -89
right_child=1 10 3 43 9 6 8 38 60 -11 46 18 13 24 15 44 22 19 33 -21 -22 -23 -24 75 25 -27 28 -29 76 30 81 69 39 -35 -36 -37 100 -39 96 -41 42 -43 52 -45 45 50 47 -49 -50 -51 103 -53 54 -55 56 -57 -58 84 59 -61 -62 -63 -64 -65 -66 -67 -68 -69 86 72 71 -73 -74 -75 -76 -77 -78 99 -80 -81 -82 94 83 -85 85 -87 88 106 -90 90 91 -93 -94 -95 95 -97 -98 98 -100 -101 -102 -103 -104 -105 -106 -107 -108 -109 109 -111 -112
leaf_value=-1.1409667783596902 -1.1138160633332388 -1.1763104665940229 -1.1075988286945777 -1.2131744612584503 -0.81680668433261894 -0.98779490868587239 -1.2014843284671024 -1.1515656667290055 -1.1151392203177735 -1.160323349819592 -1.1631339164066554 -1.1764393468746563 -0.80925445602213131 -1.136469987851358 -0.82767637355055457 -0.95059114963006053 -1.003039830202338 -0.7875381203468157 -1.2073884194049862 -1.1809422315449505 -1.0030529852703929 -0.93344192147864891 -1.1784572545745269 -0.90038718551050712 -1.1449367020936985 -1.1589466087777327 -0.94399815351322902 -1.1219368959185012 -1.2272141390774511 -0.90892434368417507 -0.93292450072330868 -1.0688430438708887 -0.93526258114128291 -0.98081834419534641 -1.1447204745003832 -0.95316085682853169 -1.1859367895600104 -1.016396609186685 -1.2046246762077641 -1.1672041969201001 -0.89279999188851633 -0.85416569937198039 -0.88400792860307753 -1.2595495370453962 -0.81363481851663133 -0.87053754156169316 -1.1810664773212876 -0.86341877120770616 -1.0616216415655826 -1.0856029094105484 -0.90669642139933904 -0.96324982171425577 -1.1217528882598591 -0.81878112771364364 -0.79457937095898101 -0.88658120786251349 -1.0281557899282827 -0.87341073005709258 -1.0742097690280943 -0.87039341866507036 -1.1724815551062555 -0.89527917192245399 -0.97258880288653637 -0.93344192147864891 -1.0314603026228568 -0.83342393121228242 -1.1460796440052665 -0.82402960488125343 -0.89430472807214989 -0.99707125013807696 -1.0662486368990272 -0.92923314754984154 -1.2642600438825251 -1.0040689219335379 -1.1589101638923389 -0.84709906394230561 -0.98719077889593432 -1.0853409527657771 -1.1951931764794117 -1.0345263681715244 -1.178696856522444 -0.89011567404285863 -1.2359787214311295 -0.98772499076240872 -1.0397177247893536 -1.1095181254634359 -1.1912518832899481 -0.99259661306888181 -1.0916876734201848 -1.0905039214120051 -0.86203495977004219 -1.0471640069026185 -0.993988639666744 -1.2291108704228078 -0.87924964967240915 -1.0916876734201848 -1.2313215184422266 -0.97240115659933335 -1.1643919815225927 -0.90110708595671052 -0.99492031720458252 -1.0955454772980568 -0.87478478502492574 -1.0881697707891562 -0.85139971620583255 -1.0574024462535057 -0.9464655848398329 -1.1199708101499901 -0.76731680220403276 -0.98553424864262296 -1.1573885442051919
leaf_weight=65.183684438467026 5.5262013077735892 18.905917406082157 192.81697684526443 141.04420897364616 4.6450859308242789 31.57551521062851 275.9107418358326 70.084644496440887 8.3628533780574852 27.996301531791687 28.774393916130066 14.200246930122377 5.481583595275878 23.854805886745453 3.8085882663726798 30.480908304452896 21.748401552438736 7.5571577847003963 151.05890163779259 4.9892315864562979 49.334224581718445 9.2147520780563337 137.26751959323883 87.965542256832123 12.773724466562273 28.946040719747543 8.2205070257186907 32.128367990255356 7.4806624054908744 7.0191403925418845 17.564327687025074 20.562973827123642 5.4752136468887356 5.3774850070476523 32.456120789051056 10.689628988504408 5.3073875010013571 18.448104202747345 74.352631509304047 15.704396367073057 137.27326714992523 20.272986769676208 6.5592039227485648 294.15933033823967 57.808621942996979 28.15464249253273 8.3278046250343341 7.9507055580615988 44.446940392255783 27.145506352186203 6.5878827273845655 25.778464764356613 19.44659593701363 13.374931544065474 5.6053299009799948 5.1363623440265647 8.8031421303749067 20.916688293218613 9.4781835973262805 13.368561595678328 4.5292951166629782 16.147856056690216 29.454275637865067 4.6073760390281668 22.617852628231049 5.7890949547290829 5.8623914718627921 9.4425969719886762 10.861729741096495 4.6673947870731336 13.295775026082991 39.704691469669342 4.4629064202308655 45.266479402780533 19.72910937666893 110.27693104743958 8.0016932189464551 17.812358170747761 28.087206274271011 16.888210624456406 32.388684421777725 51.108147412538528 4.8994863629341108 4.509647399187088 6.1709505021572175 8.954519569873808 3.7958483695983878 18.362067788839344 16.058648705482483 17.544170171022415 18.602652579545978 7.6591331064701071 73.313880294561386 409.98549222946167 6.8380364775657645 8.0293243527412397 164.06302714347839 5.222398757934573 13.874701321125029 4.5786972343921652 8.7457845211029035 97.733769059181213 15.653918504714964 7.8689158260822296 12.753538876771925 8.708074629306795 40.113612353801727 13.444491326808928 5.5766510963439933 17.896809041500099 6.4827364683151201
leaf_count=173 15 51 606 462 16 102 688 207 24 93 92 45 19 65 13 99 69 27 379 16 157 30 360 296 35 75 28 101 23 24 57 61 17 17 90 37 13 55 213 41 455 69 22 956 203 97 22 28 139 87 22 83 53 47 20 17 27 71 28 45 14 54 94 15 66 20 16 33 35 14 44 130 13 140 59 381 26 52 76 54 85 171 13 15 21 24 9 55 44 47 62 23 223 1059 23 22 519 17 40 15 27 280 54 24 43 26 136 42 20 55 16
internal_value=-1.09861 -1.15291 -1.17228 -1.1774 -0.97363 -1.163 -1.17664 -1.14865 -1.20546 -0.963285 -0.974087 -1.1227 -0.958283 -0.976579 -0.946538 -0.925418 -1.10966 -0.919621 -1.16356 -0.89336 -1.08067 -1.09673 -1.15281 -0.887448 -1.01638 -1.07209 -1.07666 -1.2137 -1.08949 -0.999185 -0.967758 -1.03668 -1.01348 -1.1996 -1.08787 -1.09949 -0.96193 -1.11349 -1.20124 -1.10724 -0.949092 -0.974509 -0.930178 -1.24452 -0.878951 -0.857206 -1.11356 -1.02592 -1.10915 -1.0493 -0.916317 -1.01384 -0.974742 -0.935952 -1.02261 -1.07262 -0.937288 -0.951886 -0.913337 -0.954949 -1.00183 -0.970294 -0.906896 -1.08887 -0.972017 -0.981064 -0.988977 -0.983319 -0.993129 -1.00789 -0.993022 -0.963605 -1.12767 -1.03905 -1.0957 -0.870744 -1.11485 -1.01059 -1.14484 -1.09935 -1.12228 -0.937785 -0.997134 -1.11699 -0.934576 -0.976142 -0.999947 -0.980684 -1.00832 -0.997252 -0.990965 -0.916027 -1.01263 -1.218 -0.913521 -0.99398 -1.21476 -1.18567 -1.11189 -1.04767 -1.06706 -1.10491 -0.921419 -1.00547 -0.918813 -0.987501 -0.988156 -1.01523 -0.98609 -0.933692 -1.0356
internal_weight=0 2795 2521.86 2464.63 1214.33 2029.43 1516.53 769.466 747.065 1130.7 273.142 512.9 1102.71 748.497 228.089 199.969 441.868 354.21 260.059 247.689 252.841 28.1207 191.472 242.7 305.768 72.1056 250.396 718.025 218.821 233.662 127.114 106.549 69.0677 156.436 54.2045 203.507 44.4571 83.6318 327.597 21.1796 442.729 188.896 253.833 435.204 130.901 100.42 45.0529 16.2785 103.623 34.1646 42.6114 43.1596 87.1057 48.1143 38.9914 24.583 14.4085 57.2223 30.4039 22.8467 29.04 24.5107 166.728 17.3811 47.8881 34.7394 168.623 162.76 153.318 82.6937 73.5634 53.0005 9.1303 73.2161 27.9496 198.242 145.605 28.9503 59.1757 31.0885 137.603 92.949 26.9735 9.40913 51.6961 30.7794 147.836 106.521 136.974 120.916 117.12 26.2618 90.8581 685.896 65.9755 14.8674 257.513 93.4497 19.0971 22.3911 14.0532 105.214 21.8249 14.4568 25.2702 12.5167 101.876 61.7628 48.3183 23.4735 24.8448
internal_count=12028 8185 7311 7126 3843 5708 4198 2258 1940 3615 874 1510 3522 2349 732 651 1262 1173 710 833 800 81 519 817 947 208 743 1848 641 739 412 327 206 396 159 643 140 228 996 58 1402 580 822 1418 445 346 142 50 314 111 143 133 273 156 117 70 47 185 100 73 92 78 549 50 148 109 511 495 462 262 235 174 27 227 87 677 414 89 175 99 388 301 85 28 170 99 443 340 408 364 355 85 270 1747 216 45 789 270 57 67 40 303 75 46 82 39 324 188 146 75 71
is_linear=0
shrinkage=1


Tree=2
num_leaves=112
num_cat=0
split_feature=6 0 0 7 5 2 5 3 0 6 2 7 5 2 2 2 5 3 5 6 5 3 0 2 2 6 0 6 3 2 6 1 2 3 3 1 6 2 0 2 6 5 6 5 5 0 1 3 7 2 6 6 0 2 1 5 2 5 6 0 5 0 7 7 7 6 3 7 6 6 2 2 5 6 7 6 0 1 7 7 5 2 5 0 2 5 0 7 0 0 3 3 7 6 1 3 2 0 3 3 1 5 7 0 6 6 5 7 6 2 5
split_gain=1740.89 557.03 230.965 113.749 104.07 71.8035 64.2664 49.139 48.5944 46.15 43.3671 31.2936 26.3054 24.8699 24.7839 23.1229 22.7522 22.7161 20.0614 18.1669 36.9754 16.6581 16.2095 16.5239 15.5147 14.4331 30.9115 13.7122 19.5371 13.2205 13.0363 12.9676 11.7246 11.5536 11.4348 11.169 16.7559 13.1279 10.8111 10.6076 10.2751 9.98035 9.66854 9.34851 9.22899 9.06434 8.89442 8.70995 8.62248 8.41398 8.32228 7.7575 7.41361 7.30938 6.99604 6.95469 6.76205 6.52105 6.40777 8.18004 7.40693 7.26981 6.05051 5.98774 5.91506 7.12434 5.77133 5.68382 5.65309 9.751 5.62819 9.37858 5.51583 5.8674 5.82282 5.382 5.36599 5.28059 7.28959 5.27289 5.25115 5.24268 4.94288 4.82693 5.57885 4.78705 4.76676 4.95232 4.71497 4.69383 4.69076 7.35976 4.66546 4.65761 7.0651 4.60746 4.55708 4.51691 4.49049 4.45061 4.4068 5.67153 4.356 4.36813 4.3086 4.16998 15.3922 7.51405 7.40379 4.03103 4.0164
threshold=0.74750258610821008 -0.72508378663122752 1.7805138625899495 0.7678036032686032 -0.5706974838024671 -0.0076712230298468494 0.27943907300594478 -0.18443053844468818 -0.48309961596465051 0.65718627450703926 -0.11637592503913018 0.71042894069142648 -0.46755720337212564 0.12147577608281557 -0.016513458143416395 -0.08709063695275103 0.39366462298706523 0.23147051042681538 0.072024392989596162 -0.081593623769716142 0.23440364417059442 -0.019715020961861545 -0.46174456751255688 -0.029555931926484695 0.07981568113305286 0.58352665803215753 0.15451621677768171 -0.49320910921882 -0.46933336594201719 -0.031025725355992496 0.092409535745046317 -0.070872969153104273 0.12726892973051288 -0.15601798287018978 -0.046268727973180997 0.032215680487138708 0.54263368965439418 0.080767682710967667 1.4482542563070375 -1.5230361695126415 0.85127535004771626 0.70480197317692728 -0.15246482340657092 -0.46755720337212564 -0.23407168134707521 0.3132799351660297 0.96653444670381028 -2.3195115769434813 1.2640982987540974 0.10035428238943321 -0.80467535304013715 -0.52191932020053178 -0.50390537112661016 0.010405447616986802 -0.061077353981861295 0.43035288664895938 0.043524345761206909 -0.018374287361958296 -0.72043800034663452 -0.21566061315533347 -0.81261812791931542 1.4482542563070375 1.0637152304262008 0.27190146499985207 0.42285262982098476 -0.060557639614974845 0.11635550808952912 -0.097173616761315335 -0.44223102761499417 0.44027222312163916 0.085400166910874264 0.09081574248622927 -0.49624012036272253 -0.83400193305452197 0.48249316616348759 0.53347455740635563 0.62254664992943343 0.46211238242468594 0.98672870522456579 0.27190146499985207 0.43908978152878037 0.021516994388052556 -0.78098390682183572 2.1684688384489337 0.013978421120132851 0.21246739765159331 -0.23244937191620649 0.22216716866348138 -0.16713211117354634 1.4482542563070375 0.13148944406794508 0.20920160753389591 -0.1229839418110522 0.45710222191947508 0.74043272775953295 0.010989823998147252 0.04255763134452966 0.43095208683608854 0.10542162308585791 -0.10092959129231403 1.8118787084304577 -0.15803120681770746 0.75631989209641481 -0.97731165335757553 0.85127535004771626 -0.10943387396844804 0.16441360270539512 0.53648681525596509 0.17955646876143228 0.10783323778682401 0.59529804718390344
decision_type=2 2 2 2 2 2 2 2 2 2 2 2 2 2 2 2 2 2 2 2 2 2 2 2 2 2 2 2 2 2 2 2 2 2 2 2 2 2 2 2 2 2 2 2 2 2 2 2 2 2 2 2 2 2 2 2 2 2 2 2 2 2 2 2 2 2 2 2 2 2 2 2 2 2 2 2 2 2 2 2 2 2 2 2 2 2 2 2 2 2 2 2 2 2 2 2 2 2 2 2 2 2 2 2 2 2 2 2 2 2 2
left_child=1 4 3 5 14 22 29 40 16 12 -4 15 21 -11 102 68 50 18 49 38 30 24 23 110 72 46 31 53 -29 39 67 -27 35 48 -26 36 37 -22 44 42 55 45 -5 -19 70 -9 89 -28 93 90 63 -35 -25 -17 -30 -2 -52 66 59 -23 -61 64 -44 -7 65 -60 76 -21 -6 -70 98 95 73 -10 92 -8 -47 -53 -79 -55 -34 -40 -16 -45 -85 -48 -57 -88 -46 105 -12 -92 96 94 -13 -72 -75 -49 -14 -31 101 -32 -1 -104 -43 107 108 -24 -107 -58 -3
right_child=7 2 10 6 11 8 75 41 9 13 17 33 19 -15 82 27 -18 43 -20 20 32 58 25 52 34 26 47 28 54 99 100 -33 80 51 -36 -37 -38 -39 81 -41 -42 104 62 83 88 57 85 97 -50 -51 56 77 -54 79 -56 86 109 -59 61 60 -62 -63 -64 -65 -66 -67 -68 -69 69 -71 71 -73 -74 74 -76 -77 -78 78 -80 -81 -82 -83 -84 84 -86 -87 87 -89 -90 -91 91 -93 -94 -95 -96 -97 -98 -99 -100 -101 -102 -103 103 -105 -106 106 -108 -109 -110 -111 -112
leaf_value=-1.0661334814383119 -0.88265542683169462 -1.1482914172975778 -1.2360485627708637 -1.1812572440137248 -1.2441060527301029 -1.0195054562846804 -1.0799034512138852 -0.7973567608631521 -1.0009673088702198 -0.84729497000461751 -0.92306778049759375 -1.0698280998144256 -1.1796372067882277 -1.1567981630067388 -0.79477389517746144 -0.94753230329973404 -1.1789525849050531 -0.93516744960379383 -1.1167930634198833 -1.1718441183717152 -1.1850966628356105 -1.0364608313374037 -1.2379568161158512 -1.0639031920610464 -1.1095392155540094 -0.95963769216073735 -1.1238357629377886 -1.1767379044223925 -0.82255921971673851 -0.97252401172399872 -0.86399032149011357 -1.2213244116210482 -1.1600341864503547 -1.0347254263025902 -0.87313202521836597 -1.2112053678982073 -0.90436307622966738 -0.9843286391776932 -0.98630190874401535 -1.120885278859032 -0.86607703472993103 -0.8512771729175761 -0.97624234583127512 -1.1901584603561046 -1.1436741576201073 -0.99639700989478208 -1.1401663544720717 -0.99505194960706222 -0.90241603859907138 -1.1288049043759083 -1.1035759301193246 -0.81207581174970067 -0.79971822176330409 -1.2290056834326175 -1.0661539326305201 -1.1722035765531895 -0.93500512336806318 -0.82984306125935814 -1.1964843317187752 -1.2016636279449584 -1.0861202501885301 -0.99973640286793652 -0.7956443004386915 -0.83394445662061178 -1.0766345716273338 -0.99885406650546638 -1.0291988978381055 -1.0389991134775154 -1.0668954639362809 -1.2335744252534577 -0.85665818394577165 -1.1786025707189904 -0.95911154028416523 -1.1456926634860913 -0.9606054773296252 -1.1970327221227246 -0.81588548968278274 -1.0490011069389826 -0.85517044477458792 -1.0755042986159276 -1.2413503655905251 -1.1491034297402187 -0.86172448963241854 -0.96265657460960341 -1.1832096132146643 -1.2191883075909404 -1.1407180468018687 -0.87358808107227559 -1.2431572162914768 -1.1586908155838667 -1.0264631971562843 -0.87358808107227559 -1.1944811789513883 -1.1472137013319559 -0.88703307317487723 -1.0903880792920202 -0.99019169153832476 -0.81521841869511036 -1.2313847474005566 -0.83319299992086648 -1.0971963632560744 -1.0140551988004713 -0.87182578923675591 -1.0660993867330237 -0.76991431431298141 -1.158369913689878 -1.2250089479197994 -1.0202145945199657 -0.99281701689624868 -1.07856169098475 -1.2104322000819168
leaf_weight=12.340853333473207 4.805466532707217 69.839840799570084 21.667149543762207 3.682180821895602 15.164793431758879 7.4923546314239529 14.920443832874296 126.00904992222786 9.286435127258299 19.057748794555668 118.24224889278412 20.434952914714817 110.15649619698524 11.376362681388853 82.350392371416092 8.6846901774406415 23.28757181763649 7.4296747446060172 21.761679321527481 28.110590726137161 40.538046270608902 24.150059223175049 551.92773255705833 9.1526100635528547 8.889178544282915 5.5182178914546958 10.882425129413607 6.9840916395187405 20.06631928682328 7.8572236001491538 9.5445443689823133 88.979491025209427 27.857747763395309 9.9864465892314893 15.237496227025984 46.085480690002441 9.7660193145275098 11.463984638452528 7.1471333801746395 12.790173172950743 10.745911002159117 19.241513848304749 10.611548066139223 20.622454702854156 13.940042346715925 6.8459919691085878 55.41542986035347 11.352978229522707 14.359041988849638 6.7689866423606864 19.02063262462616 20.614953309297562 4.2764802277088156 8.6693170666694659 3.8569147884845689 11.620146483182909 19.493281066417698 45.026802659034729 146.55718150734901 34.177980363368988 27.45092236995697 6.3547155559062949 9.7830058932304365 13.139613181352614 13.846022516489027 5.1820277273654929 10.401765346527098 12.889487355947493 27.099840968847275 14.940119475126265 4.1240551173686963 28.544509530067444 6.0094943046569815 18.043911874294285 4.5292951166629782 38.643010050058365 13.292038291692732 8.5189872980117816 14.194924652576445 21.049465835094452 100.05525001883507 22.559419423341751 47.8337282538414 7.0934845805168134 5.6563175618648529 33.904979884624481 3.7108596265316001 3.9116112589836121 210.00272551178932 28.950797200202942 32.774192780256271 11.734833776950834 35.03998589515686 10.444797515869139 8.1020550727844221 5.2733864188194275 7.2485708296298972 5.7853582203388205 79.021807461977005 31.550999313592911 10.061866372823713 25.041253358125687 10.124518334865568 4.6270237565040579 248.53822827339172 41.851438909769058 467.19395267963409 4.3832399547100058 9.0076025724410993 7.4063182175159445 48.262492328882217
leaf_count=38 16 218 74 13 41 23 51 411 31 63 389 66 284 38 268 26 69 25 66 76 105 75 1478 25 27 18 38 22 66 24 31 277 94 29 48 132 32 35 21 42 35 63 36 67 37 22 175 38 48 23 51 67 14 21 12 37 59 147 397 104 80 21 32 42 40 17 35 39 87 48 13 77 19 58 14 123 43 28 47 57 325 64 152 24 18 112 13 13 505 82 109 39 97 34 27 15 24 19 194 104 31 79 31 14 808 128 1478 15 30 23 143
internal_value=-1.09861 -1.14001 -1.16339 -1.17682 -0.9535 -1.18402 -1.02534 -0.810799 -1.15552 -1.16435 -1.01193 -1.02374 -1.16962 -0.962988 -0.849371 -1.07945 -1.03803 -0.991003 -0.967068 -1.18635 -1.15586 -1.13255 -1.20933 -1.15389 -1.07669 -1.21488 -1.16074 -1.01512 -0.932991 -0.927675 -1.06264 -1.20604 -1.18972 -0.957643 -0.960233 -1.14949 -1.10345 -1.14084 -1.20673 -0.998976 -1.00074 -0.796718 -0.934215 -1.10321 -1.2131 -0.824559 -1.22044 -1.00794 -1.01215 -0.947848 -0.988719 -0.903111 -0.979774 -1.08122 -0.861832 -1.06091 -1.02798 -0.869918 -1.15516 -1.11818 -1.1502 -1.17361 -0.889612 -0.90133 -1.18028 -1.18974 -0.929004 -1.13008 -1.1574 -1.12613 -1.18957 -1.13135 -1.11175 -1.12412 -1.14175 -1.16441 -0.877251 -0.872776 -0.927868 -1.12028 -1.22364 -1.10993 -0.819374 -1.14062 -1.0605 -1.17016 -1.10543 -1.00364 -1.23696 -1.22451 -0.940322 -0.986158 -1.15535 -1.05257 -1.01793 -0.987816 -1.10113 -0.934346 -1.20125 -0.860973 -1.00071 -0.972642 -0.993514 -0.932762 -0.775761 -1.22628 -1.21559 -1.23624 -1.12905 -0.974531 -1.17369
internal_weight=0 3505.18 3114.74 2860.98 390.448 2731.15 129.839 504.149 1284.46 1194.62 253.751 233.172 1164.19 30.4341 157.277 126.516 89.8398 232.084 191.282 802.184 321.414 362.003 1446.69 131.531 104.284 1315.15 122.518 69.3108 30.9073 76.2751 85.6477 94.4977 235.767 106.656 24.1267 107.854 61.7681 52.002 480.77 36.8669 34.794 469.355 24.0767 40.8019 451.063 201.576 1192.64 28.0208 53.3408 169.52 66.5522 53.3153 13.4291 38.4035 23.9232 24.0481 45.9202 75.5666 257.719 85.779 61.6289 171.94 20.3946 20.632 165.585 151.739 30.5398 41.0001 57.2048 42.04 227.12 37.942 80.1577 74.1482 64.8618 53.5635 20.138 43.3289 22.7139 29.7188 127.913 29.7066 130.184 33.3723 12.7498 89.3204 19.2426 7.62247 223.943 1103.31 162.751 44.509 60.3325 38.9818 28.537 9.39744 25.2925 17.1383 189.178 39.4082 44.6477 34.5858 27.0924 14.7515 267.78 1074.36 518.053 556.311 50.859 26.8996 118.102
internal_count=12028 10385 9156 8322 1229 7897 425 1643 3609 3342 834 726 3241 101 503 380 267 760 626 2189 979 1052 4288 400 318 3888 390 204 100 251 256 295 723 346 75 304 172 140 1210 123 114 1529 81 134 1125 658 3498 95 175 560 198 171 39 104 78 79 133 247 734 259 184 475 68 65 454 414 100 115 176 135 583 105 243 224 193 174 65 142 75 78 419 85 420 109 42 287 63 26 542 3211 537 148 179 127 93 28 82 57 478 128 141 110 83 45 871 3129 1636 1493 158 82 361
is_linear=0
shrinkage=1


Tree=3
num_leaves=112
num_cat=0
split_feature=6 7 7 6 6 2 9 9 4 7 2 4 7 4 3 4 6 7 3 3 6 6 6 6 6 9 9 6 8 9 7 4 2 9 4 8 6 7 9 7 6 9 9 9 8 9 4 3 7 2 4 6 2 2 3 4 7 4 2 9 4 8 7 3 6 8 7 8 4 4 4 2 4 9 6 3 6 7 7 3 4 8 2 4 6 9 4 6 9 4 7 8 2 9 6 9 4 4 9 8 4 3 2 6 2 2 8 4 6 6 6
split_gain=579.733 187.445 167.068 142.464 85.9698 88.5598 64.5059 62.4674 39.9218 34.7316 28.1023 24.2507 24.1789 20.4458 20.726 19.2762 18.1406 37.7373 19.1865 17.6152 17.597 18.0124 16.6609 16.0976 15.381 16.5342 14.1241 13.8415 13.6431 13.5133 14.0403 19.771 13.2542 13.11 13.1034 16.4234 16.5012 12.2624 11.6363 18.13 11.1182 11.7172 10.8245 10.3844 10.2778 22.795 12.3268 10.4035 10.3082 9.92118 9.73932 9.12609 8.74669 8.66924 8.48254 8.2638 7.69375 9.40093 7.50353 7.44038 10.0226 7.19493 11.7928 11.1975 9.33679 8.05664 7.41292 7.10537 6.97047 6.91698 6.87686 6.68508 6.52504 6.47561 6.40124 6.35724 6.18832 6.06677 6.04387 6.01372 7.42901 6.00809 5.88178 6.16391 5.79293 6.66093 8.03441 7.42586 5.78017 5.76483 5.72209 5.70694 5.69654 5.67602 5.56863 6.89818 10.1138 6.95655 6.6038 5.75293 5.56675 5.603 5.40602 5.39357 5.39272 5.58057 7.26105 5.36886 7.52583 5.3236 6.57746
threshold=-0.011590048939179398 0.40243316145080771 -1.2411667225696605 0.77771710494877755 -0.6900642186316791 -0.11637592503913018 -1.1683160872593834 0.50813064392040774 1.7891851736938593 0.6559070712414411 0.083220319320340616 0.72594085489036475 0.78008710039597517 -0.57944229264807767 -3.225342272643164 -0.77105222277830232 0.58786894937905532 0.31836889947220925 0.39484504696965478 0.39484504696965478 -0.68025588442167773 -0.41787310000135652 -0.38062504538204206 0.53771236141735546 -0.90263292446988397 -1.9646409946638899 -2.564874943643686 -0.14420804616515573 -1.8431531733513766 -0.050461153300759995 -1.6144637119245966 0.35790481062355167 0.061404277435294904 0.76500695122012785 0.71152526482789769 0.083087628699429025 0.46117053706447347 0.1646244884722903 -0.67570128228997095 -0.34425362479561905 -0.4580478112626104 1.0164492121579702 -0.24993688498102132 0.61549840858823301 -0.35895334998758871 -0.63337369778507879 0.16853160719456264 0.10864694572034338 -0.58982858656603343 -2.1309301696201879 1.0109555088155131 0.058341644400474853 -0.06911004689190399 -0.045938763057151992 -1.2536784832001506 -0.81429282448266493 -0.90816552565604858 0.54966792552201527 -0.31381031895273298 0.1468616030360311 -0.49276090487520124 0.49368636621656725 0.36319337694654769 -1.4267960990825099 0.54263368965439418 0.2977018077378093 0.17916485995136774 0.52758688650880659 1.4763975691806748 -1.4855587461675093 -1.0886140472046182 0.0071626613021367512 -1.4271282802747098 -3.549986239319221 0.46553575227349603 0.28131883493395188 0.44853150389173568 0.58199451671601621 0.29308300246258229 0.025085222021465851 -0.22352343280159107 -1.0313468028368091 -0.083472135624012483 -0.9891770701226601 -0.099688108876212142 -0.22602861145866507 0.23135094683030824 -0.3137744608862344 0.50813064392040774 0.081415958297044566 0.18535765019644254 0.41769057414647243 -0.013369467156871899 0.057079147445581103 -0.23558505041392566 -0.13548719270551521 0.086620676824078965 0.37303531330024936 0.14091266248214043 -0.35052689982703139 -0.50171612211394434 -3.0174023063566784 -0.0052678243939017497 -0.5625038037160589 0.044291606462819606 -2.0500843076534649 0.2977018077378093 -1.0434455326581114 -0.50150598129379664 0.39318694144662841 0.51771281968405958
decision_type=2 2 2 2 2 2 2 2 2 2 2 2 2 2 2 2 2 2 2 2 2 2 2 2 2 2 2 2 2 2 2 2 2 2 2 2 2 2 2 2 2 2 2 2 2 2 2 2 2 2 2 2 2 2 2 2 2 2 2 2 2 2 2 2 2 2 2 2 2 2 2 2 2 2 2 2 2 2 2 2 2 2 2 2 2 2 2 2 2 2 2 2 2 2 2 2 2 2 2 2 2 2 2 2 2 2 2 2 2 2 2
left_child=1 2 6 9 11 26 28 8 10 13 15 24 20 42 49 38 18 -18 33 22 55 43 44 -11 53 71 107 58 -1 30 -8 -32 -27 34 35 74 37 -37 69 -40 75 56 51 -22 45 -17 48 -48 -47 -15 104 -2 -51 -4 91 72 -42 -58 94 60 70 62 65 -64 -63 66 -38 -44 92 -7 -14 -26 -3 -53 -16 -9 -35 -69 81 103 -81 89 -23 -84 85 -12 87 -87 -39 -24 -41 -19 -33 -74 95 96 -28 98 -97 -99 -25 -102 -85 -46 105 -20 -107 -6 -109 -75 -111
right_child=3 12 4 -5 5 7 29 40 -10 23 84 -13 59 14 16 19 17 54 50 -21 21 82 78 100 25 32 27 -29 -30 -31 31 68 -34 76 -36 36 61 88 39 90 41 -43 67 -45 79 46 47 -49 -50 52 -52 73 -54 -55 -56 -57 57 -59 -60 -61 -62 64 63 -65 -66 -67 -68 77 -70 -71 -72 -73 93 109 -76 -77 -78 -79 -80 80 -82 -83 83 102 -86 86 -88 -89 -90 -91 -92 -93 -94 -95 -96 97 -98 99 -100 -101 101 -103 -104 -105 -106 106 -108 108 -110 110 -112
leaf_value=-0.01796157461216847 0.13529425575564691 -0.15989796811629595 0.10416520899382796 -0.15071807499077805 0.16879789812204826 -0.010045956876175729 -0.11554853238215951 -0.12023697769883764 -0.095416291894837676 -0.13955989136458724 0.13435927865340366 -0.12994718827808299 -0.079810970718703328 0.010697768492989389 -0.0021761662883154464 0.19572201664191155 -0.14630315847664715 -0.041675009074681545 -0.11351123898555011 -0.06006856390927947 0.0989764614304431 -0.12595668966177251 0.0019214356541231473 -0.13269178444927138 0.10217380060296365 0.059973543248369246 0.020659531860474607 -0.0841351821582728 0.14590773670682647 -0.14141374679041582 -0.15939245045331715 0.2275619024181248 -0.055530766077196612 -0.12361678443549434 0.08419520250475844 0.14030374525844744 0.18767015940178414 -0.064687550333790561 -0.12233794594440181 0.14405067480794312 -0.11343327270967166 -0.091911537404555446 -0.12766955207083616 -0.12822161512118585 0.093460895385023085 -0.10075553578107643 0.053166899684792872 0.18339674456243468 0.087259886464242639 -0.11006417744625108 0.19470471580534007 0.081799151089647359 0.0087627157256715549 -0.070962062930710931 -0.0169551350086494 -0.11401625433211378 0.021582028122680678 0.18157804949262771 -0.10942561614560727 -0.14178649539105667 -0.1552638727362779 0.045434009016207672 0.097313654911530253 -0.092198750857020659 0.27226543600537612 0.22513034351365188 0.035848868169389321 0.13861205168078772 -0.075887899883958457 0.19658212464591238 0.094682774731924768 0.2673113161629509 0.10956053154388069 -0.1062880345593035 -0.067505505636666102 0.049966639155724725 0.0036683886368211612 -0.095892813800250068 0.052962139215758534 0.24635066158844296 0.16883827704948914 0.21703767937642487 -0.16099775071960645 0.18090791920854535 -0.026430171735260018 -0.074927461406820717 0.11475584172234776 0.091049058094861482 0.075488792736920371 0.17707342879333512 -0.046269616455247742 0.15133566098802947 0.063545518153634017 -0.10857982535644352 0.099765854671347839 0.18430785703781746 -0.13326320663791394 -0.16408606918301735 0.040361174615746051 0.059044409735275652 -0.10583678846348368 -0.010764766112866401 -0.014149031913504959 0.18189926889721328 -0.14055465081145802 -0.043445762657313529 0.1445519861516914 -0.13089676381361381 0.10546433451898535 0.0061079498198515639 -0.10275250568603791
leaf_weight=20.318202435970306 7.5455154776573172 5.0828696936368969 9.2253481447696668 437.2698612511158 23.273563921451569 5.3337649106979361 44.726254299283028 22.578348040580753 17.746738970279694 129.16766184568405 64.325458437204361 28.596123814582825 11.993633151054384 31.78431561589241 155.09253478050232 72.652777522802353 70.740489304065704 5.4507498443126705 24.41264420747757 8.5997996628284437 58.928859949111938 19.800278156995773 6.5170029401779201 19.686681479215622 15.579260081052782 121.31932437419891 69.534710884094238 34.800469011068344 44.415166795253754 94.670254394412041 12.255029559135435 9.6731461733579653 35.16075211763382 25.197578072547913 83.733086168766022 11.984321594238279 12.3813099861145 51.86627721786499 14.245056629180906 22.500093162059787 4.6875866949558249 12.785499989986418 96.021488279104233 6.0905722677707663 34.646620899438858 16.735004484653473 36.133071452379227 31.509793519973755 15.3320434987545 113.54345320165157 3.842622995376586 9.1207561641931516 19.990037530660629 48.70087257027626 41.29489204287529 56.98055511713028 18.104484438896179 22.725883632898331 9.9496860206127149 86.478963792324066 16.823325902223587 8.587834298610689 15.403878211975096 19.240782409906387 11.849668920040129 13.739235430955885 30.719398409128189 5.3509204983711225 5.6088675409555426 26.689535528421402 12.823245495557783 11.837271869182585 12.790182322263719 46.461178630590439 56.019735664129257 8.2113642990589124 17.944453299045563 6.9702432155609131 6.9139812886714926 56.022888451814651 86.027186810970306 286.26924884319305 5.5448704063892391 5.2455078661441865 11.402835339307783 17.126368552446365 33.345358520746231 13.019128769636156 9.5593021214008314 24.692858308553696 5.369011938571929 18.370367169380188 14.550629317760469 4.3985522985458365 32.818365782499313 17.441951721906662 14.086092680692671 5.2232229113578788 17.538452059030533 8.068151116371153 22.934963151812553 65.833523094654083 15.185356438159937 41.691303253173828 24.773166432976723 36.515596702694893 6.6663711965084067 4.7136748731136349 17.126724898815155 42.271480560302734 23.806743040680885
leaf_count=63 20 18 25 1549 56 15 159 74 59 468 161 97 41 100 481 159 249 17 86 28 156 69 19 71 40 338 209 118 107 341 44 22 111 88 231 32 32 173 47 53 16 42 346 20 89 54 99 73 39 408 10 25 63 157 128 192 49 52 37 307 60 25 42 66 26 31 93 15 19 60 38 25 37 163 187 23 57 24 18 117 197 611 19 13 35 54 86 35 28 56 16 46 40 15 92 43 49 19 51 23 84 211 46 95 91 120 18 15 44 135 83
internal_value=0 0.0588093 0.0793666 -0.0682116 0.0992748 0.11697 -0.0474917 0.138332 0.15071 -0.0423657 0.155371 0.0143057 -0.0584706 -0.0305307 -0.0193517 0.167353 -0.00772498 -0.0625424 0.0042959 0.175594 -0.0209774 0.0216528 0.178428 -0.100053 0.031364 0.0548106 0.0293686 0.011261 0.0944732 -0.098129 -0.0509272 0.0177454 0.03402 0.016795 0.0246538 0.012078 0.0480619 -0.0129688 0.0869078 0.0296817 0.00567868 0.0482028 -0.0738589 0.0776941 0.155391 0.125151 0.0737299 0.113831 -0.0108607 -0.0724778 -0.0636909 -0.0414792 -0.0922757 -0.0430712 0.0284534 -0.080575 0.0875594 0.110635 0.0302683 -0.114087 -0.0565592 0.088092 0.0682411 -0.00793682 0.176951 0.114672 0.0794618 -0.112474 0.0905123 0.162166 0.0103525 0.173473 0.00498234 -0.0524429 -0.0195116 -0.0748451 -0.0706739 0.00594959 0.206177 0.179257 0.199408 0.209514 -0.0579472 -0.00610631 0.0866983 0.0967908 0.0587284 -0.00324612 -0.0428727 0.1405 0.107385 0.107171 0.129041 0.053739 0.0387068 0.0235137 -0.00526906 0.0733738 0.112136 -0.028641 -0.0530017 -0.0353284 0.0359307 0.141761 -0.0744405 -0.0502099 -0.0144229 0.113441 0.054452 -0.0633225 -0.0331124
internal_weight=0 2133.32 1815.15 1833.15 1568.93 1298.52 246.218 1043.94 954.847 1395.88 937.1 270.419 318.167 1158.25 920.704 797.881 755.386 135.856 619.53 723.744 190.048 110.795 715.144 237.623 241.823 183.897 254.575 209.461 64.7334 181.484 86.8139 42.0877 156.48 523.319 480.177 396.444 185.332 73.4099 74.1375 42.1142 89.0932 58.3035 237.548 65.0194 390.751 172.363 99.7099 67.6429 32.067 165.318 96.2104 129.206 133.533 57.9262 65.116 79.2522 45.518 40.8304 174.661 128.119 41.6402 111.922 91.4846 34.6447 20.4375 56.8399 43.1007 108.343 29.8326 32.0233 24.8169 27.4165 22.2716 121.66 211.112 30.7897 43.142 12.3212 324.393 218.388 142.05 317.479 45.776 25.9757 139.219 127.816 63.4909 30.1455 61.4256 31.2099 27.8691 23.8211 24.2238 17.1887 164.711 131.893 83.6208 48.2718 34.9804 13.2914 108.455 88.7685 20.4309 76.3379 92.3678 67.5946 43.182 45.114 21.8404 112.539 66.0782
internal_count=12028 5906 4875 6122 4080 3287 795 2531 2275 4573 2216 793 1031 3739 2928 1845 2357 440 1917 1654 585 323 1626 834 696 514 756 641 170 625 284 125 449 1592 1447 1216 548 233 191 116 256 159 811 176 922 424 265 172 93 571 325 426 471 182 191 262 117 101 523 446 139 315 264 108 51 156 125 385 81 75 79 65 70 406 668 97 145 39 704 498 314 686 147 78 371 336 175 89 201 75 69 63 62 52 486 394 258 136 94 42 366 295 59 184 315 224 138 115 59 381 218
is_linear=0
shrinkage=0.165648


Tree=4
num_leaves=112
num_cat=0
split_feature=2 2 6 1 7 7 7 5 5 7 6 1 6 5 7 5 4 4 1 4 5 4 5 5 4 5 7 7 5 7 7 6 7 1 1 6 1 7 6 5 7 6 4 7 9 4 6 1 6 6 7 1 9 6 9 9 4 4 4 2 9 6 7 4 9 4 6 6 4 2 4 1 1 7 1 9 4 7 4 5 7 6 4 4 7 9 7 9 1 7 5 5 1 9 2 1 7 4 4 5 7 6 2 1 5 4 6 2 2 5 2
split_gain=668.55 249.6 75.9568 43.0868 25.1644 24.6164 21.2284 20.135 19.9149 44.7424 35.5087 17.8756 13.0493 12.7777 12.6946 11.6793 13.9388 10.6884 10.6773 11.4436 10.5328 10.5008 10.1641 9.58629 9.21053 8.77752 8.29215 7.76595 7.7288 7.66282 7.64749 7.49242 7.00499 9.59213 7.78475 7.91489 7.00127 8.45444 10.8435 6.7612 8.02983 6.68928 6.64542 6.13029 6.12011 5.95558 15.8292 5.82497 5.77508 5.56993 5.48404 7.52579 7.21386 5.43436 7.49305 5.28656 5.28588 5.27671 10.3845 6.13416 5.26971 6.58039 5.1355 5.03028 4.94007 4.93666 4.84044 4.83406 4.80116 5.23446 4.7914 8.10385 4.58481 6.48491 7.03925 5.51565 4.57393 7.56309 4.54646 6.93649 4.52516 4.52269 8.2425 5.21243 5.86595 4.46774 4.46628 4.46366 4.4621 4.42256 9.10058 4.26343 4.23736 4.21817 4.19711 4.12399 4.08624 6.85105 4.01924 4.45817 5.99347 4.01739 3.98338 4.21315 3.96125 4.22525 3.9266 5.65927 3.93178 3.91794 3.80454
threshold=-0.094042825879823891 0.12726892973051288 0.79435644470319922 -1.3961809478623246 1.2640982987540974 -0.81986704666153398 0.7007593125257906 -0.19591279402456904 -0.49624012036272253 0.27190146499985207 0.075181117907432968 -0.84432575317785064 0.83453205451743739 -0.62712516652415606 -1.4136048915320469 0.34453961944039097 0.4530650200829141 0.84572231331444958 0.11944232610499515 -0.23677261911779393 0.22278063694461778 -1.8328988537028199 0.49905196218310216 0.75976686254544756 -0.77105222277830232 0.88740398617276728 0.33610582158834684 -0.40564494408392587 0.3805259745800959 0.49892264124688762 -0.090673072038853678 0.31948342722744444 0.031271043015640307 -0.32189261132201374 0.13599802684168202 0.58352665803215753 0.67044861860716443 0.94918661102690249 -0.6900642186316791 -0.97855282350707351 -0.20833805897187482 0.38031762324892066 1.1509538608579459 -0.68607316409626284 -0.29457879589609243 -0.48522849335970292 -0.24597516689112761 1.4182005532344875 0.54263368965439418 0.73529064953774792 0.39450136281482989 0.29788853481840916 0.19776150001648282 -0.24597516689112761 -0.63337369778507879 0.19063666434964727 -1.3923737094664843 -0.72848668690419427 -0.21733811473255907 -2.6225577978487258 0.36147864913598199 -0.50150598129379664 1.0637152304262008 -0.85815747905717921 -2.4089997285987059 1.7891851736938593 0.63596785835089575 0.53347455740635563 0.099711033515890363 -1.9692300459546261 0.13314532500031348 0.89569556280306017 -0.17084307744300548 0.20061864373131996 0.23716047078706837 -1.5627380689932722 -1.0224298848361715 0.66856591161274859 0.25479242176285471 -0.39359360138931671 0.44749699227410555 0.35276071314423968 -0.3624274744860474 0.10818844563446296 0.25028710774744822 -3.1472899712665527 0.66856591161274859 0.20657664877465218 -0.46996003502631306 -0.40564494408392587 -0.20967032366757696 -0.83824233797152647 -0.43000459416421666 -0.72100070607810174 -0.86916907816517119 1.5558823300479172 -1.7352760837790058 0.86350000480978972 0.16211966775145062 0.25771198327255301 -0.81986704666153398 -0.56917200627151099 -0.70678553675145261 0.56937828280268532 -0.51623128525598483 -0.13236194574570767 0.14772467769165429 -1.3273589218414725 -0.50513335415771377 -0.23407168134707521 -2.2078113207671715
decision_type=2 2 2 2 2 2 2 2 2 2 2 2 2 2 2 2 2 2 2 2 2 2 2 2 2 2 2 2 2 2 2 2 2 2 2 2 2 2 2 2 2 2 2 2 2 2 2 2 2 2 2 2 2 2 2 2 2 2 2 2 2 2 2 2 2 2 2 2 2 2 2 2 2 2 2 2 2 2 2 2 2 2 2 2 2 2 2 2 2 2 2 2 2 2 2 2 2 2 2 2 2 2 2 2 2 2 2 2 2 2 2
left_child=3 2 5 -1 12 7 11 47 9 13 21 25 15 39 53 29 23 18 19 30 -20 -10 86 26 55 -3 64 101 76 56 -12 88 33 43 44 -36 -26 38 -38 42 60 -22 -7 -25 92 46 -16 78 80 72 51 -24 -53 96 -55 -11 -5 -50 -59 -60 -41 91 87 -45 -17 -56 -37 93 -61 -70 -43 -72 75 -74 -75 -13 77 -4 79 -2 110 83 -83 -58 98 -27 -18 -8 -31 90 -23 -62 -34 -32 -94 -19 97 -9 -85 100 -100 -15 103 -68 -29 -106 107 -90 -109 -81 -28
right_child=1 6 28 4 -6 8 62 14 10 24 17 49 -14 27 45 16 22 95 20 -21 41 89 50 32 36 85 48 104 -30 31 67 -33 34 -35 35 66 37 -39 -40 40 -42 70 -44 63 -46 -47 -48 -49 57 -51 -52 52 -54 54 65 -57 81 58 59 68 61 -63 -64 -65 -66 -67 102 -69 69 -71 71 -73 73 74 -76 -77 -78 -79 -80 109 -82 82 -84 84 -86 -87 -88 -89 106 -91 -92 -93 94 -95 -96 -97 -98 -99 99 -101 -102 -103 -104 -105 105 -107 -108 108 -110 -111 -112
leaf_value=-0.03951553905165104 0.10269119212600944 -0.096592519074382155 0.2099299721916115 0.21114277706937576 -0.052510787608613455 0.11614992317576119 -0.073870346012389496 0.092587768269696724 0.089732713665664293 -0.0031060835389625651 0.087851045210323317 0.22833559531607234 -0.072508153237530695 0.06544268032092701 -0.089516434894079677 0.044818445300029097 0.10836053616727508 -0.14288512720019456 -0.043572550457764751 -0.10668722099084868 0.19866676616805837 -0.052742097732133182 -0.023785276844828698 0.2050133166783179 -0.12681887467426084 0.23124101759854712 0.004546757273161969 -0.084477354833220733 -0.14685106337809495 -0.095883183162090546 0.15409708375188594 0.11406712472685743 -0.025219532363057382 0.21594523889076783 0.27603358865150163 -0.019397161419917396 0.22733448154232355 -0.12426689434241843 -0.043788270624790383 0.026916523783398035 -0.014902742843705092 0.079533993345531892 -0.10848172791139757 0.18092110043960341 -0.014077921743634149 -0.093352786939154539 0.30752008236031952 0.12544378356430674 0.22104814481952392 -0.046342800616612986 -0.054472371267055446 0.25911177328849361 0.047876628365722408 0.16098267843163203 0.037815265812296266 -0.095526825965619275 0.091323181983205201 -0.023947150860256297 0.00022048698681673509 0.18303107507066174 0.058560601447338025 -0.044998688644393499 -0.086268823005167444 0.044167636546477027 0.17582566711338538 -0.11453003908915177 0.10765708310202239 -0.11859672041806607 0.18716600772195036 0.049677149317827483 -0.078068284169583932 0.1241978754599605 0.18958419929186995 0.037716000276816597 0.14765526339005033 0.075048025346425157 -0.10519439895087174 -0.12166700895548074 -0.0061274965018557354 -0.0235795854344426 0.17850195963241955 0.17042521290424698 -0.0049678418958417139 0.24107864400417031 0.24398921628177386 -0.0025004752557133856 0.271458366632432 0.074678586142503361 0.032107390073991618 -0.11469938308868319 -0.11866788237216251 0.25106982887240409 0.084897450821040332 -0.029670653863164483 0.25453690467603474 -0.0069694520060805598 -0.092535017301445824 -0.065670366859318721 0.17097349203935222 0.2451918101175069 0.074776176619126569 -0.038957807387965178 -0.012510472322786684 0.27987735966066091 0.085871236732183137 -0.093768671732907663 -0.01987345411942595 0.22729347219266216 0.036246049142990219 0.12513345289212199 0.13999811935034678
leaf_weight=58.755954086780548 31.190251737833023 14.712516099214556 3.4215506911277762 12.095039367675779 26.967077821493149 29.112304985523224 7.6299401521682766 12.779706448316576 7.855238825082778 45.422456502914429 18.740708753466606 7.4627946913242331 10.733858048915861 21.522462040185928 9.865063011646269 8.2128009200096113 23.200502634048465 26.830531299114227 41.925146609544754 51.6009801030159 8.5298140645027143 116.74782511591911 16.699650794267654 11.813114404678343 146.32786577939987 4.3697837889194489 8.3930318653583544 80.826414942741394 263.52277413010597 7.4268248677253714 4.249214679002761 40.103303670883179 6.4076014161109951 28.389652073383331 8.122320204973219 7.9188098013401058 4.5572254359722129 35.237513482570648 36.202842384576797 57.556611657142639 143.88237053155899 37.879760712385178 4.1258322596549979 9.2107525765895826 32.144093543291092 133.50578032433987 3.8230821192264548 12.495932072401045 8.5947488844394666 4.6182646155357352 18.355575770139694 7.2093943953514126 11.532337367534636 10.507676064968107 22.859178334474567 27.12370890378952 224.94502738118172 19.013447135686874 11.265447050333021 28.781316101551056 4.81564685702324 4.5289844274520865 14.869110107421873 37.142611473798752 206.01108029484749 7.8374859094619742 11.210883736610418 14.028698593378065 10.984813362359995 24.644993096590046 17.109544366598133 7.965663254261016 69.76006817817688 20.768952161073685 69.313267827033997 47.043156892061234 121.47465571761131 4.2090671360492706 159.83812776207924 33.49631342291832 62.698430895805359 10.229969948530195 26.133154511451721 7.2013269066810599 12.098112404346464 4.6120095252990705 5.7485307455062857 20.364439368247986 38.479023694992065 353.65845967829227 113.13004624843597 9.1630096733570099 15.468643426895145 17.719847679138187 5.3985927104949925 7.9379061460494986 22.997261703014374 18.187900722026825 25.029229164123535 6.474101096391677 61.287050157785416 19.079341530799866 4.1948698163032523 5.9750662744045249 8.4024766832590085 6.2762139439582816 21.892576575279236 8.2689265012741071 4.6002110540866843 5.6862521767616263 17.666913151741028
leaf_count=158 102 40 13 39 93 90 22 41 26 146 62 24 36 66 26 23 68 81 139 162 28 319 45 38 468 14 23 219 957 21 14 128 18 92 27 21 16 123 108 171 412 115 13 29 85 357 14 41 28 15 49 24 34 34 71 94 660 54 31 90 15 14 50 106 640 23 34 45 34 69 46 24 221 59 217 133 435 15 501 104 200 33 74 24 40 13 19 66 123 938 277 31 44 53 18 24 66 58 77 21 176 54 12 20 25 17 69 28 14 18 54
internal_value=0 -0.0465651 -0.0639303 0.0990285 0.105721 -0.0509436 0.0998722 -0.0184275 -0.0612519 -0.0402383 -0.0782475 0.118855 0.109308 -0.0033708 -0.0522002 0.110964 0.125272 -0.0265143 -0.0130119 -0.0507197 0.022345 -0.100512 0.0616054 0.134206 -0.0889111 -0.0178177 0.148396 -0.0443018 -0.130584 0.0919609 0.00203998 0.0555511 0.102771 0.137014 0.0721641 0.131345 -0.105634 -0.0648455 -0.0134751 0.0186329 0.0081099 0.0610049 0.0882665 0.0984891 0.0348924 -0.0826838 0.0213754 0.0152975 0.123402 0.133645 0.0190176 0.0570791 0.129133 -0.0050527 0.040247 -0.0376605 0.103368 0.0967729 0.0854928 0.112989 0.0516404 0.128529 -0.00759573 0.0713416 0.170803 -0.0010816 0.0912344 -0.0426339 0.132712 0.0920655 0.042353 -0.0138142 0.137523 0.151669 0.122308 0.0960357 -0.09738 0.0270203 0.0093187 0.0444017 0.154389 0.0998767 0.0443752 0.105865 0.135047 0.111218 0.140748 0.0341912 0.0264603 -0.103073 -0.0851862 0.18475 0.0926052 0.00587336 0.128785 -0.111855 -0.0396409 -0.000360429 0.121866 0.112615 0.102671 0.0163835 0.132209 0.167533 -0.0701008 0.00906204 0.0388662 0.0639102 0.159002 -0.00199805 0.0963738
internal_weight=0 2693.3 2407.77 1275.13 1216.37 2015.14 285.524 485.07 1530.07 684.163 845.909 242.661 1189.41 389.292 242.363 1178.67 672.41 254.518 219.749 106.339 113.41 591.392 82.746 589.664 294.872 23.6943 406.267 136.107 392.628 506.264 54.7385 120.771 183.397 86.5561 96.8409 37.4219 222.325 75.9976 40.7601 253.185 219.947 71.4848 33.2381 58.1665 59.4189 147.194 13.6881 242.707 192.043 218.967 53.797 35.4414 18.7417 95.1692 41.2043 72.5462 385.493 103.285 94.69 75.6766 76.0643 18.5076 42.8635 46.3534 214.224 30.6967 29.2996 35.9978 64.4111 35.6298 62.955 25.0752 214.348 159.842 90.0822 54.506 129.105 7.63062 230.211 70.3728 88.7584 373.398 36.3631 337.035 112.09 8.98179 28.949 27.9944 80.6676 583.536 229.878 13.9787 27.2748 21.9691 20.8672 34.7684 53.9649 30.9676 99.9917 92.7904 86.3163 40.6018 21.3808 17.186 95.5051 14.6787 73.2407 51.3482 12.8691 39.1826 26.0599
internal_count=12028 8185 7311 3843 3685 5891 874 1456 4435 2082 2353 736 3592 1127 690 3556 2029 793 688 336 352 1560 239 1790 955 67 1246 381 1420 1527 174 383 544 265 279 114 715 247 124 746 643 213 103 173 165 397 40 766 583 669 152 103 58 293 128 240 1144 306 278 224 231 60 138 135 663 94 87 112 193 103 185 70 654 497 276 157 463 28 725 224 277 1105 107 998 338 27 87 88 255 1534 596 46 80 67 62 105 165 99 298 274 253 120 66 54 261 42 234 165 42 122 77
is_linear=0
shrinkage=0.165648


Tree=5
num_leaves=112
num_cat=0
split_feature=6 8 7 5 5 6 5 8 1 1 3 6 1 3 1 9 6 8 9 8 6 6 1 8 9 8 1 9 9 3 8 9 6 8 7 6 6 5 6 5 7 1 3 1 6 9 8 3 3 1 7 1 9 1 7 6 1 1 6 9 1 5 9 1 6 7 3 5 1 9 6 3 7 5 1 9 1 7 6 7 5 9 3 9 1 5 5 3 3 6 5 6 1 5 3 7 1 6 9 9 8 3 3 9 9 5 8 8 3 3 9
split_gain=1132.39 376.065 104.657 101.52 71.8126 40.8978 38.9299 35.3384 29.2572 27.1174 26.4034 24.0406 23.0161 22.2004 21.2304 17.2872 14.4398 13.5168 13.2341 12.9494 52.471 20.2096 17.438 15.7914 11.9745 11.9497 11.5868 11.2725 10.4478 10.314 10.271 9.62079 9.04948 8.82498 8.61572 8.53217 8.4194 15.0979 13.2598 9.6404 8.77491 8.3885 8.16449 8.13522 8.0441 7.94817 7.75749 9.11367 7.53102 7.80716 7.03579 6.87031 6.74701 6.87167 6.3593 6.01205 5.96356 5.86903 5.72357 5.61817 8.19547 6.48313 7.23627 5.37265 5.36892 5.33501 5.2786 5.20193 5.16526 5.0795 5.06735 5.06263 4.99075 4.89602 4.79863 6.67147 4.61623 4.5909 4.91376 5.0028 6.15174 4.77396 4.52099 6.08757 5.9611 4.50184 4.40668 4.92899 5.28507 4.39952 4.34248 4.64332 6.07193 4.26418 4.12733 4.08451 4.17422 4.04758 4.03854 4.81152 4.03379 4.03351 4.01492 4.0093 3.99512 3.9725 3.96713 3.90832 3.89102 6.65953 3.84369
threshold=0.74750258610821008 0.67566478713492273 -1.2411667225696605 0.34453961944039097 -0.46755720337212564 0.6433120758827795 -0.24507094614368588 0.4098331078202368 -0.044355952096437792 1.1826396735413003 -0.36781276784704903 0.30338569700709889 1.0000000180025095e-35 -0.46933336594201719 -0.43000459416421666 0.74924465115153027 0.46553575227349603 0.048970664922886258 -0.18186552366017372 0.097634130753393111 0.33765147184559779 0.53347455740635563 -0.46996003502631306 0.4098331078202368 -0.61850108283034444 0.99886140563139925 0.26734723962540169 -0.19994648207470167 -0.014930151341515348 -0.18443053844468818 -1.1211791377324543 2.0701692764813568 0.092409535745046317 -0.29481009421216509 -0.32635525560553397 -0.36435317298226327 -0.16239631976663518 0.072024392989596162 1.0000000180025095e-35 -0.24507094614368588 -0.6143651245167564 0.805733736655453 -0.22591145287179062 -0.18538410638222302 -0.84855883353467887 2.0701692764813568 -1.2815383544507044 0.22843089603960545 -0.013552440398143599 -0.28926410472072511 1.085908680003967 0.0107744669913076 0.7952055700110221 -0.66455043372444866 -0.23897913405130222 0.44853150389173568 -0.52286003126428915 0.33517878876006241 0.79435644470319922 0.18398316450168353 -0.27882423490274499 -0.78098390682183572 -0.56151317830039504 1.4522151876434901 0.46553575227349603 0.22216716866348138 -0.044082960715449343 -0.40692553854857644 -2.0852044802370129 -0.3457263384094848 0.041403601173212713 -0.14916019616887757 1.0637152304262008 -0.65460968041996503 -0.087802256269960535 -0.30199740676498227 -0.54486732367882895 -1.8948240026524188 -0.15246482340657092 -1.6960568970240681 -0.094347069044188284 -0.014930151341515348 0.13148944406794508 -1.1683160872593834 -0.23455494419883313 0.18796105304108804 0.081129662642799208 0.051281641261615905 -0.025095050698600994 0.85127535004771626 -0.55592826260112227 -0.53726495739588553 0.37970688315050521 -0.071490602197124484 -0.54338114133708737 -0.14725354917686193 -0.32951661380889008 0.43498320939447482 0.31890951498802195 -0.55045196135469954 -0.52136894144020374 -1.0000000180025095e-35 0.51600971526341544 0.58457865890679972 -0.51214469209965141 -0.78098390682183572 -1.5194872912505522 0.43258412957530729 -0.11834053613475709 -0.094739655523679092 0.2371222576331046
decision_type=2 2 2 2 2 2 2 2 2 2 2 2 2 2 2 2 2 2 2 2 2 2 2 2 2 2 2 2 2 2 2 2 2 2 2 2 2 2 2 2 2 2 2 2 2 2 2 2 2 2 2 2 2 2 2 2 2 2 2 2 2 2 2 2 2 2 2 2 2 2 2 2 2 2 2 2 2 2 2 2 2 2 2 2 2 2 2 2 2 2 2 2 2 2 2 2 2 2 2 2 2 2 2 2 2 2 2 2 2 2 2
left_child=1 2 6 13 7 9 18 11 42 19 45 14 59 35 17 30 -5 27 67 21 23 36 -22 52 64 26 28 56 43 -23 -16 33 46 55 -31 -3 39 38 -38 40 82 -17 -7 69 -19 89 47 77 49 -32 -18 -25 53 -21 105 -11 -4 -40 -12 60 61 -9 -63 90 86 -10 -56 104 -39 76 -55 -20 85 -68 75 -50 -15 -26 79 -79 81 -81 83 -6 -85 -37 87 88 -8 -2 91 92 -14 -35 -54 -41 -97 -24 99 -76 -59 -46 -95 -28 -1 -51 -83 -53 110 -110 -70
right_child=10 3 4 16 5 8 24 12 65 31 58 -13 63 25 15 41 50 44 71 20 22 29 97 51 32 -27 103 -29 -30 34 48 -33 -34 93 -36 72 37 68 57 95 -42 -43 -44 -45 101 -47 -48 -49 74 54 -52 107 94 70 66 -57 -58 100 -60 -61 -62 62 -64 -65 -66 -67 73 -69 108 -71 -72 -73 -74 -75 98 -77 -78 78 -80 80 -82 106 -84 84 -86 -87 -88 -89 -90 -91 -92 -93 -94 102 -96 96 -98 -99 -100 -101 -102 -103 -104 -105 -106 -107 -108 -109 109 -111 -112
leaf_value=0.21734487418398499 0.0032827661508686204 -0.08442675564676487 -0.0044637187076470479 0.088854859878694695 -0.12962331339814992 -0.00044511436784667075 -0.045565512551948836 0.23282266977828539 0.029022104677554408 0.021698189013760014 0.15826494912200792 0.24146396691986441 0.058153562511091716 0.239526715027683 0.15597774860667471 -0.029113536175829364 -0.098156428420377334 0.20650259823542041 -0.028380758825439511 0.06429199191179652 0.1707572059872994 -0.071461076481171976 -0.078916177605211454 0.096194754374249472 -0.053166437936781955 0.21253036249674442 0.047499082771706953 0.19170855847843804 0.23058416824695352 0.15625977430204818 0.089818550566865038 0.19584185663813922 -0.054330467903620422 0.0067857401764451234 -0.031265744174967851 0.091991982701018243 -0.070912711245117985 0.073051611430148961 0.19651341287110893 -0.14113152377760085 -0.11451943541461998 0.14867227080129711 0.22778445241803927 -0.00051086236183683507 -0.068030656817459068 0.25491825693882431 -0.13326145587469052 -0.068266059369004595 -0.12503186998531601 0.16388590110079138 0.037857492357411281 0.12515700814892294 -0.016192551030890887 -0.083839435781554672 -0.10878868094343097 0.21076076434331298 -0.12192354427038067 0.10602490528831834 0.23315431157129329 0.21793457671808225 -0.014234147022146239 -0.0028383378287646852 0.1911646341646242 -0.16834649460163364 0.089430651317494864 -0.065491343326918292 0.067046564906575748 -0.032325053669991874 -0.12784324842971526 0.23478284520540443 -0.014622311092202035 0.15277639490155284 0.14685087751743475 -0.10402832491188975 0.0033327260221321145 -0.026182413525563827 0.046439614215204268 0.15784109788555989 0.20413066437883676 -0.018057060268876712 -0.078021533355676992 0.23040153713916631 -0.097095738276227167 0.095190389051273319 -0.037062809259066812 -0.034596026745973264 -0.10934755839363304 -0.082500245765816244 0.12433773350051605 0.14606530978403384 -0.13656583646552431 0.13668973155671099 -0.088543830780090454 -0.1080859842961234 0.19201210294982185 -0.05053414723661085 -0.14288045716359468 -0.12808124048897893 -0.067816678952743015 -0.12856100286360686 -0.042954867901621806 0.11527925560395924 0.027898144155705285 0.13433887992253607 0.023368127664891349 -0.010922261480555159 0.039235584112234004 -0.021034282282344694 0.11457381371322109 -0.091159426335792909 -0.074096863636268592
leaf_weight=5.0520335733890533 20.656020998954777 8.9267485439777357 49.587541937828064 18.177685856819153 11.085618793964384 5.5270705223083523 11.702917441725733 13.704429656267161 25.614108026027679 20.653233587741855 29.704682856798172 8.3603914082050306 17.252269208431244 4.726622641086581 5.5655207633972159 13.800015568733217 62.946320801973343 15.065803617239 4.4668854475021353 12.72635744512081 5.7704879641532889 31.228610903024673 55.33867771923542 39.28602309525013 5.2137320637702933 116.82066377997398 33.764231443405151 6.7905966639518729 49.510772049427032 14.339816465973856 12.424744576215742 6.2998877465724936 28.046132326126099 22.970534890890121 12.65589754283428 22.538437366485596 62.650862753391266 4.4924730360507956 7.1274675428867367 355.85980105400085 195.31735613942146 15.418332844972609 19.38611812889576 11.474793344736097 6.1915546655654907 5.9159807264804831 5.541350692510604 11.034718066453932 26.237802386283875 4.1240744590759304 12.509490966796873 5.8397628962993613 5.3516228795051575 96.075732037425041 46.580834299325943 5.9431563317775717 15.588923513889311 8.8195883929729497 488.6901421546936 15.640008389949797 12.088310837745665 11.434280812740321 9.7946335077285855 5.811989188194274 6.4427950382232657 45.495388805866241 10.918576031923296 20.302019149065018 207.94390067458153 14.404751479625704 41.582921832799911 80.800659120082855 24.295635432004929 7.9199577271938315 8.1596126258373243 65.512506604194641 12.081459820270537 15.858233600854865 11.821490705013273 6.8982912600040409 8.313689231872571 7.4373524188995317 35.598335966467857 14.283176571130751 27.084563910961151 11.715571105480192 37.723714783787727 24.702021479606628 8.8020483851432783 8.3010783195495588 5.5131003558635703 7.5970485806465176 14.044519126415251 32.232573539018631 5.104300916194914 29.68019013106823 24.532436609268188 270.71949079632759 64.961304217576981 108.59315322339535 11.475563555955883 7.0372568666934949 7.308440536260604 25.686244875192642 6.8822934329509717 26.410544037818909 4.968683630228047 35.652596563100815 4.4384156167507163 158.12900181114674 44.286593809723854
leaf_count=16 68 27 151 60 29 18 36 41 89 66 89 26 48 14 18 46 205 46 16 40 19 112 187 119 16 347 96 22 147 47 39 21 87 72 43 73 182 13 23 972 520 49 60 32 18 18 14 36 72 13 40 19 19 275 137 19 47 26 1443 47 34 32 29 16 21 149 33 65 705 42 139 255 77 22 24 196 33 50 38 20 23 23 104 46 82 40 116 70 26 25 14 24 39 110 17 88 68 886 199 302 34 22 25 80 22 83 15 111 15 491 158
internal_value=0 -0.0360309 -0.0569441 0.108852 -0.0675749 -0.0828386 0.0338242 -0.0191163 0.022674 -0.0880884 0.219477 -0.0371872 0.0649704 0.151365 -0.0416943 -0.058163 -0.0436792 0.0267398 0.109105 -0.0925664 -0.0719283 -0.101951 -0.114685 -0.0132078 -0.0116537 0.172713 0.14204 -0.0113967 0.178807 -0.00663966 -0.0674295 -0.00198749 0.0262411 -0.0159739 0.0683457 0.0664265 -0.106565 -0.0903949 -0.0288646 -0.118443 -0.0949477 0.0647029 0.177151 0.118754 0.12374 0.0799585 0.0555548 0.0701789 -0.0706858 -0.0337329 -0.0756073 0.046548 -0.0432187 -0.0521646 -0.0497311 0.0639456 -0.0325578 0.0672003 0.228863 0.131932 0.103326 0.144007 0.0866711 -0.0185819 -0.056231 -0.031447 -0.0788652 0.0186931 -0.103613 0.1626 -0.0629308 0.143286 0.0894263 -0.00487548 -0.0853308 -0.0544504 0.100738 0.0954254 0.109435 0.083687 0.0411078 0.0924126 -0.0515335 -0.0206119 0.00860069 0.0486963 -0.0675473 -0.0326663 0.0273679 0.044214 0.00101927 0.0205216 -0.00767729 -0.0499768 0.0854474 -0.134679 -0.0923229 -0.119737 -0.100923 -0.119343 0.0217867 0.0294837 -0.0829518 0.0850192 0.105482 0.0126877 0.153839 -0.000458868 -0.105526 -0.0855425 -0.118406
internal_weight=0 3405.63 2976.05 429.579 2664.04 2025.91 312.011 638.13 96.0227 1929.89 553.268 525.249 112.881 335.946 516.889 416.627 93.6335 100.262 117.504 1834.48 573.448 1261.03 331.829 241.619 194.507 268.47 151.649 71.9671 92.1984 58.2243 387.409 95.4078 105.134 89.1079 26.9957 67.4764 1202.81 509.364 90.0735 693.441 283.369 29.2183 24.9132 42.6876 28.2946 34.8731 77.0875 71.5462 381.843 108.379 75.4558 80.7784 160.841 150.385 95.954 26.5964 65.1765 27.4226 518.395 62.6617 47.0217 34.9333 21.2289 50.2189 89.3735 71.1095 65.4194 32.2363 419.29 31.2128 137.659 85.2675 58.5496 18.8385 273.464 91.7503 16.8081 60.5115 55.2977 43.4763 27.618 19.3043 88.0517 52.4534 41.3677 34.254 82.9307 45.207 20.505 28.9571 44.4069 38.8938 31.2968 62.5115 10.4559 410.072 54.2126 326.058 181.714 116.753 20.2952 13.2288 39.541 59.4505 11.9343 30.5346 12.406 41.4924 414.798 162.567 252.23
internal_count=12028 10385 9072 1313 8107 6218 965 1889 316 5902 1643 1565 324 1008 1539 1233 305 306 374 5589 1831 3758 1092 739 591 791 444 220 268 202 1138 313 322 292 90 217 3556 1647 265 1909 781 95 78 121 86 111 235 221 1120 327 245 249 490 454 288 85 198 83 1532 183 136 102 61 141 269 238 192 103 1382 89 414 271 190 55 793 268 47 185 169 131 81 58 261 157 128 113 248 132 62 93 125 111 87 207 36 1128 156 1073 525 326 60 40 135 176 38 96 38 130 1369 506 863
is_linear=0
shrinkage=0.165648


Tree=6
num_leaves=112
num_cat=0
split_feature=7 5 0 7 5 5 1 3 3 4 4 4 1 4 9 1 5 7 0 4 3 3 1 4 9 0 7 1 0 1 7 4 0 9 3 4 4 1 5 0 0 4 3 5 3 5 5 7 0 4 4 4 0 5 0 0 9 7 4 4 5 5 4 0 1 1 3 9 4 3 1 0 4 1 9 4 0 4 9 4 0 1 5 9 4 4 9 9 3 1 5 5 4 0 1 0 7 7 4 1 0 0 5 9 3 1 5 9 0 4 5
split_gain=198.007 162.578 208.715 80.035 54.8338 48.2361 40.6181 31.8484 41.6323 24.3049 22.8062 21.4907 19.0011 18.2092 15.4656 18.2527 15.2799 15.1691 13.5323 54.0504 12.6833 16.422 12.2557 24.8241 15.5463 11.408 10.7054 10.5577 10.5347 10.3081 9.76378 9.54124 9.32446 10.1513 10.4364 10.0276 9.13809 9.4268 8.7583 8.74164 11.3957 8.38313 8.06976 7.85666 8.00399 7.43094 7.40617 11.8142 9.35437 22.3928 8.99306 8.76245 7.30544 8.30548 7.65805 7.53111 8.11925 10.5306 9.0319 9.94711 7.10101 6.91229 7.52636 6.83341 6.78612 6.56578 6.53298 6.45876 6.30459 6.23262 6.7705 6.52323 6.13788 6.09594 5.83491 10.4514 5.9199 5.82463 8.19313 5.66139 5.56924 5.55344 5.54625 5.51342 5.49998 5.33598 5.32349 5.45961 5.8801 7.29807 5.69491 5.24324 5.38801 8.23434 6.31146 5.22935 5.14482 5.13778 6.54241 5.17145 5.05763 4.97882 4.94193 4.576 4.54644 4.4861 10.6967 4.97796 4.43864 4.4138 6.96599
threshold=0.6559070712414411 0.23440364417059442 1.7805138625899495 0.25028710774744822 0.99057569300593806 -0.58661544727478632 0.96653444670381028 0.39484504696965478 -0.044082960715449343 -0.47565179418460318 1.7891851736938593 0.72594085489036475 0.89569556280306017 1.4060859700266015 0.50813064392040774 1.0000000180025095e-35 -0.25809839926956551 -0.80381189190594471 1.0343144567799361 0.10818844563446296 -3.5428460927255432 -1.5041492662767737 1.0000000180025095e-35 -0.43698153907145609 0.50813064392040774 1.7351892579911119 0.26523573486267066 0.10890431084960842 0.87001898803079303 0.805733736655453 1.0083432145020423 0.30567794371875062 -0.33566796778328883 0.26573402062928331 -0.013552440398143599 0.055533845782210357 0.18446549865470704 0.71343010655353523 -0.2274920771224245 -0.78948997085718897 -0.20245609617405899 1.4763975691806748 0.14180940148673707 0.69135934740392613 -3.0174023063566784 -0.67410032998245317 -0.42972555660674544 -0.34425362479561905 -0.26023724951712479 -0.37743838095313026 -1.1455705502742848 -0.032867385011437746 -0.40280957742076323 0.66909948789736839 -0.067654628011041038 0.98873050587050904 -0.32336177197015209 -0.62944518335253341 0.27180486879978916 0.35790481062355167 -0.70976670598607872 0.46290636042807703 0.4530650200829141 0.095404340049104711 0.22557189590454158 -0.17084307744300548 0.081760503434057108 -2.7398735459864927 -0.80043777380523351 -0.13038302681138333 -1.517277968933749 1.3775047178186719 0.4530650200829141 -0.55439084965137897 -2.4089997285987059 -0.5227543700534435 -0.074676731224748286 -0.70448030280467999 -0.60400994517044426 0.5824085701600058 0.16322851962485482 0.43797265665260138 -0.97855282350707351 0.065678564984891011 0.0083700489474928027 -0.84327129654978583 0.64131523372996713 0.52929642142294731 -3.3093870988591942 0.18257650223000177 -0.46755720337212564 -0.13838464099370293 0.71152526482789769 1.9352945660447591 -0.10154092922591829 0.052250027135224759 -0.30425652921772589 0.32758399381221498 0.54966792552201527 1.3874731641544946 -0.42919821764537797 -0.39389319386882643 -0.62712516652415606 0.434486815018998 -0.12491427022753744 0.032215680487138708 -0.13838464099370293 -0.11814758457109968 0.19895163963904486 0.39888453771048499 0.12320866894413331
decision_type=2 2 2 2 2 2 2 2 2 2 2 2 2 2 2 2 2 2 2 2 2 2 2 2 2 2 2 2 2 2 2 2 2 2 2 2 2 2 2 2 2 2 2 2 2 2 2 2 2 2 2 2 2 2 2 2 2 2 2 2 2 2 2 2 2 2 2 2 2 2 2 2 2 2 2 2 2 2 2 2 2 2 2 2 2 2 2 2 2 2 2 2 2 2 2 2 2 2 2 2 2 2 2 2 2 2 2 2 2 2 2
left_child=1 2 3 5 12 13 7 8 41 39 18 -8 17 14 15 32 22 25 46 -20 -19 26 23 60 29 61 27 68 36 31 -2 -24 -1 34 -34 85 37 42 66 -6 -41 69 83 84 101 -30 47 51 49 -48 -50 -10 53 -23 74 56 57 -56 -58 108 -5 -3 67 73 -27 -55 -21 -63 -22 70 -7 77 -29 -59 -54 -76 -77 78 -71 -68 -37 -33 -38 -17 -28 -36 87 88 89 -72 -90 -4 -93 94 -94 -70 -97 -14 -99 -100 -25 -45 -16 -9 -67 106 107 -79 -60 -18 -111
right_child=30 4 91 16 9 6 11 103 10 -11 -12 -13 97 -15 102 28 109 20 19 38 21 52 24 100 -26 64 43 72 45 -31 -32 81 33 -35 35 80 82 -39 -40 40 -42 -43 -44 44 -46 -47 48 -49 50 -51 -52 -53 54 65 55 -57 58 63 59 -61 -62 62 -64 -65 -66 104 79 -69 95 71 86 -73 -74 -75 75 76 -78 105 -80 -81 -82 -83 -84 -85 -86 -87 -88 -89 90 -91 -92 92 93 -95 -96 96 -98 98 99 -101 -102 -103 -104 -105 -106 -107 -108 -109 -110 110 -112
leaf_value=-0.10035128571483257 -0.080586312103442789 0.1330156031305417 -0.1303059910269066 -0.061795700846457441 -0.13412167616435167 0.13836473407890565 -0.13094236719728122 0.0095400736114047823 -0.053690497734915937 -0.14150967478636894 -0.099634247271635612 0.073776546814669636 -0.12891089351229112 -0.127328450143152 -0.11295099501758461 0.098130824895337365 -0.087350361313941915 -0.073067670864126646 -0.10163133942439122 -0.022666246836348519 -0.066337517716184846 -0.13055980551718765 0.13555566114956399 -0.15041024347675541 -0.051866621940895932 -0.10979587127423687 -0.034216883146656676 -0.091730949225839326 -0.14110659985429244 -0.018300097177704446 -0.1292459153617139 -0.16430435093867096 -0.053698656668483898 -0.10128973186561413 -0.062111294710279909 -0.11189962132396657 0.013880929481450385 -0.17128452478717657 0.17214282764852515 0.10432071738544721 -0.11304218314175421 -0.12819467221017139 0.18122696099812632 0.084198734970760442 0.17638866185267041 0.090844149197564075 0.13388464052781379 0.13506218917533797 -0.0014143701985222209 -0.15487834463776046 0.15780404152006353 0.093916043266425386 0.16434337139912952 -0.091765131185713555 -0.16254165872218124 0.090231355752490347 -0.12081977782394519 0.089410357688287811 0.22329284986439113 -0.062792550418006882 0.060757534223952282 0.065179710899057886 0.11625994189695228 0.086573099781970933 0.079021206339873071 -0.062113332199315599 -0.065364318458280626 -0.086679856641436168 0.086609765714567438 0.14243493425538292 0.011381761566206171 -0.072213368652860668 0.065858904857891559 -0.15513427825438919 -0.081708293863096512 0.012999519232037675 0.21381215125493572 0.081150595859329558 -0.10734969035074599 0.14720438921964504 0.049385875810567047 0.081832408358457884 0.16396833394047278 -0.071036354814470154 0.074126757963531534 0.13451275481605846 -0.12165448221701909 0.16688708145678682 -0.086040081643877789 -0.16357569437548672 0.058924534726038945 -0.13583861629855076 0.21783110842355513 -0.080993694919707288 -0.037680890512134267 0.045338213832784552 -0.12491592299189713 -0.093669863785738924 0.070453697464002402 -0.1143173886888063 -0.015510518142681508 -0.15838329356723554 0.074170476999114082 -0.10965451437779498 0.10666315986928489 0.15342402926338627 0.15083713072384611 -0.015170573537774448 0.0095617168921353166 -0.08054312214223372 0.11499674986285945
leaf_weight=22.324762582778931 318.35325416922569 34.344488576054573 150.26448437571526 17.078582748770714 10.255939349532126 18.709473580121994 34.837242305278778 76.120079755783081 18.521590799093246 164.52700638771057 12.512080803513525 23.603604808449745 43.524176344275475 23.195648089051247 26.279577866196636 10.423046559095384 78.684601843357086 103.01114167273045 34.25995759665966 12.703356832265852 14.532549142837523 38.057149395346642 59.579159453511238 38.00694414973259 34.267489179968834 17.156220465898517 22.046856164932251 40.389869645237923 8.7350869923830015 22.644016325473785 175.53975786268711 4.9335225224494916 25.147107228636742 16.941516235470772 4.1675824820995322 9.75381648540497 7.7040141075849524 4.9194311946630469 69.822024658322334 22.892614275217053 9.3096533417701739 6.6189814507961264 12.263277888298033 7.2848215252161026 26.819259464740753 6.6942864060401908 36.189255431294441 104.98277693986893 9.9649403393268567 9.2528640925884229 420.05188180506229 27.30231374502182 6.0406775176525107 18.252787828445435 8.5155140012502653 10.71841476857662 60.751227274537086 4.4670922607183456 5.2865366488695127 44.038383990526199 53.966223910450935 14.64737716317177 19.867427468299866 27.205863416194916 7.5087784826755515 6.771264627575877 3.9618992358446148 16.166992545127869 44.566956341266632 6.0668781697750083 50.431917324662209 6.9141051173210135 8.1500301957130414 7.4814400225877744 35.420611783862114 137.92634485661983 4.1493103355169287 35.381178826093674 8.8730413019657117 25.994730472564697 14.770811110734938 5.1313375234603882 54.894825965166092 10.726931720972059 30.842005789279938 41.487259417772293 5.8281305581331244 8.7568156719207746 7.8608901500701895 7.5171849876642218 137.54183606803417 24.810317769646645 5.2067871391773224 31.569880977272987 5.4075728207826597 14.326210036873819 7.37850297987461 40.144073158502579 15.334550067782404 5.7018539309501639 9.5402089357376081 3.4074740856885892 4.5421223044395438 9.998677656054495 12.398202732205389 35.783076748251915 40.73670619726181 25.21427708864212 5.3788737058639526 12.363062128424646 8.3925100862979871
leaf_count=75 1179 83 583 59 38 43 126 231 56 669 44 67 171 83 89 26 278 376 114 36 51 143 145 136 110 59 75 152 30 69 694 17 82 56 13 34 24 17 151 64 33 23 27 21 63 17 82 237 28 29 905 67 15 66 31 30 228 13 13 149 145 38 52 78 22 23 12 58 130 14 151 22 25 29 133 430 10 88 27 59 43 13 127 33 88 105 21 22 25 27 383 93 12 113 17 44 28 147 44 21 27 13 12 38 34 80 91 70 17 44 25
internal_value=0 0.014413 0.0410061 0.0579023 -0.0352744 0.0731735 0.0867766 0.0929715 0.100024 -0.112674 0.122216 -0.0482587 -0.0187584 0.0137466 0.0253598 0.0389601 -0.0146582 -0.0106938 0.125807 0.0805299 -0.0190501 -0.0105237 0.00755766 -0.0307031 0.0434108 0.0468694 0.0263561 -0.00420998 0.0870064 0.0787883 -0.0978809 0.110356 -0.0025778 0.0168647 0.0378632 0.0706721 0.106494 0.0427999 0.136013 -0.000936294 0.0414813 0.0566854 0.0743195 0.0700897 0.128075 -0.040471 0.136416 0.104431 0.146561 0.0750871 0.154114 0.0342549 -0.0292459 -0.0760718 -0.0193562 -0.0442713 -0.053109 0.00440418 -0.0768555 -0.0280311 0.0312968 0.0756413 0.0367616 0.0407125 -0.0523142 -0.0206595 0.0768785 -0.0144946 0.03247 0.0597786 0.0427377 0.0851461 -0.065271 -0.0637085 0.00424294 -0.00120571 0.0188642 0.0923014 -0.00591588 0.119091 -0.0147598 -0.0388172 0.145497 0.0123319 0.0289634 0.116564 0.0345283 0.0388198 0.0333049 -0.0113138 0.0510873 -0.113123 -0.074584 -0.0385576 0.0876584 0.0541372 -0.0125396 -0.0854067 -0.0544575 0.0203721 -0.123343 0.00689148 -0.0853753 -0.00429882 0.0470459 0.103003 0.085198 0.0410705 0.115502 -0.0694264 -0.00147663
internal_weight=0 3376.13 2199.13 1981.87 1177 1637.28 1332.31 1273.87 1187.75 206.985 785.52 58.4408 970.011 304.971 281.775 250.954 344.588 865.307 773.008 146.742 755.615 652.604 245.147 118.592 126.556 109.691 219.745 129.344 116.361 92.288 493.893 69.644 134.593 112.268 95.3266 70.1795 100.932 38.3327 112.482 42.4582 32.2023 402.234 33.4133 90.4004 37.5116 15.4294 626.266 150.807 475.459 45.4421 430.017 45.8239 432.86 75.4794 357.38 173.843 163.125 47.6699 115.455 54.7038 71.0448 85.0263 50.6818 39.1544 24.665 37.4223 42.66 30.8144 80.8042 395.616 236.646 158.969 48.5399 11.9485 183.537 177.496 142.076 152.055 14.9399 29.9566 24.5246 10.0649 62.5988 21.15 52.8889 45.6548 217.937 212.109 203.352 57.9491 145.403 217.259 66.9946 42.1842 10.6144 66.2717 21.7047 104.705 61.1805 21.0364 47.5472 10.6923 30.8217 86.1188 19.1695 137.115 101.332 60.5955 10.6654 99.4402 20.7556
internal_count=12028 10155 6148 5330 4007 4262 3369 3176 2907 804 1820 193 3203 893 810 709 1068 2820 1776 372 2508 2132 721 367 354 312 690 430 301 244 1873 175 408 333 277 195 254 103 258 135 97 1087 86 260 97 47 1404 360 1044 111 933 123 1442 266 1176 588 558 151 407 179 204 231 148 120 81 123 107 96 253 1064 672 392 177 42 588 573 440 370 41 71 77 30 151 59 163 118 629 608 586 178 408 818 235 142 29 202 72 383 212 65 163 34 101 269 57 329 249 158 30 347 69
is_linear=0
shrinkage=0.165648


Tree=7
num_leaves=112
num_cat=0
split_feature=3 3 5 0 1 5 0 4 5 4 7 5 1 4 7 3 5 3 4 5 4 3 5 0 5 0 7 1 5 5 7 1 7 3 5 5 3 5 4 0 1 5 4 1 3 9 9 3 4 3 0 5 4 1 4 0 9 5 1 1 0 0 4 0 5 0 9 1 1 9 0 4 7 4 9 0 3 5 9 9 1 4 7 1 4 0 9 7 4 9 5 9 7 0 4 3 3 0 1 7 0 1 1 7 9 1 4 5 3 5 1
split_gain=388.531 210.395 46.5155 37.8187 32.6129 29.9547 27.375 27.735 20.4189 18.9361 17.4984 16.3658 15.6287 15.3805 14.8685 14.8641 14.2347 14.1322 12.801 11.6886 10.1177 9.5099 9.28474 9.02823 8.49558 9.35099 7.27355 8.24022 6.78564 6.41973 9.04012 6.18084 6.11306 10.5579 6.65148 6.011 5.96832 5.85292 7.86989 11.8704 6.32139 5.82925 5.7404 5.71182 6.68011 5.71085 5.62625 5.55229 5.54649 5.48221 5.47726 5.31733 5.24708 5.15264 4.9992 6.35357 5.82985 4.96709 5.9769 4.91686 6.37879 6.80798 5.50466 5.13528 5.40865 4.86059 4.78731 4.76148 4.71614 4.60638 6.03889 4.54693 4.50815 4.48541 4.78337 4.62617 4.44532 4.3824 5.89404 6.04581 4.36059 6.2808 4.35122 5.54456 4.324 4.24741 4.18423 4.12428 4.23777 6.93211 4.07619 4.06798 4.03655 4.00572 4.28957 4.05864 3.87758 4.06229 3.82033 3.73146 3.73088 3.69452 3.69002 3.66829 3.66696 4.20428 5.08919 3.65845 3.5237 4.41497 3.48948
threshold=-0.16732635583001701 0.39484504696965478 1.1553345440429321 -0.48309961596465051 -1.1689999103022439 -0.68330107535088713 1.1401627414000093 -0.84327129654978583 0.30997084439542605 0.52305811464082319 0.7007593125257906 -0.45420163281764564 0.074900982678276953 -0.77105222277830232 1.2640982987540974 -3.0174023063566784 0.87283375221357651 0.13148944406794508 0.84572231331444958 0.0068026506310710005 0.081415958297044566 -1.3486503604177822 0.18796105304108804 1.0000000180025095e-35 -0.2274920771224245 1.7805138625899495 0.052798838377985609 -0.34677110156327268 0.60320685651415651 -0.95488477094517121 0.27901941752399434 -0.056055096700179843 0.62181060176857705 -0.42075203854346438 0.14493593030412683 0.87283375221357651 0.11188985247251611 0.68469561914351618 1.0000000180025095e-35 -0.63936030723731319 1.2768268289951539 0.8158316482252933 -0.16394702355524263 1.2074046961654537 0.13463398726222639 -0.57902433802943154 -2.3419921892856519 -1.8976353450594181 1.1752040185929415 0.25687326398830473 1.9830610669974751 0.61729271785570516 -0.41253673901237997 0.76952731368115057 1.1509538608579459 0.67706805468705367 0.6925953007819684 -0.4893987923861276 -0.24181805640494541 0.41288376088839551 -0.41099877684781311 0.80933970824552603 0.57320774888032167 -0.65478155731942966 0.79581079633968133 0.50406621477236158 0.19776150001648282 0.89569556280306017 0.71343010655353523 -1.6681569742759701 0.35011755765713276 0.6139841422589688 0.44749699227410555 -1.06375934373967 0.44302995472801493 0.22403587843847791 0.22575035471062288 -0.35678290412792607 0.0027406618492587004 -0.085554820776515231 0.88436406616517715 -0.078266307202180876 1.1458833444758869 0.47471451691546279 -1.7076300406779794 0.2615155155720128 0.19776150001648282 -0.20833805897187482 0.20066021469508602 0.56149010562475687 -0.62712516652415606 0.42767471175803795 -0.31182994394691516 2.3522668745902338 1.8568195517249555 0.12837882132776104 -3.6840953364021192 0.23239969211112174 0.3605100079490195 -0.58061997859634451 -0.42919821764537797 -0.11486963300052443 0.25374063434388033 0.8421547402173869 -0.42925030101252321 0.60735546946768337 0.086620676824078965 0.41467265180811302 0.14427405745817776 -0.76769674372080865 -0.38519741209488895
decision_type=2 2 2 2 2 2 2 2 2 2 2 2 2 2 2 2 2 2 2 2 2 2 2 2 2 2 2 2 2 2 2 2 2 2 2 2 2 2 2 2 2 2 2 2 2 2 2 2 2 2 2 2 2 2 2 2 2 2 2 2 2 2 2 2 2 2 2 2 2 2 2 2 2 2 2 2 2 2 2 2 2 2 2 2 2 2 2 2 2 2 2 2 2 2 2 2 2 2 2 2 2 2 2 2 2 2 2 2 2 2 2
left_child=4 2 3 13 -1 29 7 28 11 17 46 23 20 84 15 22 18 -8 51 49 35 26 42 -9 77 -26 27 45 65 54 87 36 34 67 73 -10 48 38 39 110 100 86 69 -13 -45 -17 -3 72 57 50 -19 -14 -43 -29 56 -56 91 58 -25 60 63 -62 -61 -24 -65 -7 -38 -34 -48 -6 -71 -64 -40 -23 75 -75 101 -11 79 -79 107 -82 83 -12 -2 -37 -36 98 -89 -90 -33 -5 -77 94 95 -27 -44 -98 -31 -99 -41 -67 -80 -46 -39 -106 -107 -70 109 -100 -28
right_child=1 10 -4 5 14 6 9 8 12 24 82 43 16 -15 -16 21 -18 19 -20 -21 -22 32 59 31 25 93 37 53 -30 30 -32 90 33 -35 41 85 66 104 47 40 -42 52 96 44 103 -47 68 -49 -50 -51 -52 -53 -54 -55 55 -57 -58 -59 -60 62 61 -63 71 64 -66 76 -68 -69 80 70 -72 -73 -74 74 -76 92 -78 78 102 -81 81 -83 -84 -85 -86 -87 -88 88 89 -91 -92 -93 -94 -95 -96 -97 97 99 108 -101 -102 -103 -104 -105 105 106 -108 -109 -110 -111 -112
leaf_value=-0.028905393906548279 0.032592596170759186 0.041131891675171853 -0.13651835774042045 0.084123310127148437 0.17380181494984259 0.0028457571961424196 -0.0060228536973904187 -0.090720699476465605 -0.055998118761299301 -0.028306928235803441 -0.10669961239411964 -0.09753555875699596 0.10884736332720669 -0.11697348827367576 -0.037506610676673192 0.058243336453018747 -0.13598730935843806 0.043293469157745991 -0.10953473452438921 -0.029998835985744415 -0.131157453241597 0.17952254687626742 0.11237306309011343 0.050191712107536542 -0.10241602075858289 -0.047641757974495318 -0.11863872106373748 0.1388735014623447 0.21856743869868003 0.020681050100941803 -0.075217623987724316 0.0077373503220563673 0.040360197850609757 -0.062047700436669087 0.15997253255506175 0.011404913418975683 -0.074803361059704962 0.084662940686877186 -0.072168052027043267 0.22286590329469211 -0.043140198136780709 0.12812651352570506 0.13821714639664293 -0.082204809101302775 0.12403649210915571 -0.095902887386203298 0.12508470005414607 0.092595317089814569 -0.094010232741142688 0.20956321243122486 0.19262017055158603 0.021143925983624016 0.0054455002790395508 -0.006536370299364264 -0.16327172189568745 0.11176014625792224 0.21776002909929379 -0.046203796242673172 0.2001152842732935 0.15969166618891936 0.1349064431305558 -0.018811068116948954 -0.044345954801633169 -0.065657839185372754 0.098700194853626938 0.14411757920668933 0.068714641762840853 0.17403530665475839 -0.097531139855843108 0.047702369285739378 -0.10804373918522665 0.11627763756211851 0.02663563127026447 0.030783660229360486 -0.039690380063910735 0.076553156016804694 0.24451993379876455 0.060920953201390862 -0.040935079386691976 0.29556551700847383 0.0050505815810108854 0.153468996922447 -0.10206681554183095 0.060068080688881191 -0.059047132225587863 0.20272364702374857 0.10371824923507078 0.024269570882889887 -0.068663111187354076 0.13855867528334589 -0.072324761541984403 -0.028325554893861377 0.22444699554822875 0.095959509515230509 -0.095952291863438857 0.048367627886294257 0.15050763298673844 0.12161591655243947 -0.054471532556583144 -0.055633542948065474 0.12127071981183911 -0.06755793691814159 0.098997193967009539 -0.072889955366238282 -0.046224572984975586 0.21407498108158293 -0.033647116311960733 0.062307010021108618 0.18883707079801793 0.13218344798936249 0.027937559745075016
leaf_weight=73.706772089004517 15.897093400359152 33.384729534387589 166.69226133823395 38.323076620697975 6.7144738137722006 58.172147631645203 80.58868470788002 71.667057067155838 39.141723528504372 76.520607277750969 7.1380873918533352 527.51721808314323 47.012364640831947 250.18660426139832 26.660669982433319 53.292058795690536 13.035696893930433 19.654600486159328 12.099299460649489 14.818319469690321 39.490444302558899 7.9519287049770346 19.923946052789688 20.331384181976318 74.5869320333004 27.753633856773376 5.5375961065292385 61.013993471860886 5.2658081948757163 47.916942209005356 35.688234061002731 23.929850503802299 16.767576128244404 18.015785932540894 80.388074159622192 11.332798600196837 25.721677199006081 9.8544407188892347 22.711822897195816 13.837043851613997 5.136367291212081 17.78552933037281 44.399480611085892 23.064083501696587 9.0370358824729902 7.5262340307235709 198.34713231027126 16.824583172798157 6.1346426904201499 18.321648955345154 10.257525712251661 31.798396348953247 20.699415221810341 7.509736329317092 5.6546410620212537 3.8904156386852264 7.1927364766597739 7.4632416665554038 11.380554631352426 134.08484295010567 117.18635994195938 8.4776719212532026 6.4469728171825436 14.250154763460161 8.9408269524574262 4.8384457230567923 8.4800626784563047 12.965091109275816 6.5697611272335079 59.939276337623596 7.7098205089569083 19.350472956895828 28.662974566221237 33.496997267007828 13.654961109161375 14.507402181625368 4.6321752071380606 18.174208253622059 25.127449661493305 3.6118322610855094 11.986575454473494 22.527300894260406 10.60035392642021 23.413457348942757 126.97539062798023 4.4281931519508353 66.123348236083984 57.595710173249245 37.946078926324844 5.0150409042835227 64.428773418068886 11.469467014074324 7.7792109400033942 7.3737893402576438 20.562626957893372 21.395296052098274 7.807320952415469 4.8596945106983194 6.0242765247821799 9.8939936161041224 35.020981013774872 4.2496782541275016 6.5106710195541373 3.6413782238960257 44.711963057518005 4.1024647057056409 5.1100114285945892 9.7761156558990461 8.3391670882701856 8.2237140238285082 22.829903364181519
leaf_count=203 54 96 679 116 21 174 265 203 120 244 23 1486 149 915 94 147 52 66 39 48 130 25 61 61 215 94 14 182 17 145 109 69 50 51 246 38 71 29 56 45 16 53 136 79 31 17 596 49 20 61 35 95 57 23 19 13 25 22 39 416 353 23 18 37 26 16 27 42 18 178 19 59 82 93 38 41 16 58 81 13 37 70 38 75 432 16 195 169 103 17 180 33 25 24 69 70 25 14 19 25 105 14 22 14 114 13 14 28 27 27 72
internal_value=0 -0.0348538 -0.0521936 -0.0457157 0.0779121 -0.0354302 -0.0445996 -0.0586362 -0.0660114 -0.00900812 0.0902948 -0.07777 -0.0184172 -0.0922116 0.0847556 0.0876561 0.0258936 0.0399355 0.0491059 0.0986761 -0.0672123 0.0715041 0.110126 -0.0415023 -0.0339721 -0.0606026 0.0525265 0.0835479 0.0370582 0.0150185 0.000616324 -0.02049 0.0925346 0.0380177 0.102455 -0.0212178 0.0130167 0.0338068 0.0516225 0.0860845 0.131666 0.119514 0.0746203 -0.0931935 -0.0291103 0.0391678 0.104991 0.010004 0.0524465 0.138207 0.0945009 0.073461 0.0621416 0.122938 0.0597746 -0.051173 0.0783584 0.0753809 0.103995 0.125393 0.105673 0.124536 0.14621 0.0506957 -0.00229283 0.0237634 -0.0392192 0.09865 0.113546 0.0429409 0.0299523 0.0761366 -0.0170436 0.0616787 0.0481836 0.0696937 0.112451 -0.00288889 0.0335179 0.0998219 0.0685443 0.101924 -0.0106234 0.0211043 -0.0488506 0.0651576 0.134584 0.0164375 -0.00509956 -0.0444732 -0.0506418 0.0582213 0.128176 -0.0201444 -0.0324254 -0.00584737 0.109802 0.0538823 0.0471548 0.00275038 0.150043 0.0451364 -0.012139 0.0674771 -0.00825019 -0.0252296 0.0766675 -0.0019354 0.103317 0.0532628 -0.000675475
internal_weight=0 2660.33 2336.58 2169.89 1224.17 1776.83 1503.55 1078.29 1001.14 425.258 323.744 802.797 198.339 393.059 1150.46 1123.8 103.946 143.641 90.9101 63.0521 94.3932 653.817 469.985 239.537 281.617 151.672 343.682 129.342 77.1583 273.28 206.749 167.87 310.135 47.7485 262.387 54.9027 79.5116 214.34 150.561 82.3619 53.9944 184.996 141.324 563.26 35.7425 60.8183 282.592 68.1994 45.3098 48.2338 29.9121 78.8108 38.4849 68.5237 66.5303 9.54506 56.9853 39.1752 31.7119 328.661 168.779 125.664 159.882 43.1149 23.191 71.8924 34.2017 29.7327 249.207 74.3636 67.6491 25.7974 51.3748 77.3905 69.4386 55.7836 13.7203 129.945 53.4242 21.786 50.8598 34.5139 41.1519 30.5515 142.872 15.761 146.511 171.061 100.557 42.9611 88.3586 49.7925 22.2866 77.0853 69.7116 49.1489 66.9605 22.561 70.5041 14.7537 48.858 9.08812 31.6381 12.6784 63.7789 53.9244 9.21248 16.3459 22.5872 14.248 28.3675
internal_count=12028 8426 7445 6766 3602 5365 4543 3178 2941 1365 981 2302 639 1401 3399 3305 335 475 283 210 304 1894 1411 692 890 472 978 369 237 822 616 489 916 143 773 174 240 609 439 252 166 551 418 1610 124 164 845 187 142 162 101 244 110 205 206 32 174 122 100 993 500 376 493 124 63 220 98 92 749 218 197 77 138 222 197 159 46 418 174 71 153 107 136 98 486 54 441 507 289 120 249 149 66 257 233 164 200 64 218 39 150 30 103 45 170 141 27 46 73 46 86
is_linear=0
shrinkage=0.165648


Tree=8
num_leaves=112
num_cat=0
split_feature=6 0 4 4 0 1 4 5 5 1 0 2 6 1 0 4 3 2 0 6 3 4 6 4 0 5 0 1 5 1 0 4 6 2 5 5 6 5 6 2 3 0 0 5 5 2 2 0 0 5 2 6 5 4 1 2 0 0 2 6 4 0 1 4 1 4 1 0 4 5 4 0 0 1 1 0 2 0 3 1 4 1 4 5 0 6 2 4 0 2 1 1 5 4 6 3 3 0 4 2 1 1 4 6 5 6 3 4 6 3 4
split_gain=764.117 289.794 144.2 85.5754 65.0482 40.0792 42.5693 38.2348 29.6997 29.5352 23.4444 22.0686 22.4605 23.3665 19.9482 33.0388 17.0847 14.4518 13.6228 13.5746 13.0822 12.652 11.7497 11.6196 20.7537 10.8782 10.6952 9.94273 9.49387 8.22227 8.0829 8.06772 7.87591 7.7835 7.48855 7.14818 15.4492 8.54129 13.909 7.81677 7.52766 7.04536 6.9073 6.88051 6.84514 6.77581 6.71754 6.36711 6.34475 6.24386 6.23489 6.17069 6.02831 6.0066 5.98642 5.72644 5.9702 5.57217 5.53296 6.42265 5.37339 11.3287 5.33163 5.29625 5.96853 5.25181 5.23355 5.23232 6.00601 8.03202 4.96957 4.87366 4.85978 4.7921 4.72495 4.67286 4.67062 4.62376 4.59549 4.50091 13.0728 6.83161 5.60885 4.46758 4.38541 4.37287 4.37148 4.34048 6.08349 4.2983 4.11885 3.90108 3.84867 3.78319 3.7386 3.72348 3.82489 3.69659 3.67444 3.63877 4.2766 3.61142 4.70079 3.5572 7.1361 8.55519 4.14048 4.0134 6.05422 5.80915 3.50713
threshold=0.74750258610821008 -0.56528245397545229 1.2844129673776676 -0.45547891649182698 1.4482542563070375 0.95044332091718242 0.093846481742260776 0.60320685651415651 -0.70976670598607872 0.081595394055314463 0.9487488580608775 -0.031025725355992496 0.58352665803215753 0.074900982678276953 -0.33566796778328883 -0.090697006945255496 -0.36781276784704903 -0.11637592503913018 -0.81793296876726729 -0.40144427425378687 0.23147051042681538 -0.77105222277830232 -0.47078061859052994 0.23135094683030824 1.895748035923023 0.25771198327255301 2.0638517812817061 0.44984239408946736 0.99057569300593806 -0.070872969153104273 0.82936049118820943 2.2384721231604527 -0.44223102761499417 -0.03376045563042724 0.16441360270539512 -0.31324132585124503 -0.12682714993737512 0.13271320824362939 0.041403601173212713 0.094461534959807414 -0.022297717042098646 -0.75492608591336385 0.32272873440114502 0.56742447222329362 0.34453961944039097 -0.0066470199523024492 -0.094042825879823891 2.0638517812817061 -0.24343798122417382 -0.27694488151758784 0.092235020416512117 0.44853150389173568 0.58916203316845872 -1.9926638806032033 -0.22333260303367747 -1.7877123991767332 -0.19722597305793071 0.11687612572467217 -0.035252206534572388 -0.32140334197664394 -0.3034192591740687 0.57759646095587158 -0.56788005701217792 -0.35330108332246596 -0.22333260303367747 0.69253640240034675 -0.48902728085741187 -0.42011814454491642 -0.64974763654268086 0.34453961944039097 1.4763975691806748 0.30567386853660811 1.0767277818733547 0.64058761808049358 0.77579778375336839 0.72837256413892804 -0.22688976859078711 2.1077149682676111 -0.36781276784704903 -0.10154092922591829 0.69253640240034675 -0.35236581717893778 -0.71699095271321089 0.34453961944039097 0.66366717175710266 -0.26639839957652672 -0.026445470669088398 -0.77105222277830232 -0.1460404512294575 -1.7098311688976724 0.66152545521722994 -0.15641279326334109 -0.37520663280245503 0.93808745077958366 -0.29079143503452959 0.0084330049819298005 -0.11834053613475709 -0.68230877218010266 -0.29429885254901295 -1.7098311688976724 0.081595394055314463 -0.79088682446372316 -0.24415991848928512 -0.17749393184407478 0.27943907300594478 0.17955646876143228 -3.594588625997583 0.48209843121934254 0.4741734865972036 -3.5428460927255432 -0.96845667061955043
decision_type=2 2 2 2 2 2 2 2 2 2 2 2 2 2 2 2 2 2 2 2 2 2 2 2 2 2 2 2 2 2 2 2 2 2 2 2 2 2 2 2 2 2 2 2 2 2 2 2 2 2 2 2 2 2 2 2 2 2 2 2 2 2 2 2 2 2 2 2 2 2 2 2 2 2 2 2 2 2 2 2 2 2 2 2 2 2 2 2 2 2 2 2 2 2 2 2 2 2 2 2 2 2 2 2 2 2 2 2 2 2 2
left_child=1 3 4 8 5 11 25 29 33 10 -4 28 14 -14 15 52 55 -6 21 30 23 22 46 66 73 50 31 -17 67 -5 -11 51 -26 -1 48 39 -37 38 -38 40 60 -9 -36 54 53 83 -10 -32 -8 -28 -7 84 63 -24 110 -2 -57 -30 59 -12 61 -16 -62 94 -65 75 -19 68 -3 85 77 -15 -50 -25 -22 -41 -71 -60 -55 80 -42 -82 -81 -31 -21 91 -23 88 -18 -27 -40 -70 -68 101 -13 96 -34 -56 -59 -99 -101 102 -39 -69 105 106 -105 -106 -109 -110 -20
right_child=16 2 9 7 17 6 34 41 18 19 58 12 13 71 35 27 87 20 43 26 74 86 44 24 32 89 49 -29 57 45 47 -33 95 -35 42 36 37 93 90 65 79 -43 -44 -45 -46 -47 -48 -49 72 -51 -52 -53 -54 78 97 56 -58 98 70 -61 62 -63 -64 64 -66 -67 92 103 69 76 -72 -73 -74 -75 -76 -77 -78 -79 -80 82 81 -83 -84 -85 -86 -87 -88 -89 -90 -91 -92 -93 -94 -95 -96 -97 -98 99 -100 100 -102 -103 -104 104 107 -107 -108 108 109 -111 -112
